3393 100
به 0.035475962 0.09947874 -0.44417012 0.017750245 -0.20065859 0.006373834 -0.20635809 -0.01931834 0.12810999 0.051428616 0.09983113 0.16513412 0.090456344 -0.037539586 0.29175958 -0.09794659 0.1455562 -0.349476 -0.31440875 -0.027009254 -0.0876699 -0.043287847 -0.29554102 -0.17751324 -0.34910434 -0.116543725 -0.16088812 0.52477133 0.7399354 0.26098296 -0.02484677 -0.5200518 0.0026188775 -0.26548538 -0.70337826 -0.047365237 0.07466121 -0.023218937 0.2654161 -0.015182377 -0.32769933 0.08248625 -0.37568235 0.082466565 0.075196914 -0.13907897 0.12986076 0.04707764 0.47943014 0.38639376 0.45269206 -0.042768613 -0.030038588 -0.36231598 0.07028838 -0.25821817 0.044360075 0.10384652 -0.4199418 0.2818486 -0.23636335 0.404005 -0.027220782 -0.42344728 -0.3125964 0.123123586 -0.032401867 -0.47364295 -0.057233807 -0.54402936 -0.3620276 0.12480872 0.41287094 -0.18856409 -0.19295985 -0.29357862 0.26477477 -0.08860559 -0.1846319 -0.4853109 0.24898696 0.40664968 0.098251015 0.3080262 0.5240571 -0.16989915 0.120837756 -0.47470808 -0.062484305 -0.029328441 -0.3839757 0.10038153 0.36710963 -0.25047433 -0.17290543 0.15803622 -0.24698249 0.24246456 -0.19229317 0.34797964
نام -0.46586293 -1.0932024 -0.13174546 1.6390893 0.17387754 1.1542047 -0.18639736 0.2129215 1.0505493 0.4325982 0.52532065 -1.9936582 1.1623576 -0.24230316 -0.002701381 -0.2588865 -0.3509019 0.1191833 -0.64051497 2.575059 -1.1179479 -1.2715694 0.051021438 2.0233624 -1.1648355 -0.39046702 0.04651371 1.0090171 0.8997079 0.4208325 0.055875905 1.1009982 -0.3759891 1.607417 -0.8400564 0.79535794 -0.18667258 0.36073875 -0.07761956 0.43738925 -0.91724086 0.9089939 -2.0802574 -0.6714505 0.66435295 0.8446559 -0.08647394 -0.4297259 0.9459389 -1.0405736 -0.31886277 0.31121418 -0.29454416 -1.6058472 1.0827732 -0.3007293 -0.03501765 0.6477501 -0.18262424 -2.2779477 -0.29458368 0.562953 -0.5611867 0.32089365 -0.03563182 -0.5947686 0.42383078 -0.030782511 -1.2081991 0.3560785 -0.9502881 0.124380685 1.3220104 -1.2451183 0.36941168 -0.24935189 0.60914725 -0.48130193 -1.1187773 -1.4037426 0.5426856 -0.59052485 0.7481673 -0.82227004 0.020318612 -0.790529 -0.21806732 -0.58501804 -0.8684584 0.13510713 0.30861208 0.37617043 0.22296348 -0.39497638 -1.6961874 0.81907505 0.36858627 -1.2998685 -0.8271165 1.6356509
خداوند 0.07036104 0.8827587 -0.21993473 0.04906739 -0.62375444 0.6038928 0.04826412 -0.7801099 0.53070253 0.5846284 -1.4797465 -1.6839937 -1.0472788 -0.20648268 -0.31872138 0.12558462 -0.5897356 -0.2917136 -0.48421612 -0.66108453 0.2176386 -0.91504455 -0.63154763 0.07640514 -0.15226448 -0.34385845 -0.46291304 0.42445937 1.2963986 -0.8777161 0.34075263 -0.44906664 0.23085657 0.9442172 0.25830477 -0.6133396 0.2200073 -0.9867555 0.13667563 0.099196926 -0.21746217 0.26409042 -0.62981135 -0.59465533 0.4397083 0.21647495 0.7748659 -0.11599737 0.558868 -0.9558594 -0.034404337 -0.5929808 1.1762838 -1.264052 -0.4520495 -0.29739735 -0.28955445 -0.6218652 -0.7762249 -0.24877892 -0.13426276 -0.45282635 -0.24916986 0.14222197 -0.2993115 -0.50937676 0.30087534 0.113530576 0.73198426 0.5602735 -1.1284146 0.43370062 -0.18504176 -0.33926275 0.8619954 0.878658 0.14948715 0.1169905 -0.17121576 -0.24207811 0.17375526 -0.4062335 -0.7823238 0.14478186 -0.038354848 -0.4148844 -0.91320413 0.1023579 -0.05371482 1.5435927 0.9524873 -0.4958932 0.7531588 -1.1366479 -0.73316383 -0.07791799 0.51956314 0.5575028 0.53303987 -0.65304387
رحمتگر -0.422837 0.90000945 0.46401346 0.72334987 -0.66192263 0.54567957 -0.7196771 -0.9979321 0.2501295 0.14163335 0.38317165 -2.3503118 -0.55403364 -0.6821649 1.6242609 0.97108334 1.6991041 0.37417722 -0.095230855 -0.33556634 -0.51432586 -1.3799435 -0.8513701 1.5564489 -0.112654425 -0.9135825 -0.7260059 1.2911597 0.050570905 0.18657231 0.46668917 -0.4818955 0.13787931 0.5158357 0.3205293 0.64767915 0.27079535 0.77177763 -0.3580412 0.5899723 0.16963884 0.39476767 -0.8729726 -0.06451231 1.4796557 0.65943116 1.3335712 -0.3250008 0.18776847 0.37950158 -0.31782773 -0.61366385 0.72314346 -1.106745 -0.81822807 0.7998444 -1.1194283 -0.2886075 -0.64885604 -0.9894984 -0.6950209 0.20926479 -0.595677 0.22783469 -0.97862196 -0.75683695 0.58999616 0.6653745 1.1153811 -0.30169013 0.0050916173 -0.17841572 -0.70420605 -1.2140394 -1.6509304 0.96280515 -1.8909724 -0.26555622 -0.09598392 -0.35003245 0.8640221 0.5574676 -0.07916761 -0.8615025 0.9258095 0.70004797 -0.13860404 0.28988597 0.8208909 1.1066363 0.86721975 -0.52619654 -0.049559526 -0.20749652 -0.40626216 -1.1458216 -0.54107374 1.0696906 -0.15683077 -0.45791507
مهربان 0.23577528 0.9653978 0.17701842 0.6458577 -1.7005343 0.034713022 0.13820396 -0.49679813 -0.19477803 1.1512657 0.34305385 -1.4587697 -1.733621 -0.013861575 0.88976324 0.06126673 0.92941606 0.5082308 -0.44669905 1.0301023 0.80945694 0.45255333 -0.8258167 -0.59773487 0.21882984 -0.6186082 0.49065652 0.8809414 0.0997868 0.813566 -0.07712465 -1.2524089 -0.19139953 0.30389217 -0.48374304 2.2290738 0.43650854 1.449078 0.82391346 -0.17655225 0.45449367 0.15022537 -0.45953247 -0.939405 1.9418495 0.5118483 0.8282275 0.22444047 -1.3552574 -0.2775804 -0.46897292 1.282841 1.001522 -1.2713691 0.12315675 1.0258288 -0.9007836 0.044810977 -1.0789664 0.004326074 -1.0363517 0.30418408 0.089175664 -0.71593684 -0.1337238 -0.7036753 0.11751298 -0.31813085 0.29122466 0.27322608 -0.123427086 -0.6951231 -1.3222978 -1.0579022 -0.2184012 -0.14600043 -1.2651507 0.80729973 -0.7797939 -1.0783634 1.4623572 0.15674232 1.4440894 -0.061347462 0.4972338 0.837482 -0.50955385 0.91027546 0.46995145 1.0231515 0.69134915 0.75327194 1.5948297 -0.37759602 -0.8413816 -0.18204525 -0.179366 -0.21815483 -0.29763943 0.99231166
ستایش -0.045040775 -0.49232346 -1.1917791 -0.06275012 0.17128289 0.7105423 0.36245394 -0.21482491 0.06504395 0.011642878 1.0136008 -0.37687016 -0.6386449 0.1817885 -0.26853213 0.63376194 0.18452229 0.40954247 0.27730024 -1.8095695 -1.5045404 -0.05312159 -0.63081545 1.3797721 -0.14126986 -0.9077894 0.3759788 1.2016551 0.87721175 0.17356703 -1.0913136 1.5116827 -1.1317983 1.7749827 -1.7236226 -0.2713019 -1.000482 -0.3116217 0.11258279 -0.7854363 -1.5914632 1.2944021 -0.21638454 -1.1602491 0.96518147 0.5622216 0.789361 0.123437524 0.72182256 0.5999114 0.021824097 0.5566849 -0.36039165 -0.48850477 -0.10314115 -0.757543 -0.34967193 -0.4604829 0.31798127 -0.17127872 0.84556687 0.9719711 -1.8214203 0.77794677 -0.6282674 -0.86925656 0.47812554 -0.33502495 -0.807169 0.47375536 -0.94135845 -1.0580581 0.72746724 -1.5056564 -0.3994522 0.116582505 -0.49066585 -0.1946702 -0.17937723 -0.9051844 -0.07585274 -0.26621106 0.76556635 1.0937668 -0.12086183 -0.20180532 -1.4114445 0.22027217 0.6645708 1.701583 -0.83151156 0.6492172 0.2656472 -0.23726301 -2.1722653 -0.6683692 0.5218746 -0.4203645 0.9994013 0.5314558
خدایی 0.030739367 0.5746734 0.049037777 0.96159905 -1.0860773 0.19999442 -1.3447796 0.80256 -0.47343275 1.5747952 0.4224384 -0.809542 -1.8504428 0.8297946 -0.061620925 0.4597903 0.12896545 -0.71691054 0.65168524 1.3683114 -0.7766565 -0.4403867 -0.039464027 0.23463266 -0.26154846 0.15184678 -0.1571691 0.20328356 0.6223427 -0.46029782 -0.64762527 0.56685907 0.06459316 -0.258196 -1.6631416 -0.122783475 -0.5453882 0.044381715 0.2824357 -1.4250149 -0.39005074 -0.38432667 -0.095072284 -0.47696447 1.3267406 -0.110523656 -0.39179567 -0.5174736 -0.102611385 -0.51888186 -0.7760857 0.7456785 0.7518198 -0.8372078 -0.62252957 -1.0944747 -0.13068043 -1.0955772 -0.361534 -0.93289524 -1.024769 0.9134394 -0.39426064 0.1592773 -0.82887894 0.60903955 1.0465678 0.35574332 -0.29745832 -0.0015259234 -0.9592575 -0.7323407 -0.510659 0.13149616 0.42706206 0.0474882 -0.68690485 0.1029588 0.51561964 -0.6228497 1.4684601 0.44219154 0.22347602 0.4111346 -0.15120268 -0.513849 -1.198674 1.4491822 0.02796051 0.13580923 1.619745 -0.041013174 0.018675312 -0.73923486 -1.2274048 0.06950811 -0.5189783 1.1191562 1.2318919 0.653017
را -0.023581449 -0.2813409 -0.095664844 -0.35607415 0.10143379 0.27074322 0.12445085 0.07143415 -0.22774449 0.07900827 -0.046563186 -0.27405217 0.18270794 0.24048717 -0.09537965 -0.2187473 -0.13366328 -0.2763263 0.15153164 -0.23084998 -0.5636174 -0.14509675 -0.14065884 0.16208357 0.09390678 -0.58243394 0.50295967 0.07655072 0.1149417 0.016540743 -0.2916781 -0.26968312 0.24731725 0.24946012 -0.18379301 -0.48084733 -0.3297484 0.20586467 0.025100116 -0.4009942 -0.5729336 0.21835311 -0.12852892 0.10072474 0.4858769 -0.12545912 0.14739457 0.17174345 -0.17040035 -0.11764031 -0.3909813 0.20495164 0.02733092 -0.48566884 -0.061858512 0.23928323 0.12806383 0.28083724 -0.47951254 0.29394898 -0.40389332 -0.3528458 0.18450478 -0.0019483016 -0.043322798 0.6373268 0.6029081 -0.20927629 -0.10035853 0.15009151 -0.09709458 -0.1876106 -0.09521277 0.18831873 0.114367954 -0.2880468 0.2589315 0.3635503 0.18373224 0.35412917 0.6153271 0.2554409 -0.41041198 0.09252171 -0.23231527 -0.3756836 0.39742598 -0.28616285 -0.20512058 0.14792866 -0.15110672 -0.3259309 0.14716464 -0.35981053 0.007934738 -0.055833053 -0.049457565 -0.12202504 0.1149852 -0.18696795
که -0.029746786 0.031150758 -0.56676483 0.104158565 0.29647315 -0.01300705 -0.00970736 -0.33788696 -0.06967236 -0.08411993 -0.12877324 -0.2469492 -0.47043976 0.024919055 -0.090331875 -0.24957588 -0.22971965 -0.2930971 -0.2016768 0.39962402 -0.4067338 0.16419229 -0.22610079 0.1224774 0.54165107 -0.0007019012 0.41658446 0.06927848 -0.02193333 -0.074319266 -0.63726157 -0.11751992 0.025410362 -0.3326601 -0.2100783 -0.37277353 0.05945547 0.15653801 -0.41318655 -0.123715535 -0.55490315 -0.03258973 -0.39370468 -0.0146377655 0.34499767 -0.05804309 0.26310045 0.22632384 0.036482368 -0.26101685 -0.2644009 0.08296338 -0.14004342 -0.020116467 0.354979 0.21589708 -0.2240122 -0.10350053 0.05414783 -0.07122504 -0.25388262 0.22847745 0.11036607 -0.27936208 -0.5098357 -0.035229195 -0.20224307 -0.4118744 -0.040663425 -0.23600948 -0.20824681 -0.13690278 0.04518917 0.18529455 -0.54158825 0.5660197 -0.08730389 -0.32395786 -0.15347931 0.21207616 0.07580257 -0.3125901 0.59339464 -0.3662487 0.17682512 0.19055343 -0.09725707 -0.18811603 -0.19897835 0.2902561 0.09057587 -0.2215519 -0.20028779 -0.17237885 0.42108804 -0.06565677 0.14068758 0.0018597861 0.021387964 0.18905455
پروردگار 0.00066051644 0.42402032 0.08029562 0.67808694 -0.7470851 -0.69664127 -0.6195028 0.69849455 -0.19052194 0.10295212 -0.110366054 -0.44847888 -0.8658269 -0.59585035 0.66324574 -0.63728976 0.3486928 0.37547448 0.5932789 -0.100174814 -1.1400634 -0.27999157 -0.31766438 -0.016142096 -0.60338557 0.13106494 -0.07303874 0.6900843 0.8408177 -0.6006224 0.5293658 -0.80004203 0.2305003 0.55683845 0.49936607 0.21355914 0.34408808 0.009225019 -0.20746747 0.06881834 0.10041409 0.834515 -0.338434 -1.5408237 1.4304624 -0.31261316 0.7458409 -0.19236913 0.64952016 -0.35883534 -0.55020094 0.40227732 0.3707127 -0.41466627 0.5636771 0.14966266 -0.36310104 -0.3857513 -0.62818474 -0.26544976 -1.1232812 -0.040740117 -0.55194265 -0.12913695 0.30222946 -0.10588378 -0.14093682 0.1507036 0.39585015 -0.04080439 -0.47943154 -0.93556595 -0.30358505 -1.4208376 0.39457288 -0.22113684 -0.65253425 -1.1178894 0.6358127 0.25274292 1.6226398 -0.13507436 0.043667514 0.06745569 0.40207988 0.07269349 -1.6347536 -1.0506939 -0.40993208 0.99835646 -1.0811207 0.19823174 -0.0373068 0.2332088 -0.9606885 -0.09379478 -0.08772386 0.43512467 0.642835 0.2400207
جهانیان -0.13642663 0.9287318 -0.08983725 0.74564594 -1.0651829 0.9978387 -0.9041006 1.9061079 0.37557384 0.4650278 -0.12097493 -1.9923282 0.28068024 -0.112381406 0.94698113 0.06487663 0.14618891 0.3313029 1.6391716 0.67403245 -0.6700927 0.1858647 0.40963072 -0.12014457 0.73540014 0.049554132 -0.090494834 1.1913569 1.7563994 -0.61960596 -0.63066065 0.3895051 -0.40225613 0.8128129 0.61350423 -0.13983782 1.8250667 -0.16469404 0.9436325 0.5761464 -0.48894164 0.8040149 -0.86565363 -0.3944587 0.65742123 -0.48140854 1.166901 0.6606334 -0.7876728 1.9614619 -0.16340707 -0.2120294 0.28177106 -1.0237609 0.24999186 -1.9681191 0.22149368 0.21123572 0.046345238 -1.1362841 -0.57023543 -1.4738765 1.1010358 -0.3165042 -0.3149868 -0.44606698 -0.22985184 -0.2226439 1.0561976 -0.05780043 -0.55390996 -0.77223146 0.16449818 0.1862231 0.60049117 0.705315 -1.9649543 -1.1571994 0.08292585 0.6816307 0.123429954 0.61644006 1.5012541 -1.694049 -0.54494107 -0.5836642 -1.9774041 0.6737369 0.93432313 -0.035256185 1.0707853 1.7782238 -0.14745879 0.47116312 0.3309378 -0.45791632 -0.4742533 -0.6667349 -0.0044945274 0.4514422
، 0.27745804 -0.14467151 0.030665535 0.14957644 0.16926257 -0.038950652 0.22834845 -0.08512972 0.051098526 -0.19787085 -0.21669625 0.2343531 -0.05706768 0.25638062 0.1298794 0.14404412 0.0103050675 0.093186595 0.17397062 -0.059810556 -0.11937437 -0.27090377 -0.19627096 -0.04136616 -0.17375909 -0.2452489 -0.23972683 0.18370055 -0.095657125 -0.16841513 -0.15161481 -0.046897814 0.013317067 0.00021677047 0.086532906 0.12841578 -0.13819273 0.1288227 0.08462755 -0.084666535 -0.130654 0.23077601 -0.003346625 -0.093838766 -0.12519938 0.19537464 0.3758801 -0.24609105 -0.04849942 0.27329633 0.16504206 -0.013786071 -0.054578625 -0.16828825 0.26661143 -0.09413438 -0.09238861 0.017147627 -0.16489737 -0.3799073 0.039280348 -0.09474116 -0.021192646 0.12736559 -0.15212294 -0.14127314 0.29291478 0.18670778 0.059552427 0.1324712 0.18877459 0.010081171 0.22712733 0.03259744 -0.27277413 0.20978242 -0.103679754 -0.29018646 0.13887112 0.12418289 -0.036319222 0.05534043 0.53239155 0.28365952 0.2370672 -0.043240406 0.2559117 0.34855273 -0.1500593 0.09901414 -0.07797197 -0.114544645 -0.13364375 -0.22074796 -0.20489337 -0.23860908 -0.11554309 0.16848116 -0.29896465 -0.0637252
و -0.42531025 -0.40134335 0.1186091 0.33876622 -0.040916424 -0.17672408 0.08860535 -0.1947498 0.110564046 -0.18953498 -0.11837863 -0.05223223 0.06829332 -0.04187759 0.083893076 0.30816448 0.045539577 -0.26167497 0.014807223 -0.21606661 0.30968794 -0.10726346 -0.076733835 0.069212094 0.028674638 -0.012873869 0.015130633 -0.048176873 -0.122057505 0.120467395 -0.06955762 -0.13407311 -0.057429306 -0.14419019 0.32698962 -0.042769063 -0.041859984 -0.195855 0.2927282 0.10913012 -0.11899294 0.26953724 -0.13925432 -0.20960906 0.093288645 -0.2110057 -0.10973466 -0.11306553 0.23900779 0.3091035 0.13915397 0.12627001 -0.1079887 0.030091813 0.010835626 0.19948183 -0.234767 0.022447841 -0.113590784 -0.33717525 -0.08608983 -0.2416816 0.12200674 -0.19559643 0.057613675 0.043393932 0.3636824 -0.080993675 -0.03554902 -0.29573938 0.299667 0.18002868 -0.021424174 -0.2018551 -0.25831228 -0.035810925 -0.14037706 -0.13270943 -0.15523933 0.009468699 0.24648818 -0.18203786 -0.031816553 0.02731178 -0.13407108 -0.100634284 0.029716264 -0.07216072 -0.014450736 0.34558636 0.37255606 -0.031549286 -0.028370412 -0.08283047 0.07253596 -0.30139738 -0.12114846 0.14892974 -0.012514712 -0.04137443
روز -0.07530975 0.13771401 -0.24380884 0.27691668 -0.25932655 0.3534297 0.06032284 0.26310942 -0.17562987 -0.215235 -0.3134695 -1.1245214 -0.6053299 0.19178706 0.46473733 -0.04499719 -0.32374752 -0.13611172 -0.4057858 0.42615917 0.08079091 0.39440212 0.64636874 0.19239159 -0.06426186 -0.14552908 1.0285872 0.13547063 -0.1182252 0.61232543 -0.24456362 -0.21132335 -0.19538899 0.45427442 0.16662514 0.6324045 1.3097801 -0.11595349 0.67463523 0.12512453 -0.0081935525 0.13418362 -0.08297391 0.63372815 0.6842603 0.24178463 0.8986143 -0.51764786 0.07176849 1.8393962 0.26834008 0.7156439 -0.27084127 -1.4254175 0.105611525 -0.9803815 -0.6819137 -0.42870352 -0.419832 -0.6573053 -0.7904619 0.82300854 -0.54590523 0.25179493 0.85206455 -1.2895552 0.05350138 -0.42451555 -0.81410694 0.17779563 -1.160921 0.3217272 0.31717128 0.7681029 -0.7192011 -0.2196811 -1.3427265 1.0363308 0.34125498 0.39409584 -0.008583467 0.38137296 -0.89319056 0.037409216 -0.49554333 -0.3360656 0.8684603 -0.20094793 0.29481784 0.10829799 -0.15172143 -0.30856395 -0.8719834 -0.97954524 -1.3652785 0.1865313 -0.3469371 -0.41156384 -0.06129033 -0.03098162
. 0.2965664 0.1980521 0.051939365 -0.12203885 -0.24310668 -0.50773793 0.19843528 0.25475696 -0.15163065 -0.20473537 0.343336 -0.4751797 -0.00906714 -0.028192196 0.3428699 0.5224236 -0.32120565 0.35080388 0.1757979 0.09122911 -0.1698662 -0.62310106 -0.07330772 0.19780923 0.06867117 -0.4720903 -0.0881406 0.35674292 -0.10737385 0.1894884 -0.74229836 0.5980196 -0.1937343 0.10159676 -0.16964753 0.35866714 0.1673608 0.04426573 -0.41825315 -0.046531625 0.2091604 -0.10864494 -0.14965841 -0.31283334 0.15065259 -0.45955902 -0.03715211 0.40421802 0.14494835 0.10948258 0.16927344 0.5607329 0.59865105 0.4892544 -0.24272215 -0.09328156 0.13531917 0.031089244 -0.2504035 -0.35677338 -0.15178065 0.10872151 0.50474435 0.32603252 -0.237843 0.033002563 -0.19730008 -0.27771246 0.39313355 0.0033193077 0.06510481 0.095888786 -0.26106605 -0.011302176 0.0067273714 -0.36396143 -0.3448845 0.34500524 0.08540852 -0.2816086 -0.09389468 0.19467935 0.10598003 -0.32794356 0.24908617 0.22940259 0.3508386 0.37422186 0.19811548 0.17496313 -0.081610784 0.037897427 0.42974165 0.05374462 -0.021267174 -0.41353676 -0.15201351 -0.3111123 -0.13886952 0.05805443
بار 0.40154633 1.1449611 0.083041 0.5765316 -0.46205246 -0.4424093 0.62331975 -0.22947697 0.74081683 0.59882385 -0.89371294 0.32964963 -1.3216144 -0.2608982 -0.06496593 1.8572106 -0.44500417 -0.5964764 -0.14597932 0.031292908 -1.3645804 0.47851282 -0.16477285 -1.0131749 0.39646298 -0.6547479 0.16314375 0.32133242 0.7196754 1.4981735 -0.22682278 -0.9498009 0.3395434 0.26107368 -0.1399045 0.4919994 -0.6029925 0.4087595 0.6705248 -0.037412666 -0.94934845 0.38817412 -0.26607227 1.5314043 0.93906087 -0.21432443 0.17788623 -0.46114776 0.7883084 1.0517739 -1.1910691 0.89934856 0.19043799 -0.7272172 -1.0028843 -0.1824562 -0.7222006 1.356016 -1.4242662 -1.2801577 0.31320673 -0.13459128 0.76025236 -1.4081308 0.7691216 -0.28389362 -0.325612 0.56899655 -0.28769055 1.0532216 -1.4655985 0.29906312 0.49500215 -0.37930518 0.7503722 -1.2520972 -1.306641 0.046042923 -1.2709016 1.30494 -0.5494348 -0.45943892 -0.8517928 -0.9327862 -0.03611463 0.41531032 -0.98420984 0.81255287 -0.7487319 0.2722882 -0.5869907 -0.16505904 -0.37958014 -0.515295 -0.66368204 1.3641653 -0.5821573 1.3737353 1.3995539 -0.42838672
الها 0.98539305 0.3061746 -1.0255263 0.224994 -0.79074186 0.3364132 0.6469525 0.71153975 0.35247248 -0.5063205 0.09441887 -0.15423892 -0.71865624 0.11561334 0.26115805 0.8343199 1.2317084 0.40017465 0.7307562 -0.77482194 -1.2040592 -0.78548425 -0.6471888 -0.8699263 0.10369442 0.4591409 -0.07859329 0.7254255 0.90605587 0.8341945 0.22543772 0.14936213 0.13314791 0.64752907 -0.78797853 0.2692091 -0.67900056 0.19981858 0.6603156 -0.5788516 -0.9282802 -0.020062039 -1.000609 -0.2039002 0.037964728 0.2037664 0.45932907 -0.6940593 -0.05826381 0.9002288 -0.47549224 -0.68404466 0.48530886 -0.20355071 -0.5755913 -0.38942784 -0.85848826 0.38103825 -0.72232646 -1.1775165 -0.36984843 -0.54004157 -0.52862203 0.16146801 0.4816493 -0.94936836 0.38746572 0.3928485 0.32994413 -0.8048592 -0.84462947 -0.44905826 1.0543321 0.11262784 -1.447752 -1.1084769 -0.7753054 -0.5918985 0.77956265 -0.058514144 0.03176126 -0.76746607 0.036915906 -0.5474719 0.76611733 -0.46296948 -0.9840644 0.83795327 -0.41500086 0.23011133 0.53733504 0.111346595 0.51469994 -0.24741812 -0.56185496 -0.8296996 -0.42624614 0.5682511 0.9987321 -0.32762524
تنها 0.80059975 -0.07049241 -1.015012 0.9127957 -0.97654676 0.83927715 -0.8190121 -0.9714167 -0.39051637 1.4792961 -0.5413579 0.2809225 -0.94158703 1.183967 0.2509633 1.1188134 0.89058024 0.98696613 1.0742337 -0.85655326 -0.49502453 -0.8132852 0.86986345 0.49113688 2.211813 0.05874051 -0.40979695 -0.027499871 0.83936214 0.22264437 -0.73269576 -0.6098699 0.45397034 -0.8251396 -1.1242896 -0.37708277 0.24541844 -0.08882556 0.52537924 -0.6978084 0.6577505 0.6523254 -0.926578 -0.06951379 1.6167039 -0.244405 0.3367096 -0.6458107 -0.78445303 1.2631013 -0.2426788 -0.6289037 0.44760168 -0.68339187 0.8026538 -0.40252668 0.72302836 -0.8882935 -0.649303 -0.3457445 -1.8193521 -0.98876387 -0.3244891 -0.35650972 0.9843223 -1.4237143 -0.07033443 1.0769752 0.4539134 -0.5028012 -0.9985614 0.7485226 0.906576 -0.38379428 -0.8095668 -0.7648117 0.20307116 -0.11336442 -0.035865884 -0.51639783 1.0696819 -0.7769936 -1.0023371 -0.71974045 -0.906699 0.042256363 -1.2918581 0.28570485 -0.5883665 1.3375905 1.445404 0.5404033 -0.61816245 0.96063536 -0.8574531 0.38327828 0.40822837 -0.49143347 0.26421574 -0.27148423
تو -0.6554032 0.5081473 0.3804591 0.31633663 -0.43571422 0.6524495 0.69691575 -0.6912611 -0.051912077 -0.037380885 -0.55335945 -0.27162218 -0.1925777 0.6215152 0.9316703 -0.18118404 -0.26412395 -0.20581862 -0.13289048 0.9451825 -0.38910332 -0.14794824 0.041552868 -0.27182564 -0.11201211 -0.17693162 0.36492673 0.60666215 0.18981051 -0.10120678 -0.41953912 0.10756218 0.30771646 0.81599396 -0.21447212 -0.26722544 0.1845364 0.53612655 0.40796185 0.10231601 -0.31561562 0.4790223 0.4534765 -0.011983437 0.40769604 -0.4087888 0.08063547 0.057446536 0.2059892 0.10950127 -0.5105586 -0.54613495 0.85087407 -0.27990854 -0.04654219 -1.0296502 -0.37545332 0.16442375 0.473813 -0.059718333 0.06912267 -0.47774914 0.65933913 0.2848058 -0.37345618 -0.31380692 0.5893326 0.036855564 0.14310221 -0.038629573 -0.58857346 0.04946031 -0.10780872 -0.53226554 -0.65316683 -0.08313166 0.07457752 0.031495783 -0.46151125 0.26297778 0.4136705 0.020685324 0.19674803 0.13017981 0.00498624 0.06995113 -0.14050317 -0.34595922 -0.10247211 1.2133803 -0.95030624 0.9580456 0.3633517 0.8675577 0.09753044 0.41015038 -0.6212716 -0.39484864 0.04399731 0.25907838
از 0.24734394 -0.064860374 0.52627546 -0.14033107 0.18153518 0.042038262 -0.2568724 0.06071942 0.16035499 -0.07618615 -0.079289116 -0.5667172 -0.039817415 -0.17921261 -0.13823193 0.19989198 0.09546654 -0.8289432 -0.21474963 0.26378903 -0.25378707 -0.44091845 0.15394385 0.078596994 0.15943605 0.23713796 0.20769605 -0.53684354 0.4430704 -0.23159645 0.22195451 -0.13603485 -0.2785753 -0.0945636 -0.19396678 0.19104996 0.06338933 0.338165 0.14244047 -0.5420336 -0.39838007 -0.39557967 0.36910653 0.07758392 0.54649574 -0.18240064 0.5756014 -0.018652821 0.48182443 0.3609419 0.14885339 -0.37881678 0.2443451 -0.41013277 0.19851676 -0.17683762 -0.070255384 0.17985742 -0.5583511 0.20567729 -0.025967862 -0.11725769 0.024507925 -0.50984776 0.015051794 0.33838165 -0.070160165 -0.05958372 0.21274365 -0.13816285 0.22651072 -0.22045715 0.37774396 -0.119843274 -0.024369126 -0.15074784 0.040256847 -0.018817918 0.25336498 -0.18582468 0.31837526 -0.1174775 0.15470442 -0.13548036 -0.14609471 0.5601744 0.29649562 -0.25252688 -0.2282163 0.1267624 0.13939542 0.060191542 -0.068634935 -0.13978915 -0.2243017 -0.044633657 -0.035360612 0.3491381 0.2972105 0.2172941
یاری -0.6585703 1.793426 -0.6588148 -0.11295101 -0.9200806 0.5671495 -1.2243948 -1.0758368 0.04239696 0.58491147 -0.8097528 -1.1187856 -0.28255635 -1.234436 -0.54206246 0.12378855 -0.4068423 -0.4422415 -0.22249864 -0.09907015 -0.61376154 -0.37031254 0.25502294 0.4354637 -0.6274775 -1.4877231 1.0495113 0.61724216 0.8552704 -0.71880805 -0.60958105 0.00121575 -0.7959287 -0.5423751 -0.45904157 -0.8560896 1.1867985 0.93443286 0.9603286 0.7098974 0.23081018 0.28542632 0.98599887 -0.99971604 0.9853643 -0.8665998 -0.33484837 0.15895227 0.09204718 2.3476853 1.6125968 -0.6661156 0.14724173 1.2197431 0.35765556 -0.12142929 -1.4449606 -0.3278799 0.5921639 -0.4884883 0.7406566 0.7108347 0.6194978 0.85521495 1.34509 0.76394445 1.3904598 -0.49695992 1.1991528 -0.47054312 -0.3996756 -0.4630645 0.36137742 -0.160223 0.3888976 -0.46597826 -0.7417915 0.32849285 0.4136788 1.0335095 0.11221134 -0.42766768 1.1823103 1.192019 0.09025259 -0.5840822 0.41679955 0.1637174 -1.668362 -0.82216537 0.32398432 -0.124964975 1.0088187 -1.4680316 -0.67866087 -0.021762494 0.33706477 -1.4207718 0.15832746 -0.15464428
ما 0.27898428 0.15664992 -0.021166934 0.3040054 -0.33551472 -0.24404687 0.12320187 0.39735648 0.42968598 0.071869776 0.1744989 -0.4389973 0.8783475 -0.6765601 0.6013613 0.16893859 -0.04260081 0.06200767 0.24861827 -0.47968265 -0.54163337 -0.093346976 1.1449771 -0.35139525 0.75692207 -0.6129899 1.0413598 -0.27781108 0.5451486 0.01692768 -0.3684364 -0.2673475 -0.24467783 0.242692 -0.14356785 -0.20455648 0.37215713 0.5891082 0.3823392 0.16864127 -0.48102093 0.48610446 -0.47934735 0.10482568 -0.34735572 -0.42603326 0.5532153 -0.17094433 -0.13551986 0.3319348 -0.28722477 -0.33479393 0.56324375 -0.9521806 -0.10465953 -0.40386823 -0.1456302 0.027562149 -0.075140506 -0.0864064 0.053752646 -0.20661524 0.40161204 -0.1824343 -0.16840367 0.062750645 0.18095657 -0.4740828 0.68957365 0.21188317 0.033719864 0.20162122 0.6213015 -0.524558 -0.054095585 0.64348507 -0.7753399 -0.91389054 -0.19222961 0.5293614 -0.22864047 -0.3663261 -0.35742697 0.54681045 0.62416446 -0.02519814 -0.74068505 0.04306138 0.048734825 0.13188557 -0.03827443 -0.47377005 0.08395322 -0.13503407 -0.3754518 0.7486386 -0.18962814 -0.76592475 0.64812917 0.2114671
راه -0.79147077 -0.3803904 -0.33103216 0.10896295 -0.6087373 1.373571 -0.47546545 0.7771462 -0.16896664 0.41130123 -0.96123976 0.1251887 -0.76145065 -0.58308977 -0.1944637 0.3899798 0.26527098 -0.33161506 0.13148 1.1597624 -0.49937633 -0.6767902 0.5524215 -0.2638356 -0.26623338 -0.6446516 -0.27074018 0.8348424 -0.3230918 0.023927234 -0.10465765 0.3810788 -0.6651305 -0.6170868 -0.7492636 0.7255161 -0.19135709 0.45141277 0.55035836 -0.5503799 -0.49384335 0.6388861 -0.11001348 -0.17900775 0.7448913 0.4670337 -0.16998185 0.3888214 -0.8951202 1.157006 -0.18451428 0.9412402 -0.49541917 -0.17713311 0.20919248 -1.1853904 -0.6666959 -0.75598365 -1.1025685 -0.38979355 -0.46365345 0.34300205 0.7504843 -1.0322186 -0.30390155 -0.52994424 0.19615111 0.39640212 -0.23895219 -0.73694825 0.07744117 -0.90293926 -0.5051317 -0.26479754 0.5196574 0.24833883 -0.113398395 -0.27389437 -0.6688062 -0.18889041 -0.15102676 -0.5879862 -0.65934366 -0.492396 -0.113361195 0.37186158 0.5431489 -0.14551869 -0.20971347 -0.34090313 -0.34281552 0.7628583 -0.41508597 0.29310197 0.2163248 0.053697243 0.052412413 -0.4403153 0.7358882 -0.56805676
راست -0.32244945 0.46013224 -0.38577515 0.20680632 -1.2984968 0.4708484 -0.67536795 -0.022259915 -0.30530378 -0.24900304 -0.59370965 0.6771479 -0.8263051 -0.30504337 0.2791806 0.07499467 0.49086294 0.20679992 -0.2366792 0.70029396 -0.8062534 -0.8894841 1.2275906 0.7394545 -0.49816 -1.1494043 0.9215143 0.20578025 0.410236 0.38786682 0.38771564 1.195835 0.37946388 0.4532181 -1.3730582 0.44657457 -0.45094898 -0.8806751 0.63503504 -1.4266353 -0.39195293 0.33646724 0.0373261 -1.0284957 1.4385524 0.051650662 0.48320153 0.39464307 -0.1476333 0.67603415 -0.8816675 -0.49744222 -0.06265088 -0.19706991 0.773296 1.1513413 1.4732969 -1.2106178 -0.59290314 -1.1555295 0.9351982 0.29012737 -0.18155964 0.27187985 0.024825986 -1.2827551 1.2829039 0.17940097 0.3638399 -0.21100782 -0.5307538 -0.7986903 -0.16884783 0.6109361 0.6372376 -0.3694306 0.015188348 0.15842593 -0.21365504 0.19209059 -0.03499157 -1.3701203 -0.088736236 0.7239041 0.019029949 0.3725168 -0.9957844 -0.51710755 0.59036076 0.6523891 -0.46756244 0.45502523 0.98750484 -0.3236079 -0.84559137 -0.036540087 0.36630836 0.60646385 -0.27008072 -0.72533816
هدایت 0.5133589 0.9546777 -0.8898387 -0.50341195 -1.8071425 0.7553476 -0.088532016 0.4659767 0.693548 -1.8434328 -0.17733659 0.91620445 -0.89411765 -1.1558335 -0.84950644 -0.21539 0.044259384 -0.22200274 -0.17370693 -0.04700978 -0.81556994 -1.1927747 0.18413745 -0.09336385 0.43915167 -0.70746225 0.5431523 -0.0057987743 -0.080144756 -1.1051021 -0.6165894 0.69028103 -0.8027444 -0.52469414 0.12332741 0.5467256 -0.23148131 -0.9699092 1.4866661 -0.33683357 -0.6704394 0.7114619 0.31772688 0.100534216 1.9093245 0.42032474 0.8087351 0.12360685 -1.2832825 0.10005956 -0.5200415 0.78077644 0.6060418 -0.11403026 0.61564386 -0.29498997 -0.6835716 1.0131125 0.6262198 0.7282431 -1.3641369 0.35438186 1.6314472 -0.19711334 0.600333 0.10975077 0.36913005 0.27668485 -0.53876805 -0.969639 0.43638396 -0.16889665 0.72689795 -0.59709734 0.40782744 0.6279145 0.60717183 -0.76792324 0.62634504 -0.47725406 0.2923271 0.5667943 0.34195378 0.28138667 0.5929761 -0.29654214 0.20487745 0.8254583 0.83498436 0.35440993 0.39285475 1.2637457 0.48312017 -0.1323472 -0.20130673 0.14332326 0.22546762 -0.59856784 0.20007847 -0.059401814
آنان 0.0013759672 -0.023739873 -0.2291496 0.3100861 -0.025127923 -0.015329894 0.10416846 -0.1675752 -0.33506113 -0.14389975 -0.3010317 -0.26452458 0.5789246 0.28848824 -0.343825 0.15494525 0.26325232 -0.40191507 0.2674009 0.61037165 -0.12978813 -0.5484639 0.047125883 0.024671542 0.38752246 -0.071453415 0.51301354 0.36268023 0.49291113 -0.101652086 -0.1583832 0.8453515 -0.58968323 0.13484931 0.09817505 0.4888436 -0.58734494 0.015493614 0.012653061 0.33609876 -0.51867455 1.268145 0.04671547 0.09795693 0.2431443 0.34038895 0.5849307 -0.019477272 0.0297791 0.12745273 0.17936482 -0.37463474 0.17242877 0.17335235 -0.2814029 0.31226972 -0.14732206 -0.26447088 -0.03771528 -0.085232176 -0.19492242 -0.049507175 0.06985331 -0.31499696 -0.12958542 -0.17327817 -0.16430636 0.12778454 0.45022005 0.028451448 -0.6805469 -0.021025078 0.95152175 -0.19058459 0.86114365 0.481621 0.042655434 0.52120906 -0.14037965 0.8153716 -0.18858722 0.14843473 -0.37500584 -0.40607074 0.85929066 -0.20177734 0.32386932 -0.7663566 0.32272035 0.6540128 0.12821504 0.19393596 -0.25901496 0.39137295 -0.05196151 0.059087716 -0.3702118 -0.36762622 -0.6013805 0.2194099
نه 0.8415132 -0.17908521 -1.0978519 -0.14302938 -0.25832573 1.0714624 -0.34466374 -0.5901195 -0.14823699 0.36506134 -0.4305681 0.43966985 -1.3412526 0.68181384 -0.3560265 0.826775 -0.6315057 -0.26234797 0.9677613 0.39192307 -0.50210804 -0.34460968 -0.46620455 -0.01118438 0.44790637 -0.22392963 -0.38107666 0.18180496 0.5854119 -0.121544234 -0.11370167 -0.10280838 -0.9251376 -0.05358156 0.6721995 0.61999035 0.36499864 0.8409172 0.9318238 -1.2241001 -0.045525473 0.21943161 0.012443812 -0.45685446 0.036253005 -0.033900756 0.04951543 0.09793495 0.88537663 0.76332635 0.1596154 -0.32089975 0.40957424 -0.51498896 -0.23180205 0.06065552 -0.45877087 -0.8685517 0.1075756 0.11473651 0.32864544 0.8487255 -0.3594544 0.35426742 0.42432368 0.6242938 0.065739855 -0.7826424 0.5381088 0.46595258 -0.19426337 -0.037510615 0.009250337 -0.24926132 -0.19716293 -0.23243059 -0.18614563 0.6081095 -1.8263111 0.24968567 -0.16599204 -0.36352274 -0.6694751 0.2503127 -0.90100056 -1.011959 -0.920691 0.47669962 -0.6526207 0.53836966 -0.52830493 0.20048259 0.075970516 -0.4742686 -0.69065183 -1.130389 -0.92240286 -0.12881772 0.9224134 -0.59614515
گمراهان -0.6867521 0.91224414 -0.6533974 -0.3865638 0.27673358 0.97613496 -0.83974355 -1.2268589 0.11144346 0.697009 -1.6077363 -1.6755785 -1.8448898 -0.702633 -1.3431216 1.4168802 -0.037153345 -0.39807132 0.5631183 -1.027291 -1.5686386 -1.0517478 -0.36594242 0.6622558 1.49495 0.39934292 -0.5959716 0.46241692 -0.42802465 -0.64654547 -0.22252591 0.9115221 -0.7621062 -1.4898255 -0.13815807 0.8114733 0.5344859 0.84402966 0.036867283 1.0929209 -0.9512556 0.320503 0.34633106 -1.2608905 1.9489304 -0.21143936 0.8874918 0.38427714 -0.6881212 -0.06350309 -0.63653123 0.6031753 -0.27604032 -0.76667666 -0.41413158 -1.0385 -0.5165886 0.25405538 0.26272058 0.55243427 -0.6284452 -0.010144831 1.0025305 1.9177148 0.88843805 -0.06514352 -0.32066202 -0.29734477 0.43840858 -1.9901419 -0.4473439 0.24715985 0.2042993 -0.03973911 0.577477 0.5943308 0.023188934 0.8154218 -0.09992339 -0.20305039 0.8780921 1.0313501 0.89726985 0.03859414 -1.0728024 -0.2775313 0.09904961 -0.28600168 0.012206425 0.4598069 -0.5445725 -0.15198109 1.082305 0.35419858 -0.025026975 0.33355045 -0.081188835 1.8221118 0.36812118 -0.703806
الف 0.5800136 0.06549894 -0.20049985 0.894738 -0.94264966 0.1973236 0.483128 -0.45075127 0.22720017 -0.20430668 0.17266387 0.015649969 -0.61272913 0.21876341 -0.2362151 1.0045162 0.24255446 -0.37098137 0.718619 -0.0057595144 -0.50193095 -0.8915278 -1.1301425 0.59787875 -0.08280636 -0.3515183 -0.098520935 0.389033 0.47924283 0.0246503 -0.2330819 0.1875976 -0.32770106 0.06184003 -0.15605877 0.55710304 0.059373878 0.036379438 0.5934939 0.15789177 -0.36347574 0.4317502 -0.79869664 -0.62273175 0.49944055 -0.3114236 0.7567476 -0.21939985 0.103259884 0.708504 -0.29639328 0.023604129 0.673853 -0.81114036 -0.584003 -0.19550714 -0.82952374 0.10151193 -0.19768943 -0.635482 0.18427584 -0.08833422 -0.20452157 0.035693344 0.07304088 -0.66878414 0.61693656 -0.030624572 0.3840682 0.034999944 -0.46839574 -0.24854845 0.5131548 0.3446033 -0.6786371 0.033516344 -0.868573 -0.6642064 1.0393633 -0.4821287 0.5497691 -0.83631843 0.8255428 -0.5252103 0.6316806 -0.4945496 0.13817893 0.76013565 -0.21217933 0.6506173 0.19621202 -0.42652163 0.3521669 0.19570678 0.12707347 -0.8178876 -0.47622 -0.27005348 -0.15460184 -0.13150845
لام 0.81780887 -0.013391757 -0.22777267 0.8070037 -0.70843023 0.60305136 0.3507287 -0.45658937 -0.040549565 -0.5947204 -0.17877948 0.59401315 -0.67518 0.5724856 -0.38829836 0.94088733 0.3658283 0.19402975 0.6183118 -0.20935836 -0.8241702 -1.0433334 -1.1432575 0.8714214 -0.11177694 -0.2331186 -0.067939684 0.2161241 0.04022621 -0.3531355 0.18034187 -0.22745237 -0.38927194 0.31532875 -0.597007 1.0579696 -0.7061545 -0.30482662 0.74819994 -0.09490533 -0.19621262 0.13362788 -1.0298945 -0.5402305 -0.26015604 -0.34937382 1.0087049 -0.5690247 -0.49882543 0.7929559 -0.72342414 -0.027789783 0.73670393 -1.1813009 -0.70066273 -0.014315324 -1.0847858 0.27228197 0.047219027 -0.51978725 0.542829 0.18645659 -0.50756353 1.0417857 -0.42083728 -1.3205779 0.61912465 0.20979604 0.8962668 0.19642048 -1.0950915 -0.021231087 0.31613576 0.14807728 -0.93894786 0.034043375 -1.0990882 -0.9190866 1.7726539 -0.50048375 0.5115024 -0.97069174 1.1435984 -1.1281803 0.7497965 -0.6507788 0.70261836 1.3033257 -0.3770849 0.020024445 0.3370845 -0.27110672 0.45893198 0.37624216 0.2634958 -1.1047025 -0.87077934 -0.29746693 -0.20658869 0.071488455
میم 0.95147324 0.24170692 0.4965807 0.4982613 -0.8378795 0.7861374 0.71801305 -0.2139204 -0.10377718 0.015172251 0.46990955 -0.43150944 -0.6184806 0.24917574 -0.1821 1.0614887 -0.034138698 1.2296937 1.1110712 -0.17912538 -1.1043576 -1.1443208 -1.3821851 1.6178681 -0.803579 -0.14048763 -0.253301 1.5669929 0.09250952 -0.41219255 0.42813703 1.2922592 0.17068848 0.7621649 -0.25303766 0.3070025 -0.32853934 0.123276345 0.38529837 -0.32586113 -0.88750017 0.18722521 -0.751972 -0.6520249 0.18113858 0.3413225 1.6914979 0.036118943 -1.1865313 0.39857307 -0.77707726 0.79049665 0.58569914 -1.1665307 -0.8346453 -0.07096378 -1.165953 -0.14178713 0.7217724 -0.9671871 0.28932652 0.07562073 -0.48692107 0.80300164 -0.58114046 -1.3094834 0.46606305 -0.27525532 1.0181631 0.35090563 -0.9924356 -0.615639 -0.1108772 0.56763864 -0.70715266 -0.281753 -1.4421486 0.13773018 1.8692183 -1.728708 0.31086373 -0.18278642 0.8743676 0.30103347 0.83617496 -0.36105588 0.6884952 1.338412 -1.0664772 0.039901555 -0.2147419 -0.8459111 1.366636 0.56101924 -0.14689775 -0.47315782 -0.8788456 0.0797486 -0.074179254 -0.5883211
این -0.04557662 0.88239825 0.30181253 -0.1927732 -0.18347953 0.16790979 -0.16600434 -0.2243237 0.06109441 -0.5832988 -0.13889097 0.37106502 -0.06863377 -0.45868415 0.86194855 0.4566428 -0.050385185 -0.65073514 -0.06623497 -0.5590631 -0.7809848 0.09734485 -0.27759838 -0.62587774 0.29151264 -0.035873167 0.6587704 -0.022354187 0.4403487 0.40192866 0.5013297 -0.1750515 -0.6316772 -0.3010037 -1.072415 0.6041071 -0.010246832 -0.2583946 0.27302986 -0.6668724 0.5404763 0.8446375 -0.32433194 -0.76569307 0.50222015 0.17238794 0.9853529 0.025279975 0.39784858 0.3470264 -0.18438289 -0.10134356 0.6311594 -0.11369383 -0.05059838 -0.9569504 -0.089456104 -0.40063974 -0.54258215 0.15750894 -0.21216081 -0.45489457 -0.08334914 -0.110242985 -0.009823393 -0.9505431 0.0128710065 -0.82347226 -0.5751896 0.95261693 0.09711351 -0.2911259 -0.4150901 -0.5035607 0.18206818 0.2786198 0.32738408 0.11176234 0.10995609 0.9698092 0.359421 -0.5021858 0.37075645 -0.38968876 0.101197146 0.11439187 -0.5158022 -0.010442132 0.2726356 0.969986 -0.0084889745 -0.7015547 0.6380214 0.4705234 0.34254536 -0.043517597 0.05701237 0.45291802 0.6896082 -0.20629671
است 0.40059924 0.21259074 0.024919027 -0.22300793 -0.64877 0.5793648 -0.17975052 0.14285901 0.32534343 0.80859953 -0.3909381 -0.6849263 -0.30146095 0.5884205 -0.15555224 -0.5712539 0.6783192 -0.25576216 -0.21929985 0.30154544 -0.40475875 -0.8916976 0.20713952 0.01621112 0.36083826 0.25264356 0.31530944 0.019257013 -0.28668165 0.61379844 -0.31237394 0.45768255 -0.17858665 -0.029596683 -0.100794315 0.04465897 0.16759022 -0.017580068 0.546791 -0.7199361 0.16309062 0.53132474 -1.2899641 -0.24367054 0.61119217 0.44917345 0.7594804 -0.16730966 0.47914767 0.04364534 0.050694544 -0.037708197 -0.0027266375 -0.12805703 -0.42753777 0.03810343 0.027720248 0.080596514 -0.17291632 -0.39660153 0.30465916 -0.01943302 -0.24136694 0.6036113 0.12824531 -0.022006096 0.020921351 -0.89765334 -0.66618955 0.70523936 -0.04613789 0.54584765 -0.29608804 0.011036754 -0.05158711 -0.31789014 -0.5514731 -0.38943624 0.06779328 -0.46506456 0.58416235 0.50029534 0.36906427 -0.3509929 -0.027472466 0.20813346 -0.3297609 -0.34441453 0.45392635 -0.15278564 0.12874866 0.2846534 -0.08784903 0.21021746 0.09905036 -0.2907527 -0.04673833 -0.057606593 0.15854475 -0.39984256
کتابی -0.24559802 0.7972114 1.3253644 0.42727357 -1.0968649 -0.65190446 -1.1358533 -1.1671424 -0.34883493 -0.6673645 -0.13895653 -0.107519686 -0.5750538 0.020597642 1.0232866 -0.34721237 0.19620131 -0.22769785 0.7737819 0.28038558 -1.7061442 -0.23579228 1.4520464 -0.1882754 0.004253148 -1.5106456 0.95313954 0.61849046 0.66366714 -0.9934844 1.4248023 -0.3349452 -0.6156704 1.3284246 0.20161052 0.79281133 -0.22112817 0.92307645 -0.3222088 -0.47423476 0.20351872 1.2420661 -1.220364 0.5441018 1.8220134 -1.6730502 0.7025877 -0.10074456 0.33977965 0.14938712 0.9826403 0.83568746 1.071187 -0.99000394 -0.21887405 1.2369753 0.13758278 0.3642259 -0.3193026 -0.49932164 -0.3329089 1.3505244 0.46818238 -0.74262637 -0.100264065 0.26815444 0.6971185 -1.0747445 -0.36631447 -0.021514501 -0.8463363 -0.67507 0.88971984 -1.425945 -0.1559491 0.63372356 -2.0470693 0.0055374526 -0.13608548 -1.341362 0.8122581 -0.34538957 0.56583965 -1.7957224 1.356946 0.58473396 0.8826211 0.54841334 -0.40678284 0.90093905 1.1293889 0.14810711 -1.3423007 -0.3634454 0.577047 1.229029 0.027965609 0.8865558 0.437329 -0.3687738
در -0.30553696 -0.43470576 -0.45249808 0.06453502 0.28968093 -0.30977786 -0.29152378 -0.43109295 -0.054470606 -0.13964339 0.24147198 0.03464179 -0.018825905 0.30072954 -0.20938237 -0.38578442 -0.0352288 -0.108468994 0.17789036 0.10711647 -0.15337148 0.34660056 0.04472951 -0.6315965 0.0022382995 0.027080756 -0.57359093 -0.59914315 0.5348953 -0.028417237 0.19388409 0.3062833 -0.9943792 -0.18359855 -0.15678856 -0.022353353 0.3335749 0.17497621 0.1694174 -0.009282464 -0.5736172 -0.18739139 -0.1123225 -0.07132361 0.3459326 0.22386613 0.6083305 0.17198415 0.6944878 0.21015742 -0.25150505 0.23003176 -0.33471775 -0.7127766 -0.08139595 -0.46195018 0.081464656 -0.41907668 -0.31381163 -0.09300741 0.07047929 0.067704566 0.4135453 -0.19375883 0.23087595 -0.4713313 0.28058973 -0.2988029 0.0065574436 0.088176444 -0.21600413 -0.1630278 0.114628 -0.21505724 -0.35204688 -0.53928804 -0.23810664 0.106346846 0.008554633 0.046709668 0.4048649 -0.25793228 -0.20114143 -0.45029134 0.22498165 0.031195914 0.14714532 -0.23466055 -0.51832575 0.026230419 -0.5849184 0.18391445 0.2099457 -0.39657888 -0.05881386 -0.4613162 -0.037893765 -0.22778906 0.12430513 -0.3704097
حقانیت 0.7742995 0.6269516 -1.8927603 -0.0473268 -1.0231439 0.34448197 0.13716398 -1.082948 -0.6794893 0.47997707 0.18876259 -0.04502569 -0.3658652 0.0021065169 -1.2571936 -0.18012266 -0.8634957 0.8669299 -0.23974149 0.39529666 -1.9960921 -0.9208881 1.3903158 2.1462085 0.03300953 0.21734412 -0.18333048 1.6963986 0.6334309 -0.53 -0.66405135 -0.21671246 -1.2690674 0.84763587 -0.7247331 0.3048768 1.190143 0.92404824 0.43050775 -0.22016805 -0.30629343 -1.1854248 -1.5137373 -0.08460504 0.05367874 0.10802802 0.19407149 -0.49125442 -1.2422444 0.7869603 -0.42927536 1.09157 1.127964 -1.3156435 0.6206313 -0.08738057 -0.49051547 -0.7902727 -0.43719408 -0.5385913 0.5202496 -0.30608553 1.2418935 1.360674 0.85048556 -0.6431866 -0.22375767 -0.11973506 1.2138199 -0.13110504 0.33292305 -0.68341696 -1.2943351 0.39136386 -0.8795289 -0.22382122 -0.567156 0.3924989 0.7678297 0.29511684 0.8990309 -0.2742325 0.6579748 -1.0552912 1.1171368 -0.40459943 -0.9301986 0.07283139 0.8406293 0.035335824 0.2679607 -0.66017264 0.22345997 -1.1885985 1.1161641 0.85885143 -0.9961541 -0.6386016 1.0139862 0.7014415
آن 0.11804931 0.11011161 -0.2270694 -0.26201782 -0.07148222 0.19362801 0.041848082 -0.15998475 0.6116437 -0.32080823 0.2564155 -0.6681134 -0.011574984 -0.024703894 -0.27566534 -0.024577515 -0.9135054 -0.57322073 -0.115657784 -0.16535352 0.14089784 -0.06086114 0.14240336 -0.31346563 -0.35896587 -0.31132865 0.25247648 0.3796245 0.21685639 -0.3800461 -0.44799554 0.2374961 -0.2686251 -0.25866207 -0.28954834 -0.13252306 0.07090885 -0.27880773 0.6766351 -0.6457693 0.19413456 0.4104784 0.1866178 -0.3000009 0.34078023 0.16709493 0.8565279 -0.82039934 0.11536417 -0.266387 -0.47421584 -0.1445789 0.080141105 -0.41637465 -0.42007288 -0.52914727 0.37896603 0.054767143 -0.106771976 -0.094149135 -0.41637158 -0.3426754 0.053872146 -0.39822835 0.11936808 -0.13932794 0.18183655 -0.0159724 -0.14287284 -0.72437316 0.24102704 -0.70386434 -0.37455416 0.11562291 -0.03302163 -0.014865588 -0.35056555 0.2371758 -0.41693264 -0.14673962 0.40595922 0.098415844 0.18195996 -0.80547726 0.7510593 0.020442238 -0.34408042 0.15848589 0.26135135 0.15532199 -0.11998964 0.06297399 -0.3876684 -0.05069242 -0.07338955 0.24129547 0.39396998 0.15488249 -0.17736709 0.4384534
هیچ -0.33962867 0.65172464 -0.8945422 0.16413152 0.88323265 0.0911461 -0.97426784 0.08295403 0.24787526 -0.19165732 -0.59757966 -0.26278874 0.64161664 0.521465 -0.3236354 0.52388084 -0.751558 0.40165845 0.38776776 0.1764712 -1.1514778 -0.53305537 -1.082669 -0.014056112 0.6935144 0.33204237 -0.56575984 0.68591774 0.48777637 -0.16317594 0.02286801 0.2523794 -0.59039825 1.0365686 0.45332575 0.38873544 0.09692728 0.5102741 0.03472955 -1.1804348 -0.5109835 0.11812808 -0.7271182 -0.11894129 0.53230613 0.043017507 0.2644934 0.79436827 0.09378562 0.51101047 1.0577781 0.3544904 0.86172247 -1.4211005 -0.31701386 -0.42673787 0.85585356 -1.5332073 -0.5482265 -0.33486667 0.22091796 -1.4297785 0.068970144 -0.8661579 0.84626114 -0.3635669 0.18079044 -0.46899825 0.78713757 -0.41338575 -0.32134804 -0.53701997 0.13223074 1.0477095 0.5886365 0.25817052 0.43191156 -0.7092665 -0.35522622 -0.5985624 -0.4595416 0.061572153 1.2792921 -0.35074708 0.37949553 -0.23758955 -0.62528676 -0.5360352 -0.06663178 0.64588374 1.6030353 0.39870933 0.20038633 -1.0480213 -0.33655286 0.034477882 0.5732941 -0.15263738 1.1711757 0.1525158
تردیدی 0.57852316 0.13698779 0.01037323 0.5807344 0.35093102 0.38028422 -0.9147422 -0.43945602 -1.6334354 0.118850574 0.8958822 -0.39026392 -0.67649764 0.6591285 0.30832097 0.009444352 -1.0696281 -0.41437024 0.05751096 0.48907652 -0.80361307 0.23632906 -0.9508679 -0.13455525 0.12777178 -0.4207976 -0.74896973 0.35614374 0.06027548 0.2764466 -1.1715856 1.3559321 -0.5478543 -0.9972657 0.16930273 -0.43153068 1.7471647 0.7078335 -0.13105883 -0.50492567 -1.0487859 1.2497916 -1.5738624 -0.55645007 -0.13123745 -0.54631585 1.7402502 1.0559531 1.0218034 2.3410826 -0.19142553 1.4415913 0.0547809 -1.2473305 -2.0248275 -0.21343178 -1.1211401 -0.50229037 -0.07597975 -1.1526765 1.0386453 -1.0649401 -0.7144954 -0.51074916 0.9553018 -0.5963019 0.31715208 -0.18296051 1.2016127 -1.1850276 -0.29526812 -1.1113902 -1.6016347 -0.29447368 -1.3143529 -0.052724462 -0.08086463 -0.6193707 -0.36778426 0.033847656 0.10691282 -0.47251114 1.3392482 -1.0794806 0.7499607 0.29892063 -0.05852647 -0.13007711 -1.813857 -0.6287928 0.38370875 -0.8019497 0.15541013 -0.5401731 -0.40010938 -0.056576427 -0.10965216 1.6278727 0.8139658 0.23832603
نیست 0.11626041 0.7957317 -0.10234004 -0.529549 -0.030199727 0.34677354 -0.77745074 -0.08937789 -0.8415249 1.3072954 -0.14520599 -0.25467607 -1.0607464 0.45922306 -0.2638437 -0.07944186 0.3698856 -0.50066805 -0.29190916 -0.3311542 -1.139648 -0.2134059 -1.3964509 -0.88832974 0.06324914 -0.14715946 -0.48917437 0.5572193 -0.6810346 -0.017200623 -0.6500786 0.5715426 -0.5692939 0.06007785 -0.7219311 0.20800129 0.76769555 -0.5095456 0.91130185 0.5472923 -0.98331213 1.4077424 -1.1880691 -0.0027222203 0.118915126 -0.39516374 1.3288643 -0.29358593 0.09217508 0.30685678 0.26146984 -0.6705097 0.95552987 -0.09174154 -0.8455302 -0.09208806 -0.42819986 0.027703863 -0.29231802 0.024789294 0.41163266 -0.07268701 0.58223116 -0.5546434 0.71834695 0.8045711 0.5053813 -0.8422307 0.8047981 0.2390851 -0.6329272 -0.4457693 -0.212405 -0.08410697 -0.34494174 -0.2938112 -0.6255517 0.45272675 0.080598034 -0.113986105 0.13244787 -0.025871145 0.45510477 -0.48671982 0.35567534 0.5082248 -0.6360363 -0.13193387 -0.15401872 -0.6379411 1.2543613 0.21621569 -0.236253 0.9336167 0.16137104 0.22800899 -0.20714389 0.061085816 1.082705 -0.99777406
؛ 0.09991897 0.32685637 0.035065655 -0.31017244 0.42683527 -0.33581537 0.7491525 0.44550228 0.22025588 -0.39427128 -0.48870543 -0.44065884 0.15670143 0.17438197 -0.29604217 0.43512258 -0.5967991 0.227041 0.3432789 0.7168161 0.5933057 -0.22042787 0.55358976 0.026202051 0.019997433 -0.3263644 0.4230723 0.6850525 -0.86944175 0.176978 -0.6554447 -0.21425867 0.16109468 -0.7220848 -0.6344823 0.5273324 0.7279249 0.07536273 0.6391814 -0.113292634 -1.0205973 -0.2921902 -0.29574263 -0.14414796 0.15223046 0.4552481 -0.32246533 -0.26898253 0.09006276 0.21435821 0.07192399 -0.047170598 -0.009690939 -0.4536663 0.12299414 0.8522468 0.51925874 -0.35496533 -0.79473495 -0.27521452 0.42142767 -0.16044953 1.2056649 0.09366537 0.4101079 -0.5126887 0.21734448 0.025244657 0.35396636 -0.28584176 -0.2709581 0.40243852 0.31891358 -1.1900136 -0.063466 -0.123585075 -0.36061743 0.09401923 -0.30166715 1.2794337 -0.08878585 0.4708013 0.41314355 0.52386594 0.5844883 0.26280895 -0.071823895 0.20232688 -0.13687174 -0.40835023 0.091201216 -0.04613876 0.56875044 -0.19803025 0.035362825 -1.2242404 -0.19928649 0.4665289 0.042224932 -0.10534661
مایه 0.16217038 1.0879902 0.18736078 0.103742495 -0.77237755 0.37371784 -0.26548508 -1.949506 -1.2885365 -0.10624603 -1.8400264 -0.23333812 0.5907306 -0.040630795 -2.145434 0.46967715 0.3365981 -0.9595936 -0.11192807 0.67496395 -0.42924568 -0.5139029 -0.5674111 0.23920259 -0.8258546 -0.8722174 -0.12271726 -0.29248857 0.27950406 -0.44541416 -1.0090475 -0.31633243 -0.30953076 -0.63557845 -0.5656687 0.42245758 0.5149833 -0.18867223 1.666285 -0.33371824 -0.47246188 0.82767963 -1.8288985 -0.67299956 1.4476115 0.6265692 0.875662 1.088566 0.16294695 0.33383355 1.2458063 -0.8762539 -0.3501382 -0.80454075 1.3907266 -1.0799872 1.1680405 0.103086025 -1.260015 0.047018085 -0.76600456 -1.7440116 0.42155313 -0.92375475 -1.5867094 0.5251314 -0.74970144 -0.4369297 1.0876868 -0.68397814 0.39107078 -0.3749079 -0.27976954 0.0060456884 0.087371774 0.070362285 -1.3993015 -0.0002904868 -0.26456183 0.91578573 -1.1202133 -0.5517799 -1.1471313 -1.9763175 0.79517263 -0.8289049 -0.06769345 0.8345365 0.5599976 -0.8205881 0.4231879 0.4892172 0.021316519 -0.05492159 0.64542794 -1.563113 -0.66408575 -0.1916025 1.3095294 -0.41749215
تقواپیشگان -0.29695186 0.1954613 0.3898444 0.48988292 -2.368215 -0.2932702 -0.119805664 0.49100044 0.31666827 -1.0451136 1.1307569 -0.57276314 -0.914819 -0.45102078 0.38096857 -0.36295143 -0.2681399 -0.62788355 -0.5614533 0.3694417 -1.4395323 -1.2052183 0.26047632 0.28784287 -0.91750926 -1.2444124 0.66506535 1.3033272 -0.22037095 0.4097754 -0.7384238 0.020535357 -0.9709871 0.50157607 -0.6536042 1.0714326 -0.7455874 -0.96651185 0.8684805 -0.6031615 -0.17325915 -0.23082857 -0.61529994 -0.28019905 1.1425587 -0.46002087 0.83372307 1.0987437 -0.85020804 1.346317 0.47832632 1.3137355 0.68311614 -0.04342743 -0.03628496 0.5399648 -0.42344868 -0.05050204 -0.5689053 0.18753862 -0.28626773 -0.3351238 0.11891507 -0.30008057 -1.4552766 -1.1071609 0.088741675 -0.5591643 -0.76514 -0.6822145 0.32873702 0.44106856 -1.190781 -0.5940585 -0.21601743 0.3474785 -0.7004437 -0.5011707 -0.09842884 -0.8519084 0.13327116 0.13903645 -0.9671332 -1.0605906 0.7548117 -0.107090235 -1.0074008 -1.3916771 0.30932426 1.1197788 0.7752223 1.0697116 1.0300379 -0.42151353 -0.13842821 0.14047058 -1.9007773 -0.89456356 -0.1852275 0.474578
: 0.71732575 0.5961609 -0.15826856 1.0374664 0.7002596 -0.028837152 0.2913201 -0.061964333 0.33240893 -1.1434435 0.43582916 0.45480615 -0.8281356 -0.062082395 -0.37905183 0.07281067 0.09354865 -0.5196 -0.104994394 0.1324014 -0.84897584 -0.89653873 -0.34327614 0.17367505 -0.30858487 0.38614497 1.374409 0.43716788 0.4745403 0.6256951 -0.23065232 -0.33384168 0.066615134 0.16677815 -0.21339326 0.3797169 0.41374266 0.17139842 -0.22383295 -0.094441585 -0.52993095 -0.5332554 -0.36773533 -0.27704245 0.35257882 0.5873829 0.38649422 -0.3460992 0.82516575 -0.14704743 -0.0017123325 0.71775347 0.6234763 -0.52548045 -0.118905716 -0.070442095 -0.74428564 -0.6851546 0.33794293 -0.7268942 0.48121557 0.0024621887 0.55548614 0.0069637382 0.6214859 0.30422205 0.5979036 0.40223557 0.2578892 -0.2957279 0.32988068 0.5349019 0.24823974 -0.05823198 0.18637386 -0.46042654 -0.14805798 0.42923045 0.23630786 0.48342133 0.46066043 -0.28682476 -0.20772882 -0.036148816 0.39619264 -0.24170722 -0.3159227 0.48205116 -0.57029355 0.48480952 -0.38483247 0.08268082 -0.19742508 0.042783506 0.06096899 -0.18642679 -0.13908815 -0.05732566 -0.40581203 -0.01662287
غیب 0.12634473 0.22654095 1.2330573 0.709291 -0.9904125 1.200056 -0.38785535 -1.015354 -0.012697818 0.32974005 0.57461005 -0.11970837 -0.613275 0.4100069 0.49161908 0.30079836 -0.7793448 -0.27587593 0.061015613 -0.31572786 -0.511719 -0.3407326 0.6930532 0.36328462 1.6720506 -0.058400437 1.3417851 0.9554517 0.056104373 -0.07376507 -0.6979028 0.8881058 1.0312324 -0.5877967 0.52727306 -0.5668835 0.22632353 -0.3742813 1.3346069 0.5127481 -0.5626622 1.1037215 -0.67355716 0.35973436 -0.66043276 0.12936692 1.0646685 -0.043827187 0.46905726 -0.79156566 -0.45920938 -0.08291497 1.8836982 0.5391697 1.0218316 -0.53036165 -0.64327735 -0.8159813 -0.49294332 -0.9863282 -0.64564484 -0.03130664 0.0019726614 -0.056181137 0.013894439 -1.7509321 0.65824646 -0.18402287 -0.39537185 -0.13222626 -1.3076462 -1.057743 -0.24040219 0.1786529 0.73272836 -1.1177117 -1.3952087 -0.7065396 0.610281 2.3112044 1.4787817 -0.2344974 -0.20918837 -0.29156098 0.5324333 0.5355938 -2.3266687 -0.45111516 0.31288677 1.4439594 1.3950634 0.35562167 0.046718415 -0.50841916 -1.9257219 -0.39662352 -0.5584099 -0.6604622 0.96005017 1.4419999
ایمان -0.28060138 0.3236696 -0.0077495077 0.049105138 -0.7509942 1.5615377 0.18310596 -0.78489405 0.55963516 -0.13461296 -0.15922776 0.27705884 -0.017228095 -0.2718349 -0.055317763 0.42574432 -0.26931244 -0.6031537 0.47643656 1.1004555 -0.27052218 -0.59472805 0.80412793 -0.30722874 0.4887807 -0.18575539 -0.10311013 0.5753438 1.2571744 0.2861553 -0.6333768 -1.4964957 -0.15586208 -0.077937745 -0.43535122 0.41086537 0.0010293355 0.20953512 0.1519409 0.9658966 -0.076042265 -0.19443521 0.3140406 0.5407105 2.150866 -0.10383858 -0.81890774 0.70850027 -0.60922265 0.27589518 -0.6240959 0.6899841 0.8614737 0.46841967 0.42455176 0.007770059 -0.18587969 -0.55106175 -0.42409074 -0.18309413 -0.094595924 -0.9006547 0.7541701 -0.1817223 1.1395353 0.4956939 -0.24488953 -0.33040228 -0.052389037 -0.24916154 -0.29504362 -0.6502424 0.36980096 0.40764445 -0.02550168 0.51130867 -0.57048434 -0.29265386 -0.04471729 -0.74086475 0.17413937 0.25394613 1.3973758 -0.18473928 0.97101134 -0.5505294 -0.14730717 0.52702725 0.39179897 -0.21861458 0.66540056 -0.5001544 0.1137822 -1.3778951 -0.31262654 0.3262978 0.47227192 -1.023575 0.15780072 -0.69620335
می‌آورند 0.5934379 0.8862351 -0.8962647 0.13858616 -2.8627603 -0.92859685 0.06985714 -0.90077543 0.16113001 0.58473295 0.76573366 0.0045104744 -0.113194816 0.13229796 -0.28899193 0.88507056 -0.720777 -1.2921156 1.8927732 0.30426234 0.069250576 -0.25112832 -1.097703 0.50253934 0.9076982 1.597396 0.3739848 0.956351 0.7779043 0.51849216 -0.05389861 1.2025512 0.0019344706 -0.16938554 -0.583961 0.84999126 -1.3822935 0.26756537 0.5993146 1.8606131 -0.68716824 1.8341588 0.37135464 0.001424801 1.4425218 -1.0844427 0.36335737 -0.50636905 0.3613017 0.6738358 -0.49568266 -0.59682345 1.7014323 -1.1674985 1.4919387 0.9442543 0.09709738 0.7346194 -0.67534506 0.022120625 -0.5090673 -1.0291361 0.64963776 0.025351113 0.5863542 -0.06891041 -0.35369253 -0.7269371 -0.079203956 0.065563716 -0.71836174 0.96796995 -0.14684011 0.39337906 -0.10505428 -1.678616 -1.4752083 -2.1574967 -0.90563095 0.4921103 -0.012665934 -0.24263701 0.41981092 -1.4887667 0.5696606 0.50404674 0.25045773 -0.96682703 -0.045397274 0.24781184 0.4992989 -1.0950527 0.8547338 0.03836274 -1.0454048 0.40779126 1.1723144 0.69803804 -0.6045426 -0.5251737
نماز 0.6623091 1.800787 0.58903384 1.1579341 0.4986624 0.13712305 -0.68878806 -0.26363572 0.63424236 0.5926627 -0.94848037 0.080620006 -0.11648785 0.59342265 0.90119755 0.6538019 -0.5465989 -1.712988 0.22762804 -0.016316725 0.8242483 -0.6840593 0.47259307 0.8265454 -1.1627927 -1.2026386 -1.323325 -0.041130286 0.9284755 -0.21765414 -1.2586792 1.4093041 -0.4728894 0.7326317 -0.7585436 -0.026761554 -0.25678903 -0.31688118 0.27754754 -0.39942682 -1.8788033 -0.8383498 -0.26997 0.2957341 1.4459993 -0.36941597 -0.7922758 0.91544926 0.17412853 1.1647823 -0.2571701 -0.7048527 -0.47303796 -0.2703493 0.17754628 -1.1116071 -0.52836543 -0.32797363 0.47642612 0.6916936 2.2234962 0.7116326 -0.30211398 0.7102289 1.2749456 -0.28657013 0.24169385 -0.869794 -0.07146959 -0.7653471 -1.1991327 -1.0264039 -0.21213073 -0.32436892 -0.5405047 -0.50513077 -0.2223689 -1.3961138 -0.5987337 0.7040585 1.1283698 -0.17031658 -0.35269856 1.2104023 0.76736516 0.14158744 0.17444664 0.6566974 0.11406615 1.3857578 -0.1508359 -0.2084158 0.032233838 0.117131464 -0.0970196 0.7840901 0.0092042405 -0.07235776 0.40128863 0.32340932
بر -0.3712213 -0.17845993 -0.70864844 -0.22632244 0.4045021 -0.43854016 -0.110010415 -0.57798564 0.07457371 0.37814853 0.031430695 -0.15416095 -0.19959974 -0.17548724 0.10782025 -0.4958891 0.5168283 -0.41677976 -0.44135404 0.87068146 -0.7526122 -0.6294886 0.44473183 -0.087521575 0.53869295 -0.49265742 -0.10116642 0.8259546 -0.10508619 -0.13640262 0.24009798 -0.1942455 -0.29296836 0.0014776647 0.19860679 0.32298696 -0.04177821 0.44832554 1.0287464 0.116604365 -0.04599873 -0.050356884 -0.28542447 -0.02407698 0.4532385 0.17573805 0.007941098 -0.07064817 0.088860445 0.17681067 0.54461414 -0.47491756 0.51119107 -0.09503299 -0.34756753 -0.3545659 -0.45950177 0.22315255 -0.1971616 -0.068736054 -0.5812753 -0.17213 -0.49414536 -0.43440074 0.34189603 0.04938096 -0.06247664 -0.0813435 0.047805026 -0.71182764 -0.5313815 -0.15519984 0.15117541 -0.056771453 0.15277979 -0.83640605 0.15828958 -0.15455979 0.15598352 0.4569822 0.6729364 -0.16718265 0.13635127 -0.29640642 0.079883814 0.47643536 0.38992646 0.34111905 0.30577627 0.42728457 -0.04696283 -0.3396651 0.6099357 -0.4968031 -0.12725931 0.21170123 0.6350478 0.26304534 -0.11434919 -0.4363781
پا 0.3698862 0.1005921 -0.01247874 0.080673166 -0.8129681 1.4356587 -0.30977818 0.010521973 1.2913346 0.57603383 0.5615679 0.35727617 -1.3410261 1.0773561 -0.46131077 -0.75861293 -0.8753723 -0.6415987 -0.3809758 0.34475467 -1.2021548 -0.47696826 0.53488 0.64446586 -0.20990817 -1.5040342 -0.7984476 0.9854968 -0.07391579 -1.2164387 -0.48353285 -1.3585364 0.034144454 1.3282629 -0.109805174 0.1773688 0.39117193 -1.534037 0.69154644 -1.0935175 -0.89824724 -0.5628998 -0.54878 -1.6629218 1.4426553 -1.8180847 1.504621 -0.14382555 -0.7992234 1.8841519 0.7920728 1.1321231 1.0557028 0.123524435 -1.8010181 1.5362922 -0.6737838 0.5178769 -0.5376482 -0.39794928 1.0333188 -0.07467469 -0.57059246 0.15496889 1.335425 -1.4426583 -0.54174966 -1.0274487 -0.35739973 -2.0779703 -1.2614871 -1.4329094 0.6348239 -0.68096787 0.22452547 -1.0505581 -0.45287132 0.9611458 -0.18949531 0.05084206 0.8408385 -0.46585095 -0.60914993 -0.60950965 -0.33127293 -0.6366323 0.24613501 -0.25993067 0.24080423 -0.99609005 0.3705993 1.4610378 0.029096607 -0.13211969 0.2685914 -0.32202333 -0.27457806 -0.4029083 0.8283507 0.84402794
می‌دارند -0.614707 0.3096443 0.012611672 1.3826648 -1.3245189 0.14094305 0.10846399 0.7775851 -0.6751572 -0.3375071 0.28303015 -0.578706 0.58246946 0.5433927 -0.27297735 0.77973837 -0.76651937 -1.3872802 1.5118937 0.35396355 -1.0793483 -1.040271 0.14796409 -0.2510633 -0.7854662 -2.1612082 0.22561549 -0.037723962 -0.7523398 -1.1289642 -0.7689527 0.4661008 -0.7180942 1.1935203 -0.17773016 -0.92685795 0.20755723 1.0264791 1.2435911 -0.3663112 1.301844 0.40414652 -1.362028 -1.9261885 1.2535158 1.0222906 -0.9270292 -0.27554306 0.1623502 0.6715748 0.42635974 -0.13469589 0.21637319 -1.3318763 0.74453557 0.6378367 -2.3409667 0.38953802 -0.7392944 -0.011277942 -0.4962471 -0.44100988 0.09464275 -1.0312395 0.74337655 -1.3475673 0.4681655 -1.2456259 -0.22516121 -1.810257 -0.4431654 -0.83318895 0.35680026 -0.022529844 -0.890897 -1.3119273 0.1757098 -0.32761064 -0.5463086 -0.015909925 0.016221413 -0.33351925 0.062605165 -0.041577578 0.26719493 0.13200037 0.32599914 -0.8356106 -0.42820746 -1.2702389 -0.24559473 0.08370216 1.0812949 0.5733374 -1.5194876 -0.45295534 -0.2073274 -1.0995659 0.050048593 -1.4539559
آنچه -0.02588556 -0.2311574 0.22197013 0.9104815 -0.030100817 0.82074 -0.6406805 0.41551533 0.3351522 0.004589555 0.0394841 -0.34431505 0.6746952 0.54634404 -0.12883355 -0.2909705 -0.09726717 -0.6087765 -0.008378452 0.73911077 -0.39388418 -0.44090083 -0.6874236 0.62418294 0.042656064 -0.4161914 -0.10482419 0.67840743 0.94398576 -0.25591508 -0.56426275 -0.3287852 -0.65286195 -0.2929487 -0.29322436 -0.46567664 -0.45934922 -0.0750194 -0.32233486 0.21989289 -0.50281113 0.47221997 0.6378896 -0.07886419 0.69213337 0.28140453 0.28394246 -0.93516994 0.059639186 0.47802833 0.8604848 0.6968232 -0.20470768 -0.66365594 0.58476686 -0.19726163 -0.18504666 0.27007794 -0.21064408 -0.60604393 0.46668306 0.42236754 -0.4337576 0.0077616693 0.028602978 -0.3850336 -0.48183024 -0.9026566 0.10073463 0.5246394 -0.70161027 -0.9458252 -0.7821164 -0.52087563 0.39447752 -0.21898532 0.023719948 0.40113696 0.64553344 1.0292451 -0.22399862 -0.3778039 -0.7505739 -0.11400528 0.61387336 0.27941698 -1.0935205 -0.018641092 -0.3017966 0.8721214 0.7376243 0.26366344 0.25047067 -0.12323706 -0.30448386 -0.32642406 -0.34606642 -0.035555005 0.56417704 -0.14460555
ایشان -0.49009618 0.2584819 -0.94080836 0.30771157 -0.47617322 -0.14903675 -1.250801 -0.032971784 -0.42038366 -0.31704324 -0.665875 -1.0308528 0.44549847 0.5817432 0.80642366 0.7869056 -0.48560715 -0.6078529 0.1321655 1.3952153 -0.7655318 -0.3006843 0.98128617 0.24203686 0.27099666 -0.28431726 0.8669204 -0.052350882 -0.12497307 -0.18650927 -0.14664142 -0.09793618 0.3618026 0.28988746 -0.3078841 -0.4473335 -0.20068546 -0.10403366 0.82653576 0.6199139 -1.1105969 0.25827226 -0.28570983 -0.48753294 -0.08090865 -0.042630486 0.93843895 -0.88414377 0.2065097 0.918168 -0.6646496 0.24539983 0.51619816 -0.571958 -0.64579594 0.11878432 -0.02162126 -0.49880755 -0.56099534 -0.009069255 0.9238897 -0.13457453 -0.7788882 0.17614168 0.22967927 0.09960308 -0.44892815 0.87995636 0.975744 -0.13453273 -0.05909432 -0.018656043 0.12554215 1.1461279 0.69246876 1.2244923 -0.75179845 0.6149274 -0.44287387 0.40838933 0.4678697 0.65251213 0.21352553 0.015179118 -0.3278037 0.21857238 0.055734072 -0.38399094 0.09547868 1.0784707 -1.063847 0.22753169 0.44674474 -0.3460077 0.1859779 0.84775966 -0.7025063 -0.7541191 -0.535542 -0.51966757
روزی -0.58229595 0.8177686 0.15277381 0.591013 -1.0040612 0.09691861 -0.38338083 -0.74819833 -0.5540639 -0.5223329 -0.44079918 0.14018485 -0.24714051 0.3886108 -1.2754371 -0.10630848 0.034313615 -0.25964034 0.2716116 0.15804885 -0.83550876 -0.4485004 0.19258706 1.0925189 1.1170793 0.9611456 -0.18908079 -0.7113718 -0.3041924 -0.07196468 -0.37926182 0.09257969 -0.6630879 -0.35179672 -0.470295 0.81369346 0.18383263 -0.5112846 -0.06991696 -0.16794454 -1.0993489 0.3858035 -0.5451426 -0.18415035 1.0283592 -1.8065854 0.16660982 -0.5104985 0.75023365 -0.49136162 0.73393184 1.3843507 0.7277014 -1.8553494 0.65018135 0.65175295 0.39324307 -0.061556917 0.326167 -0.8552095 -0.48298335 0.09691759 0.40069732 0.19440857 0.0133229615 -0.5089072 0.30734593 -0.44338098 0.9450435 0.28041846 -0.8451241 -0.4015367 0.0044038743 0.2275926 0.8157985 -0.0498284 0.24462542 -0.08483633 -0.03038828 0.19952083 1.2275248 0.28967455 0.8208334 0.21054438 -0.76614106 0.6415382 0.07118935 1.0127215 0.57267225 0.38671702 -0.7988845 0.16556625 -0.6445014 -0.28936505 -0.19408314 0.87335354 -0.15750208 0.06553316 -0.77248895 -0.034154285
داده‌ایم -0.7782729 1.1510704 -1.4684513 1.0232148 -0.84185266 -0.6211957 -1.0512961 -0.58199626 -0.5225697 0.33131945 0.00060159614 -0.32642928 -0.30519962 1.5120779 -0.8471206 0.3805822 0.9941758 -2.4428535 0.21838708 0.753488 -1.1000223 0.03505316 -0.8444962 1.2501763 -0.093360454 -0.7225388 0.803977 0.44824788 -0.31068265 0.19988891 0.4186683 0.9169596 -0.3257836 1.8686335 -0.5856988 0.73013586 0.17321408 -1.9510881 0.23965615 0.18694593 -0.4911307 1.4322519 -0.64782834 -1.3751034 0.6871937 -0.21425672 0.7772973 -0.01834364 -0.79491585 1.6644114 0.41323012 1.1373726 0.7264737 -1.227668 0.9567703 0.602754 0.17921795 0.6593922 -0.43979093 1.2309978 0.60088533 1.4498096 1.7176437 0.32193986 -1.4889523 1.5135325 0.82322997 -0.63846767 0.7367847 0.06359838 -1.4224854 -0.73772484 0.11486612 0.80466014 0.47178125 0.6536583 -1.0807462 -0.23706609 0.23590706 -0.8706854 0.14339669 -1.6079848 0.05374929 -0.3528311 -0.8545858 0.08156387 -0.4838999 0.25872573 -0.09554611 -0.38310564 -0.71243894 -0.9886561 0.1192135 1.1661944 -0.15293917 -0.5128099 -0.014023388 1.0143887 -0.20730513 -1.4529191
انفاق -0.79375106 0.12800172 -0.35209876 0.6001732 -0.09101093 -0.036064267 -1.539681 -0.43641657 0.24989119 0.85767305 0.58364576 -1.2375076 -0.54359996 -0.11712511 -2.1593413 -1.7009428 -0.9906664 -1.0865861 1.2981921 0.41884083 0.17514406 -0.8966009 -1.0912379 0.43038794 -1.3899984 0.38823548 0.32121295 0.6585566 -0.5004948 -0.61834306 -0.59840256 -0.30661353 -2.606419 0.21861716 -1.4521681 -1.0403826 0.5091152 0.5523001 0.29480425 -0.032622505 -0.98613596 0.36300284 -0.42051077 -0.07600519 0.60783994 0.3795665 1.1030691 -1.3987688 0.21642324 1.4862689 0.081603006 2.0786874 0.21136296 0.18865496 0.2682014 -0.9001709 -1.1004415 -0.29238164 0.82653534 -0.45684972 -0.062293194 0.5491192 0.98861986 0.9075909 -0.03731014 -0.49987608 0.43022743 0.3149612 0.9947719 -0.9880299 -1.2672669 0.5310085 0.060106162 -0.33839652 -0.25149205 0.48302835 -0.29564974 0.48290887 0.9270711 0.23326959 1.523792 -0.15657684 0.17812908 -0.48137203 -0.31059402 -1.3342446 1.2751482 0.8204807 -0.16025196 1.222085 0.8815527 0.4788852 0.4976105 -0.36453697 1.3072747 -0.93187034 -1.2378597 0.640923 0.5689957 0.30208847
می‌کنند -0.57314575 0.34741512 0.06539608 -0.90772116 -0.9950877 0.05672023 -0.9173919 -0.28943345 -1.7197696 0.6610085 1.1139811 -0.53186023 -0.09204696 -0.36265296 -0.92185205 0.76541513 0.13250981 -1.5535637 0.047148056 0.94586384 -0.9444635 0.13289014 -0.4975105 0.5054829 0.15423629 -1.269518 -0.3056605 0.6074178 -0.38870335 0.3036926 -0.0628273 -0.44085568 -0.10137311 0.3255193 -0.65718377 0.14938048 -0.6304522 0.3571685 0.0015527356 -0.76757205 -0.3723022 -0.038268145 -1.2524416 -0.47851542 -0.98259383 0.8347638 -0.012038562 -0.664579 -0.15961973 1.3649585 0.73560005 -0.92200136 0.86151075 -0.4876374 0.0694024 -0.16374055 -0.45203018 0.6344196 0.52062726 -0.09905094 0.024656752 0.13466345 0.6044952 0.083834484 0.0070002503 0.42794448 0.23431216 -0.36085975 -0.45296988 -0.104323514 -0.41962546 -1.0647185 0.18757392 -1.4818987 -0.30293414 0.58474696 -0.9143385 -0.4577673 -0.42546928 0.01024071 0.45230058 0.1897256 -0.51764005 -0.1479704 -0.5306378 -0.29014686 -0.2988461 -0.22843543 0.18693909 1.1242347 -1.0994424 -0.87273395 1.2629429 1.5819161 -0.5767987 -0.6208573 -0.76098365 0.07103531 0.14043468 0.27944177
بدانچه -1.0405267 0.18134192 -0.0037728336 -0.417286 -1.1657451 -1.2146713 0.3224838 -0.4575283 0.68952584 0.9590494 -0.4149455 -0.25299394 -0.649468 1.1445824 0.09056297 -1.1766436 -1.5937772 -1.1508338 1.7333412 1.190942 -0.85263485 -1.8229103 0.83125716 0.49975824 -1.0174234 -1.5687475 0.63491845 1.5996283 1.2610364 0.97917175 0.08830781 -0.7993417 -0.26784152 -0.7698861 0.03937769 0.3511929 -0.7983319 0.67260754 -0.60133433 -0.72784925 -3.0410368 -0.26130724 1.490687 -0.0009066982 1.1518062 0.42462233 0.6502098 0.23480324 -0.01945295 -0.15215 -0.5474915 0.35636505 0.07290278 -1.512736 0.075012326 1.0818655 0.5536848 0.53270626 -0.06555776 -0.45881376 0.15385225 0.10805121 -0.612572 0.25682238 1.3903134 -0.89687353 -0.43807465 -0.9592444 0.81255317 0.10207435 -0.7154279 -1.5890808 0.23378955 -1.3256952 -0.39205986 0.34250325 -0.40890774 -0.43745288 -0.8842345 0.32368353 1.509568 -1.1780058 -0.35635453 0.70397717 0.2683786 0.37267143 0.18262082 -0.14221084 -1.3970909 0.29247913 1.7018968 0.16838284 -0.75734186 -0.19065602 1.0384251 0.40570286 -0.14344104 -1.0038941 0.58029234 -0.042351846
سوی -0.22266632 -0.42529002 -0.13077988 -0.1825748 -0.617473 -0.30177224 0.7139255 -0.37858623 0.10614096 -0.39302558 0.17980163 -0.48490196 0.018153582 -0.6204841 -1.0478927 1.0615786 0.46221712 -0.13429846 -0.93044 0.08836192 -0.32711256 -0.6230291 -0.63481313 0.61852443 0.52472895 -0.4560085 -1.0731533 0.1788243 1.0451441 0.3592849 -0.9823431 -0.15502946 0.07786726 0.4039265 -0.7991545 -0.22391066 -0.04882064 0.22337724 0.81279224 -1.0316855 -0.96399426 -0.2836979 -0.0662268 -0.6243545 0.82435 -0.108456016 0.22305205 0.6372859 -0.4037661 -0.2602348 -0.3045275 0.35152358 -0.020982254 -0.8200368 0.24894914 -0.36829993 -0.79737973 -0.54519105 -0.6345187 -0.26308084 -1.326279 0.34256098 -0.27068457 -0.3047548 0.0155785 -0.33308697 0.43782887 -0.09592566 -0.20052288 -0.2094928 -0.11797124 0.25684685 0.58365977 0.08208713 0.18912618 -0.025910448 0.11455047 0.6477945 -0.07682453 0.08242664 0.98876804 0.41767895 0.21364403 1.0478377 1.5846117 0.4669294 -0.83507293 -1.4411907 0.41082582 -0.2785306 -0.4274377 0.026751094 0.03020954 0.3827788 -0.70922774 0.30319625 -0.36928892 0.62804824 0.20858724 -0.6144693
فرود 0.35782364 -0.8851908 0.37333027 0.801487 -1.4612703 -0.5717683 0.31160915 -0.45861766 1.0705794 0.30428803 0.99599457 1.2406856 -0.37075877 -1.1670326 0.055105273 0.35545877 0.12810332 -1.1576169 0.13789077 0.32612684 -0.26261082 -0.7172168 1.242835 0.9448022 1.0921052 -0.7780473 -0.6290776 0.9151486 0.39674088 1.658548 0.5377605 0.7635859 0.62861013 0.00884774 -0.9353905 1.2904185 1.0661964 -0.18658696 1.0348219 0.52583605 -0.53157866 -0.52380556 0.029100226 0.7976413 1.0508754 -0.16524398 1.0196956 -0.24825424 -1.1607267 0.4322721 -1.3787462 1.177226 0.4370396 -0.3058736 -0.6621158 -1.0935814 0.05671157 -0.4801198 -0.5692909 -0.680748 -0.8161941 -0.7629401 -0.1223803 0.4003597 0.06859137 -0.47266862 -0.021378178 0.51322067 -0.117038235 0.8615577 -0.98201466 -1.6986022 2.7435741 -1.3351737 -0.99964976 0.39731014 -0.84340847 1.3477138 0.051990412 -1.6333745 1.0408236 -0.8517149 -0.5845959 0.33201233 1.3648367 0.14398128 1.2451755 -0.008840003 -1.9567841 0.47312313 0.83466345 1.8729101 0.15162261 0.50704736 0.3241213 1.6074723 0.8810315 -0.83763224 -0.10800259 -0.7709694
آمده 0.07673976 0.82555014 -1.2298676 0.9036269 -0.6289865 1.4954529 -1.2821065 0.2540474 0.11544005 -0.98086935 0.604186 -0.4347523 -1.1179701 0.3013256 0.4824903 0.26456487 0.6097129 -1.2129333 0.25444922 0.95037156 -1.2575576 -1.8133059 0.17860183 0.37662086 0.668683 -0.49867168 -0.61446685 -0.2612018 -0.19895455 1.0460773 -1.3535353 1.9140084 1.2985888 0.2786278 -0.08412191 1.5265976 0.54063636 0.75455344 1.1058649 -0.22225566 -1.8942891 1.7062297 -0.4588621 -1.2111696 1.3389617 0.8070858 -0.18948348 0.46420917 -0.17811655 1.1606683 0.8415309 0.039107222 -0.24947442 -2.4061716 1.4358381 -1.822312 0.8686565 -0.91956264 0.011973141 -0.8633907 0.19124635 0.11704383 0.46865895 0.21562423 0.8072809 -0.53316635 -0.5068418 1.0583872 0.29342246 -0.63435835 0.09198233 -0.5658583 0.7258585 0.57558197 -0.8757685 0.83223313 -0.48903456 -0.75661325 -1.9538231 0.27103075 1.3904703 -0.18187481 -1.2806661 0.12922293 2.096687 -0.069077566 0.63089454 -0.028526027 0.47990224 -0.96708465 -1.3012428 0.029135091 -1.351109 -0.27081862 0.7081877 -0.053422786 -0.44593024 -0.13362087 0.324338 -0.27700156
پیش -0.108337454 0.19885933 0.5186675 -0.06314936 -0.5192495 0.14517385 0.31535757 -0.57186294 0.65085995 0.4483459 0.19229901 0.0035761166 -1.2469105 1.1917803 -0.33276778 0.107359976 -0.31424826 -0.017596522 0.15186311 -0.024719173 -0.5164872 -1.0742183 0.5161355 0.22301981 0.27071038 0.15347794 0.1438985 0.37401167 0.6809974 -0.19295003 -0.7042057 0.4054353 -0.67130506 -0.7137563 0.64316064 -0.238478 -0.023870943 0.045537893 0.43470904 0.66440743 -0.97225153 0.36859322 0.48883346 -0.9460179 0.721144 -0.99723357 -0.03400692 0.13050349 0.37329397 -0.46704343 -0.9392913 0.78406084 0.46680337 0.2539023 0.095588714 -1.8312148 0.09353911 0.18135889 -0.83405024 0.17259684 -0.87072587 0.1810426 -0.6858501 -0.29989246 0.3128517 -0.5003373 0.07271956 -0.34370488 -0.041854847 -0.5516888 -0.68450254 0.13383117 0.5887737 -0.22784917 0.22457297 0.1531709 -0.21775734 -0.64469695 -0.17756972 -0.019301238 1.1003426 1.1449113 -0.4959465 0.6152387 0.9841886 0.7908365 -0.32494318 -0.39839542 -0.38217816 0.37458676 -0.4720486 -0.3026912 -0.059921183 -0.9606403 -0.8419576 0.21371332 -0.40210035 -0.58651525 1.370446 -0.18333301
نازل 0.18147592 -0.6341785 -0.13337445 -0.2759221 -0.49226707 0.041040406 -0.6990856 -1.5036952 0.4823593 -0.58693725 0.5557719 -0.8513621 0.45209217 -1.4615815 0.8010801 -0.018485578 -0.095243104 0.030218884 0.08200745 0.80209535 -1.199106 -0.7657973 0.15570001 0.43625695 0.8425248 -0.35536793 -0.83114463 0.8993588 0.2993077 0.30294496 -0.6343553 -0.203365 -1.4633483 0.006217455 -0.16914102 0.88674885 1.5172191 -0.20242627 1.3677648 -0.14741535 -0.2006423 0.6969093 -0.4364903 0.40272453 0.23322257 -0.9164551 0.42996344 0.68540174 -0.67352813 0.8638686 -0.4426267 0.72784853 0.18479225 -0.6893233 1.0597945 -0.19274205 -0.4451924 0.17680098 0.04398272 -0.7055675 0.61922675 0.49436906 0.81107426 1.2046531 0.1948659 0.7834653 -0.22674704 -1.0065646 0.43450382 -0.7353295 -0.48904562 -1.6596972 0.8446676 -0.23182738 -0.3437834 -0.03149282 0.71500576 0.44160482 0.69298524 -1.4549028 1.2559974 -0.66966337 -0.48109514 0.7394733 0.7759629 0.3638212 0.364629 0.68688136 -0.1954282 -0.168041 0.17258462 -0.23714846 -0.6238121 0.58954775 0.87912697 0.7633042 0.9414034 -0.19929397 0.34900483 -0.010563152
شده_است 0.5891536 -0.55029273 -1.0521278 0.046110343 -0.3663195 0.84463453 0.3122084 -0.7510415 0.9169415 0.44016436 -0.05109222 -1.5765994 -0.47568443 1.5177393 -0.2719969 1.080189 0.3535587 -2.3066752 0.85446477 1.2185642 -0.81206006 -1.1657321 -1.0686293 -0.43062845 0.63519603 -0.04720482 -0.44947156 0.630899 0.99265426 0.45631668 0.15403254 0.6022627 1.0837436 -0.010944297 -0.1857073 1.4083911 0.90390915 1.4190133 -0.09921871 -0.7996753 -0.33048594 1.1119093 -0.39656806 0.35094976 -0.040585592 -0.47701812 -0.9121665 1.057988 -1.0162919 -1.1646525 0.23876826 0.48601922 -0.1352846 -2.6121724 -0.35710713 0.5245558 -0.12126587 0.004187657 1.2756379 -0.2328824 -0.52165234 0.88867956 0.51920265 -0.17177682 0.42685613 0.72835445 -0.4236771 -0.4356631 -0.33988446 -0.2168791 -0.82318765 0.13246223 0.30961213 0.49719033 -0.24854957 -1.3611429 -0.55416375 -0.8828748 0.7219053 -0.078836724 -0.34933725 -0.8702084 -0.7268031 -0.50646776 0.4308634 0.18229954 0.19975296 0.77692175 0.87457055 0.38324663 -0.16006543 0.15846299 0.26683736 -0.7127619 0.1840829 -0.3284468 -0.7602916 -0.86412185 0.5595691 -0.32107723
آنانند 1.1924572 -0.8928309 0.6164774 1.1402766 -1.0366392 0.46467942 -0.7260496 -1.3190987 -0.32868707 0.5152845 -0.3262054 0.030594084 -2.0058987 0.45145229 -0.9517348 1.1344938 -0.7295973 0.45375764 0.033034015 1.4782971 0.8713043 -0.49501854 0.2845955 0.7266796 -0.13368052 0.25774917 1.0619977 0.23117821 1.4702336 0.5249204 0.47409937 0.03448063 -0.75435346 -0.31800306 -0.3673416 0.71572113 -1.1147876 -0.02332489 0.8561234 0.1766752 -1.4230068 -0.80158234 -0.92608714 -0.24590944 0.67493814 -0.72986054 0.66164017 1.0669295 0.50596994 0.6272854 0.08061511 -0.032360222 1.0559279 -1.0448533 -0.112809904 0.60866004 0.8395829 -1.7840551 0.39692137 0.12527983 1.6401496 -0.40349686 -0.7080852 -0.51065886 0.7881216 -1.2908797 0.113637775 -0.17017744 1.2028267 -0.7549119 -0.8678662 0.4298086 1.0034103 -2.2897904 -0.97555566 2.2164884 -0.83099633 -1.1467483 0.9809395 -0.17569612 -0.68562746 0.06340818 0.058004383 0.60102487 1.1109895 0.13077897 0.2600877 0.39768574 0.126018 0.20772009 0.7250234 -1.0145229 1.8470736 -0.27364567 -0.7559315 -1.3922818 -0.42818168 -0.5029608 0.3525868 1.1895825
آخرت -1.036512 1.6630893 0.53247875 0.68691087 -0.20617831 0.33319739 -0.56915605 -0.23932882 -0.198061 -0.18252923 0.33936262 -2.1023016 0.13146223 0.11855375 -0.4497861 0.39677417 0.449861 -1.3619457 0.3169038 1.539296 -0.5847875 -0.14575502 0.56478536 0.34700406 0.15579943 -1.0152291 -0.8558364 0.2944069 -0.21513306 0.10360785 -0.4766204 0.49458754 -0.2762435 0.09802865 0.68304235 0.40696687 -0.44513318 -0.87650007 0.4997636 0.27824986 -0.6924244 1.057751 -0.8869907 -0.6410611 0.011198081 -0.7234053 0.53569585 0.6379826 0.4640717 -0.06148353 -1.2802203 0.7247946 0.08103007 0.18518762 1.4307774 -0.71345484 0.78258204 -0.106041 -0.9032757 0.09426939 -0.23146869 -0.7500372 0.83709997 -0.37413946 1.6212326 -0.86925334 1.7936143 -1.8073223 -0.42065087 -0.5653038 -0.8338264 0.10547386 0.08948073 0.062504254 -0.47215748 0.64969504 -1.3786465 0.20042986 -0.33007926 0.5159824 -0.7423125 0.54502606 0.83295053 -1.1217759 -0.56757915 -0.39076456 -0.87725794 -0.49787417 0.34775266 0.17294784 -0.8316494 -0.103769526 0.6924997 0.17957272 0.19974302 -0.12147426 0.48430195 -0.15516971 -0.8096673 1.3572143
یقین 0.4463188 0.1406127 -0.054981157 0.774644 -0.9250593 1.2843645 0.076757215 -0.8830906 -0.7472417 1.2008682 0.36883873 0.56360084 -0.033157643 0.88935894 -0.02112144 0.8720882 0.8528913 -1.0457808 1.499641 -0.88612777 -0.3274505 -0.36478916 0.07435306 -0.12976347 1.354382 -0.44361055 1.1150293 0.5101796 1.8334873 -0.5869032 -0.5463574 -0.6453687 -0.31797752 -0.4691121 0.15720218 0.117135435 0.034881003 -1.5836111 2.2140768 -1.3890854 -1.4989856 1.6691103 -0.67216104 -0.22477308 1.32514 -1.1018817 -1.0058326 0.6450827 1.4454882 0.2694803 -1.0950112 0.8589121 0.87289953 0.082729034 -0.2578473 1.0199118 -1.148763 -0.90213245 -0.50425076 -0.8731111 0.48216057 -0.6874346 0.50255626 -0.88711816 1.3519732 0.5486731 -0.16835587 -1.4858375 0.18189971 -1.0465627 0.37847534 0.38137776 -0.11529099 0.6054317 0.2216086 1.1187289 -0.3309056 -1.435876 0.95869106 -0.35538098 -0.9211748 1.0605924 1.0108333 -0.52160114 0.5769593 0.5733957 -0.3977246 0.8053309 0.48335344 1.6950939 -1.1476716 1.0218027 -0.7131361 -0.8707969 -0.08402069 0.9315926 -0.65859807 -1.2610247 -0.8378098 -1.4338603
دارند 0.75432634 0.15252097 0.025995905 0.9187863 -1.578852 -0.7918771 -1.048923 -0.49196732 -1.4504663 0.7776839 -0.27222523 -0.4097955 -0.2396067 1.0791069 0.07118659 0.366145 -0.6344014 -1.4118052 0.6318685 0.8951869 -1.5431737 -0.914254 -0.008710721 -0.44713676 0.30657828 -0.5571162 0.7602432 0.056376398 -0.5826125 -0.9343987 -0.058385693 0.90610886 -0.38908255 -0.55485433 -0.75024885 0.04061659 0.534193 -0.091189414 0.05411716 -0.5127975 -0.8743157 0.5823263 -0.52504367 -0.19760102 0.44181752 0.1372537 -1.1226432 0.18333904 0.90544736 0.19027582 -0.026428474 -1.0175859 1.0711634 -0.5334331 0.6639688 0.40908688 -0.343167 0.6816386 -0.30970752 -1.4572803 1.390655 -0.7456955 0.9421502 0.23948234 1.2323629 -1.336628 -0.06945091 -0.42598048 -0.53042245 -0.6396705 -0.25739568 0.2913442 0.83824956 0.1845475 -1.0596147 -0.86250085 -1.1142213 -1.1367046 -0.11464257 0.43869236 0.20715478 0.28569543 -0.94253653 -0.03828897 -0.91592926 -0.6701719 -0.1352039 -0.4363777 -0.24942139 -0.764103 0.16466011 0.12695535 0.1126552 -0.2193141 -0.24131937 0.58498967 0.40551263 -0.36351845 0.5914916 0.47120047
برخوردار -0.34843665 0.22655526 -0.13362488 0.118907005 -0.98859715 1.7362852 0.25961348 -0.189132 -0.8007466 -0.76925474 -0.88421154 -1.1500978 1.5467352 -0.08349604 0.291202 -0.4113335 -2.094676 -0.04409697 -1.2333518 0.7993378 -0.81167394 -0.74305093 0.3550166 2.4006176 0.79327375 -0.6037825 -0.41694826 -0.4803648 0.16819334 -0.20947468 0.5012759 0.57175446 -0.2802139 -2.01893 0.51471037 0.5831612 0.9577871 -1.4758707 -0.059319053 0.08795607 -1.3004197 -0.37721536 -1.7926934 0.078750834 1.0559626 -0.5240873 1.202686 -0.95592546 -1.5432545 1.8381225 -0.693806 0.90182734 -0.5731813 -0.1891496 -0.047093064 -0.94991386 -1.8898497 0.47700557 -0.67450815 -0.5602169 -0.97168064 0.47173473 -0.23704843 0.60665715 1.352118 0.21409902 -0.03754704 -0.38307896 2.640584 0.13543828 -0.18742734 0.08908143 0.01608432 -0.0036159442 0.8631371 -0.6131134 -0.26335248 0.932192 0.12714736 -0.3854201 -1.6260868 0.63185036 -0.15828593 -1.0428252 -0.060785655 -0.6103492 -1.354318 1.2448335 -2.3430295 1.0433288 0.43088898 -1.3535641 1.2382481 -1.9121363 -0.707241 -1.0326953 -0.5915756 -1.0244821 1.7800403 0.98217535
همان -0.41440395 0.44298646 -0.106258616 0.015971512 -1.1557144 -0.33316854 -0.25921586 -0.23463236 1.1427437 0.030987617 -0.23201291 -0.19901545 -0.51217854 0.4778377 0.31571645 0.16901956 0.7233054 0.63830054 0.28476438 0.5226142 -0.517855 0.19336712 -0.30227944 -0.83368367 1.4066628 0.8781075 0.68590504 0.41336134 0.9437251 -0.16719626 -0.20376003 -0.6679743 -0.19019765 -0.18654726 -0.66312253 -0.224504 0.515229 1.2055368 0.3266095 -0.38092533 -1.0264565 0.06051197 -0.21725683 -0.10867068 0.9217965 0.99189156 1.5729687 0.6257107 -0.2161292 0.18969858 -0.37555674 0.07517561 0.24317943 0.8535002 0.36842054 0.06201281 -0.6021874 -1.0647839 0.20753014 -0.96646094 -1.2061076 1.6835542 0.7349305 0.149925 1.1451178 -0.57953984 0.47732186 -1.1222129 -0.0142726535 0.9146238 -0.46377817 -0.28379324 1.4967217 0.6757249 0.15308668 0.24912186 -0.8399186 0.51370907 0.39164072 -0.41692153 0.96390367 0.14385134 0.3500383 0.74498165 -0.27301654 1.3512461 -1.4238224 0.032532617 0.0808244 0.8901745 0.7290806 -0.5159099 0.6282688 -0.38502774 0.115601815 -0.9097669 0.008991192 -0.34937102 -0.24162656 -0.4297886
رستگارانند 0.029696912 0.833243 0.022340422 1.0784247 -0.10386902 0.4187318 0.103117935 -0.5663335 -0.6936032 -0.06948813 0.52844286 0.5276879 -0.0034706453 0.54719585 0.53799635 1.0182079 0.88244575 -0.46469292 0.18492691 1.3037794 0.094700515 -1.1591184 -0.58444625 1.4902874 -0.37243578 0.3056032 0.30084246 0.1893763 0.43810073 0.476132 0.37347943 0.30081102 0.16370201 -1.0992727 0.55808836 0.31595972 0.620623 0.57484704 0.27050135 0.5273546 -1.6364946 -0.6176723 -1.6120393 -1.1304668 1.2738132 0.21101274 1.288682 1.8215884 0.5076558 0.96040046 -0.94560915 0.799864 0.83718807 -0.34260604 -1.5008622 -0.30148014 -0.10967412 -0.6166661 -0.9026965 -1.0120004 -0.053237043 1.1429067 -1.3143284 -0.53817534 -1.1105907 -1.2200017 -0.12692778 -0.8837989 0.59541154 1.1154432 -0.29792413 -0.94025207 0.5377136 0.5825587 -0.71947753 0.11719337 -0.71709126 0.1785674 0.48592803 -0.6658612 -0.06471762 0.10410506 0.041839596 -0.14149955 0.4520996 0.775314 0.32958978 0.6501304 -0.021284206 0.9838423 -0.10143062 -1.1771532 1.105283 0.6943648 0.01686888 -0.008501643 0.13658957 -1.2043424 0.8032042 0.92708725
حقیقت -0.40508032 0.48861948 1.5475075 0.12345823 -0.25909123 0.75617766 0.1434534 -0.29320803 0.24816547 -0.23424216 -0.7846779 0.2279679 -0.8745136 1.2869744 0.42453933 0.504098 -0.35938442 -0.3740993 0.7585155 -0.6824296 -1.2136639 -0.56970024 0.08288827 0.5046428 0.64342976 -0.12997204 0.6766671 0.803933 0.3916894 -0.04277263 0.41030008 -0.85151505 -0.39391932 -0.9010957 -0.17009844 -0.23352113 0.25789502 0.4802278 0.59830946 1.358198 -0.33358428 0.60252124 -0.37986618 0.64304876 1.3980255 0.29931736 1.4148967 -0.7169709 0.20038274 -0.31512606 -0.5811405 -0.6639833 -0.53918564 -1.4226458 0.50239074 -0.47560006 -0.6251651 0.754493 -0.6296288 -2.167872 0.4153726 1.2229655 -0.025448775 -0.36754376 0.88102597 -0.61883837 0.40183568 -0.4362242 -0.032494307 -0.68789065 0.217637 0.080560505 0.35622454 0.98485225 -0.30566028 -0.27010173 -0.4748636 0.34624043 -0.06042514 -0.058331586 -0.2215033 -0.2869152 -0.36503583 -0.1584782 0.58941257 -0.20982155 -0.6802636 0.43206432 0.0031944478 -0.31283826 -0.3531281 0.2859422 0.02997933 -0.38764042 -0.10256748 0.12980266 -1.4238313 -0.13072158 0.40949777 0.13950022
کسانی -0.121091336 0.5821163 -0.2793562 0.3093887 0.08880708 0.71220607 0.019141406 -0.20584463 0.35488388 0.5286469 -0.21635473 -0.85824525 -0.21109854 0.51325536 0.08266245 0.2880016 0.2311661 -0.6806606 -0.23864287 0.4089426 -0.21238297 0.24725628 0.36794892 0.22585799 -1.1659454 0.12605843 -0.19191805 0.1033474 0.36985984 1.0194882 -0.292544 0.29121426 -0.14575197 -0.4317117 0.2757691 -0.18267404 -0.34624678 0.24971233 0.18961611 -4.1997388e-05 -0.7209825 0.48485556 -0.04240554 0.4174668 0.6362505 0.7910351 0.32838184 -0.025852371 0.5264399 0.14810745 -0.7922993 0.31063086 0.4040791 -0.4420297 0.34594804 -0.2234236 0.20537409 -0.27998433 -0.4027135 -0.40673858 -0.5803429 0.40720847 0.3925925 0.19342834 0.58957785 -1.0504736 -0.115787864 -0.0700195 -0.3456305 -0.8426305 -0.433292 -0.499128 1.5655061 -0.6593286 -0.72345024 0.6890795 0.3637701 0.50127256 -0.11220301 0.84455377 0.0908107 0.48352262 0.42928037 -0.17433059 -0.14206888 -0.35184187 -0.5346557 0.45331421 0.24914715 0.4666197 0.101761356 -1.0078195 0.7637033 0.3404674 -0.5464386 0.54690754 -0.23099333 0.10586227 0.15839933 0.47767746
کفر -0.26155978 0.3619914 -1.0092007 -0.79148257 -0.8181008 1.3572477 0.056403875 -1.4636453 -1.0485938 -0.4253773 -0.22336385 1.5889031 -0.44847593 -0.047680277 0.49001983 0.39374143 0.46906152 -0.7895424 0.22455029 0.9390635 -0.32205695 -0.10064808 0.67726105 0.102723315 0.13470313 -1.1617584 0.36137038 -0.96941274 0.774401 0.16705324 -0.68126494 -0.74643797 0.1172768 -0.7374517 0.73515517 1.6545669 -0.81643397 0.95636064 0.46578184 -0.050557468 -0.79261804 -0.70939505 -0.48939756 0.041896712 1.5928001 0.3132923 0.24855079 -0.35717687 -0.93860286 1.7935947 -0.6442757 0.55453146 0.06935955 -0.4925841 -0.9894366 -0.21785283 -0.5226548 -0.511057 -0.4665546 -0.03060088 0.7840006 0.3797303 0.4009239 -0.3386828 0.58735764 -1.796131 -0.88516843 -0.6059197 -0.82153106 -0.56668085 0.64729047 -0.7299581 -0.8549579 -0.36917377 0.50482273 0.25885126 -0.06490919 0.34804028 -0.02245694 0.13978288 0.35403848 0.098909035 0.5164565 -0.7981762 0.11642621 -0.8200448 0.89750516 -1.3177056 1.269249 1.2219712 0.05801784 -0.7135776 1.3789003 -0.75589406 0.012469937 -0.4545213 -0.36480477 -0.41765308 0.36652324 -0.06879946
ورزیدند -0.36682853 -0.25953394 -1.4348783 0.49292833 -0.6650737 -0.056984086 -0.1064869 0.005975531 -0.58530736 -0.7496929 0.6009924 -0.085788 -0.39836982 -0.9837819 -0.3425697 1.4187222 -0.85419095 0.0018513597 0.7197224 0.7453791 -0.14624567 -1.6208079 0.60656303 0.5571839 0.0018784249 -0.06455995 1.8740017 0.5896139 -0.47373766 -0.07029848 0.23363057 -0.63477683 -0.26838875 -1.4741216 -0.2219027 0.7762475 0.2427979 1.7565627 0.82324076 -0.31922206 -0.15311188 0.33399177 -0.97831184 1.4598811 0.39736268 -0.6510251 0.6288516 0.23813011 -0.7077472 1.0208342 0.3791456 -0.42295986 0.6423455 -0.6538484 0.27630216 0.31476337 -1.1872663 -1.838616 -1.0961003 -1.2874886 0.14756209 -0.4115673 -0.40753075 -0.44843847 0.5492912 -1.7164345 1.2785441 -1.2271045 -0.49014723 0.3141811 -0.13120008 0.5434366 0.040040355 -0.11411214 1.9708748 0.82975453 0.02498814 0.10992082 0.27230293 -0.5046195 -0.6653769 -1.0872488 0.8887539 -0.7759248 -0.013343827 -0.94852895 -0.7224779 -0.5072831 -1.0206145 0.5571325 -0.74546486 -2.4512072 0.38542485 0.44036177 -0.22630715 -0.4035776 0.09823348 -0.2798188 -0.56498456 0.9268879
چه 0.27473104 -0.40348485 -0.12955728 0.11041556 -0.409984 0.7690486 -0.49622074 -0.0784393 0.6314094 -0.1708464 -1.0370194 -0.7067525 0.21354753 0.12255128 0.019038968 0.6697871 -0.25405282 -0.25740558 0.66853523 -0.5365398 0.09139994 0.15565746 -0.30303788 -0.24839295 -0.56328374 -0.959745 1.0887909 1.2514398 0.26694375 -0.007054287 -0.4780074 0.7029296 -0.9616217 -0.08204908 -1.4654645 0.36886844 0.13706912 0.41446564 0.092366815 -0.23610564 -0.46402085 0.368451 -0.64740354 0.5635523 1.4714555 -0.53128606 0.3498815 -0.05348347 -0.081595704 -0.4552959 0.34650424 0.59130657 -0.1297237 0.5637074 -0.43719807 0.47048193 0.30119354 -0.14091943 0.5254915 0.4915481 1.0792695 0.09221368 0.045370292 -0.04292459 0.16562638 -0.73776805 0.46710825 -0.40458134 -1.0699505 -0.18150014 -0.085113935 -0.029605065 -0.08770779 0.28764707 -0.9444946 0.33491674 1.30819 -0.99257994 -0.34148392 -0.08869043 0.7964052 -1.5952648 -0.6286879 0.17282557 0.52878964 1.0942634 0.2341231 0.036221363 -1.2903925 0.7790658 -0.05438626 0.7434677 0.3716679 -0.7063185 -0.44392085 -0.30404225 0.55202687 -1.0350076 0.25055566 -0.4358992
بیمشان 0.5917339 -0.3701255 -0.67160755 0.5919191 -0.4123302 0.5433042 0.2942541 -0.35088307 1.0853229 -0.5953632 -0.35845956 0.09201058 0.061244223 0.1413503 0.18353906 1.7315003 -0.21559423 -0.46192583 0.79259825 0.24799578 -0.8409906 -0.16561946 0.278247 -0.076463126 0.84267336 -1.3205799 0.3618658 0.9148488 -0.98675483 0.41983572 0.3113977 0.83774275 -0.37838367 0.595911 0.2229087 0.2367412 -0.029067425 0.018367909 1.256701 0.5144185 -0.66701484 0.3657761 -0.58487415 0.93479925 0.36997753 0.15504867 0.12573685 -1.1009189 0.43314064 1.1137906 -0.83275217 0.46820185 -0.31844997 -1.2250193 -0.6520679 0.21944211 -0.84903073 0.4402338 0.6259225 0.88710433 0.38286442 -0.60753125 -0.49587753 0.33545637 -0.34058258 -0.6353698 0.7162875 0.25188488 -0.013406108 -1.2745626 -0.8464274 -0.22596076 0.97920346 -0.1877516 -0.42262143 0.017841885 -0.19610547 -0.5591556 0.63695735 0.078114204 1.0291071 -0.4108183 0.7794878 0.15981491 -0.7564215 -0.3105089 1.073068 1.120682 -1.3606638 0.24340051 0.42217696 -0.040405985 1.6283503 0.25526336 -0.47345704 0.1729793 0.6849751 -0.49068946 0.20002203 -0.28657293
دهی 1.8839011 1.5368592 0.34799346 0.19988973 -0.19353533 0.20954482 -0.6884807 -0.32097137 0.21300234 0.43967852 0.26251596 -0.62116396 -0.2658653 1.0038226 0.26798612 1.2273306 -0.18554592 -0.5377051 -0.32434124 0.016870884 0.657688 -1.3826249 -1.5559068 -0.552592 0.04427409 -0.84769213 2.3158214 1.4710926 -1.6880368 -1.4138166 0.2623002 1.8530056 0.09333758 -0.95871323 -0.16363002 1.0596414 0.26796705 -0.5581357 0.8802294 0.39680484 -0.50946176 0.70545125 -1.2720121 -0.81844527 0.006600075 -0.60031706 0.3278277 0.86994046 0.4897211 0.30710572 -0.082193755 0.96853787 -0.33642015 -1.5347518 -0.51693785 0.51557577 -0.60338014 0.269018 -0.48090217 0.47316095 1.4161692 -0.6355802 2.093927 -0.085085034 1.4882038 0.75592786 0.573207 0.9728536 0.7813408 -0.14069252 -1.54854 -0.46230662 0.94712377 0.5916011 0.34119856 -0.75795645 -1.1301765 -1.926899 -0.74347174 -0.9002285 1.4652678 -0.53555846 0.96107006 -0.22480738 -0.16540383 0.06963055 0.013655748 0.2806416 -0.07166564 1.7492745 0.13518584 0.06401628 1.0420818 -0.15662701 0.30990165 -1.2214963 -0.7211273 -0.028149545 -0.035028767 0.78771955
یکسان -0.4748744 0.5235887 -1.8421156 -0.04623489 -0.06978803 -1.3355653 -0.48907438 0.33422258 1.1524094 -0.6336891 0.024988702 0.8270723 -0.6895843 1.2890278 0.39188847 1.4774437 0.07918064 0.12438149 -0.035201076 -0.16607027 -1.9689561 -1.3999817 0.035362888 1.5407624 0.14843127 -1.9147348 0.595477 0.20093048 -0.59205216 2.1672728 0.8033468 1.0698612 0.24265112 -0.44411612 -0.63382554 1.1586093 0.14706868 -1.3964332 0.6243011 -0.18323766 -0.39773008 0.8242676 0.32927382 -1.896434 1.783453 1.3105764 0.41448975 0.021414664 -1.7112805 2.2086844 0.78309953 2.5159237 -0.4727908 -0.04654864 -1.1540648 0.53698236 0.9068237 0.27944833 0.12605193 0.8474283 -0.5114177 1.0399172 0.53743404 0.5932285 0.049659565 1.0716488 -0.036705956 -0.42912018 -1.4026624 -0.59698826 0.71907556 -0.9866025 0.9554473 -1.2213326 -1.292848 0.045182418 -0.35306373 0.10760585 -0.94856524 -0.14797205 -0.63325727 -0.958314 1.0924021 -0.0669528 1.3697507 0.19415258 -0.1666496 -1.2792796 -0.19818301 1.7691879 0.8553693 -0.41528493 1.0815014 1.8746924 -0.43966228 -0.36433578 -0.6655754 -0.11434917 0.50910777 -0.18917623
آن‌ها -0.37550887 0.5804279 -0.8045843 -0.19193776 0.10187996 0.25886437 -0.52248526 -0.29124868 0.6729999 0.54256606 -0.013157332 -0.13704479 -0.5965216 0.06054541 0.09787105 1.1149789 -0.39156514 -0.6850099 -0.3041413 -0.025917487 -0.48670468 0.24990422 0.54125893 0.9635105 0.026495533 -0.26174295 0.6300791 -0.16931663 0.7528889 -0.974076 0.0512858 -0.07358523 0.4003358 -0.004378038 -0.34449875 -0.09236513 -0.5765499 0.002805684 -0.028612314 -0.6260442 -0.36065742 1.4529116 0.7126573 0.5123603 0.23902293 0.7410615 0.5865101 -0.75432307 0.028823666 0.42216066 -0.24239452 -0.19685353 1.002195 0.18448421 -0.34843704 0.116173476 0.24487697 -0.01864163 0.27756143 -0.48448768 0.24119265 -0.2865009 -0.2162994 0.34114677 0.12905528 -0.29957378 -0.26483276 -1.0361252 0.75980127 -0.67538464 0.11592023 -0.20777982 -0.45086938 -0.56030005 0.27068764 -0.17863084 -0.51354986 -0.1152084 0.21056527 0.7359474 -0.34580582 0.07771313 -0.25765783 -0.7414467 0.3454068 -0.47678882 -0.67349446 -0.47370207 -0.3372101 0.35915267 -0.50054175 -0.04104818 0.40349522 -0.5307091 0.61801267 -0.4736449 -0.32657173 -0.4274002 -0.47045645 -0.2078713
نخواهند_گروید 0.51565367 0.10097609 -0.8888307 0.58551204 -0.46400857 0.040218998 -0.3965094 0.117763035 0.1357576 0.14151204 0.18504967 -1.2755697 -0.34178975 -0.90632176 -0.7733236 0.563006 -0.4087003 -0.19407536 1.0871865 0.07768645 -1.1125294 -0.48388183 0.2828278 1.8395694 -0.33820403 -0.6527309 0.79069483 0.6363672 0.99536216 0.37025172 1.2330706 -0.15376118 -0.13197927 -0.3630937 -0.2821653 0.6295561 0.4021259 0.39112952 0.52650034 -0.4165082 -0.19684711 -1.0236251 -0.63059413 0.10884085 0.12610304 0.2541467 -0.22302994 -0.826353 0.483733 1.0831336 -0.70095766 0.6710633 0.31237292 -0.425218 -0.98424584 0.5836375 -0.81423193 -0.9385775 -0.018344572 -0.5341003 -0.37327677 0.1549554 -0.37626258 -0.025381565 1.1478488 -0.173884 -0.00660883 -0.7249933 0.854369 -0.4744886 -0.9052525 0.1323419 -0.5122143 -0.20149617 1.2431533 -0.73718494 -0.06381893 0.32714325 0.41713545 -0.6232656 -0.8468662 -0.4989096 -0.04386633 -0.8246407 0.4526916 -0.1900305 -0.7929382 -0.120300226 -1.0104215 0.39447027 -0.71580905 0.12996522 2.3286564 0.15019497 0.58682966 -1.0702746 -0.6743343 -1.3631943 0.5020957 -0.0059458553
دل‌های -0.89522064 1.0179449 -1.2862967 -0.1511895 -0.1270732 1.5209916 -0.3453247 -0.91581833 -0.009239498 -0.84563434 0.6748942 -1.2310225 -1.4856272 0.043076284 -0.41163415 0.30444816 -0.22301158 -0.6899791 -1.0303707 -0.9554233 -1.9322611 -1.2467558 -0.031064803 -0.47979242 0.30212015 -1.6347108 1.7267631 0.10023838 1.5968717 -1.0733825 1.2139285 -0.18898219 -1.0032411 -0.48012665 0.75014126 0.6757844 0.37489972 0.91552985 0.23355164 1.8712476 -0.48406944 0.7455594 -0.8435429 0.25326547 0.5280751 0.56628853 0.93340147 0.48388883 -0.43672615 0.3414763 1.5057812 -0.0034805061 0.56790185 -1.6319046 0.42349187 0.02957402 -0.7359617 -0.7381159 -0.9680546 -1.1979673 -0.7436302 1.0719987 -0.89130634 0.53123635 0.22171907 -0.060438957 -1.4195803 -0.31762445 -0.32549194 -0.9087211 -0.00487892 -2.765652 0.9069341 -0.053413656 -0.4086692 0.531457 0.90900904 0.10610781 0.91969603 0.28061718 -0.43339926 -0.22931373 -0.6883074 -0.57694536 0.15644786 0.43322313 -1.4567393 0.5189347 -0.3764423 0.17864925 -0.85948795 -0.5590283 1.2538561 0.061258566 -0.8244134 -1.3047992 -0.95630527 0.6148625 -0.5056573 -1.2005417
شنوایی 0.5757553 -0.738814 -1.8876977 0.075578734 0.26869094 0.44800463 -1.0004852 -0.73891973 0.7059384 -0.055544794 -0.13030423 -1.0396898 -0.3214042 0.8909148 -0.14770597 0.7930557 -0.51812655 -1.2963312 -0.2693658 0.8891031 -1.2054396 -1.523961 0.67425203 1.5977681 0.090462506 0.015743995 1.0200386 1.1250187 0.103815936 0.34274194 -0.7509679 -0.35143793 -0.4611476 -0.6653066 -1.132333 0.39668396 0.19287503 -0.62195575 1.6365889 0.41254866 -1.060848 1.2081039 1.0492092 0.75755656 0.81396914 -0.04669752 0.9891916 0.35212368 -0.30726954 0.120841034 0.20341884 0.64998496 1.9921887 -0.13927361 -0.09863913 2.2370677 -0.2255153 -0.19751558 0.05671857 -2.1005864 0.16406113 -0.4970222 0.28999108 0.49939984 1.1741477 0.16282824 -0.1398316 0.20399013 0.2316886 -0.68990916 -0.3788091 -0.7913803 -0.5479148 0.6715212 0.08119852 0.23138681 0.9694721 -0.35309803 0.25479668 0.71868104 0.6090896 -0.5177142 -0.65985644 0.51814365 0.0981165 -0.39770842 -0.9171721 0.5162382 -0.27440715 -0.57091814 0.2588037 -0.11152244 0.9483583 -0.32853818 -0.93129575 -0.42722437 -0.17858608 -0.77806485 -0.02590171 -0.28445667
مهر -0.4097535 0.4593927 -0.5615211 0.705676 -1.4276795 0.360334 -0.39352992 -1.674325 -0.82435584 -0.41153106 -1.2529985 0.6295123 -0.503147 0.09944957 -2.0575023 -0.23556164 -0.14333281 -1.1617647 -0.0500553 0.2148463 -1.6298461 -0.38337165 0.90215504 1.8104181 -1.4018673 -0.013877008 0.57841307 -1.0023302 0.16689506 0.3835373 -1.0821068 1.3127577 0.23758976 1.1737937 2.338682 0.27894896 0.038155228 -0.2694093 2.472284 0.33013088 0.13538273 -0.5008586 -0.961039 0.086408 1.9624434 0.7588918 0.34393924 -0.8177642 0.61292183 0.41208348 -0.25656438 0.85051304 0.6644623 -0.62224734 -0.5202044 0.56580484 -0.42883837 -0.11593429 -2.126433 0.09079562 1.8026096 -0.88298494 -1.435073 -0.711615 0.030010978 -0.5089887 1.434288 -0.8126457 0.39635393 -0.045000512 -1.5641346 -1.8500812 -1.5099279 0.4205427 -0.08534895 -0.21305734 0.6730834 1.2048466 -0.20180173 -0.29853964 1.282271 -0.39397123 0.55200464 -0.27102327 1.3667709 1.4133477 0.7972684 1.3939284 -1.7105051 1.3745874 0.89035124 -1.5966294 -0.1621278 0.18081047 0.28908983 -0.53397864 -0.19499373 -0.3523208 -2.1430109 0.36258635
نهاده 0.07117545 0.51118606 0.41419235 1.3704486 -1.6114931 0.59018856 -0.6150315 -0.34411037 1.1002573 -0.44352266 -1.0794173 -0.9813205 0.54800415 0.566612 -1.6463178 0.060285863 -0.69689906 -1.8264388 0.33019885 0.5358724 -1.4663999 -1.4421663 1.3939693 1.4260827 0.4569703 -1.2548776 1.2742517 0.08338028 -0.7106037 -0.33876726 -0.668314 -0.16601275 -1.3125992 -0.46285233 0.17987342 0.82327986 0.32924736 0.1393633 0.9265261 0.94309586 -0.32724464 0.8036569 -1.0963639 -0.50110763 -0.5796467 1.9375819 0.92291504 -1.6061039 0.052016936 0.80045843 0.91568166 0.75148207 -0.2799853 -0.9163906 0.7427297 1.6251184 0.73762053 0.20462291 -1.3417286 -0.5085814 0.7924495 -0.3945233 -0.89676625 0.8067855 -0.032804612 0.3290454 -1.2773538 -1.13377 0.18620904 -1.8234531 0.41628182 -0.7237132 -0.05016972 -0.9178482 -0.091195896 -1.4044695 -1.0554646 -1.3301039 0.53193676 -1.9179616 0.9539084 -1.8614079 0.17769265 -1.3209172 0.79553837 1.0883257 -1.5243214 0.39140904 0.03209323 -0.34161508 -0.39758524 -0.35129178 1.4784019 -0.49519238 0.9541793 -0.38992202 0.52051526 0.62211275 -0.66594845 -0.7085608
دیدگانشان -0.9857618 -0.4427093 -0.2703722 2.0992372 -0.9629618 0.2252135 0.6030803 -0.4840178 0.4374309 -1.3110801 -0.959596 -1.0978187 0.6833958 -0.0562975 0.13692315 -0.17457435 -0.8459767 -1.5427139 0.85782725 0.7013616 0.72239786 -1.1044331 -0.36081854 1.0275413 0.34120932 -0.6347899 0.33811128 0.2663745 0.8384594 -1.203455 -0.5031697 0.75747937 0.20734899 1.3474631 0.74086934 0.6501751 -1.0676336 -1.3101426 1.9714807 0.06727956 -0.048926014 0.55979574 0.4346244 -0.48174924 1.3111235 0.83642864 0.33060834 -0.4026263 -0.3676697 1.3695488 -0.29556668 -0.5297255 -0.058871087 -1.1771824 0.2590967 -0.5884514 -1.4240133 -0.1916623 -0.28630418 0.82954085 0.23401955 -1.1482183 -0.64147794 -0.11582104 -0.85242313 -0.35269517 0.5991349 -1.6860102 0.6044858 -0.8448695 -0.50013065 -0.66503567 0.292655 -0.273493 0.9341848 0.46439102 -0.22213414 0.48495343 1.0951866 0.34999067 0.4670172 1.1310388 1.1058325 -1.0457776 -0.725188 -0.15067738 -1.1060083 -0.061586395 0.5256191 0.040378124 -0.06696242 -0.9375807 1.2344862 -0.58078593 -0.3750878 -0.9970065 -0.07875397 0.4947003 0.24791849 -0.94321805
پرده‌ای -0.14834979 0.32870623 -0.25819206 1.5581851 -0.876416 -0.7192367 0.3441645 -0.6296041 -0.3367736 -0.7762618 -0.8101483 -0.5813193 0.108265445 -0.67925406 -1.0704504 0.68281347 0.43516862 -1.8250319 -0.72511214 0.390968 -1.0791558 -2.4504147 1.1536505 0.41915563 1.247219 -1.0797541 -0.07478094 0.33347672 -0.47917297 0.2988533 -0.81243634 -0.28788602 -1.2032027 -0.13988408 0.35601532 1.0649396 0.6381228 -0.76824445 1.3234301 0.41353384 -0.26640573 0.51632166 0.33904475 -0.12653044 -0.59420466 1.1930201 -0.78330237 1.4966204 -0.033094138 0.6472683 -0.4199338 0.29547948 0.9616714 -1.5063684 -0.8562973 0.7131529 0.7400868 0.4621246 -1.4555624 0.2484099 0.73120224 -1.8624707 1.0067098 0.48757222 -0.23039559 -0.06744747 0.29678696 -1.3178173 0.52951753 -0.15278795 -1.4745677 0.25811675 0.054593716 0.16166942 -0.9887854 0.16414678 -0.8276505 0.0034950897 0.23240092 0.6838233 -0.41739628 0.32561028 0.3715369 -0.5560005 -0.4398829 0.21150935 -1.0227097 0.1380308 -0.09215167 0.55639225 1.0356925 0.73683906 0.5887162 -0.1768053 -0.7300478 -0.92859024 -0.3920094 -0.923128 -1.080758 -0.25115937
عذابی 0.60353214 1.4829122 -1.3423408 0.6996391 0.4982567 0.762443 -0.9461624 -1.3733385 0.5509289 0.2566686 -0.61459535 -0.82054365 -0.52582765 0.5751013 0.3775932 0.45170164 1.1855264 -0.45851687 0.62183124 -0.2725567 -1.2522962 -0.7049321 -0.926521 1.4359635 0.5400252 -1.2392892 -0.1684574 0.27266046 -0.6912323 0.5254979 -0.22130662 -0.16397023 0.36665985 -0.8743035 0.015179199 1.7847764 1.7131999 0.08393521 0.6391574 -0.6041955 -1.1991307 0.58862203 0.95841604 0.77868116 0.6964529 -0.21384336 0.35584643 -0.7012432 0.8576319 -0.07578881 -1.0650207 0.49964094 -1.1540909 -0.83454794 0.3529124 0.022001883 -0.2798485 -0.12229804 0.334441 0.41513464 0.35081577 -0.6279487 1.5757376 -0.3398943 0.11151004 -1.1724869 0.24101382 -0.2992851 -1.5433446 0.10279178 -0.17895803 -0.7214315 -0.11333847 -0.18332818 0.71173793 0.1789381 -0.71752536 -0.1225406 -0.11635382 0.37263077 -0.4434523 1.456299 0.5084773 -1.503443 0.29390174 -0.58496976 0.7757548 -0.13112015 -0.550835 0.5666648 -0.8469393 0.5287237 -0.031038651 -0.20893498 0.65502673 -0.5423135 0.98653644 0.02394696 -0.31070068 0.28075045
دردناک 0.26525757 0.707832 -0.99144506 1.0460502 -0.44734597 1.7931117 -0.730447 -0.2468791 -0.41333756 -0.99615705 -1.2844886 -1.5170945 -0.21489318 0.61742 -0.5821969 0.13456859 0.25264397 -1.1207386 0.82148045 0.22229113 -1.0507829 -0.5431075 0.6328538 2.551372 0.30656713 -1.0826492 0.06476456 0.27520597 -0.21237467 0.3136171 -0.058514398 1.1433058 -0.97726065 0.41730547 -0.55799776 0.6777596 -0.30951563 0.4666353 1.0568793 -0.73160195 -0.09752112 0.16592477 0.039267562 -1.3123044 0.864256 -0.13752249 -0.16117735 1.1010138 0.60150766 1.3218127 -0.5739408 0.66593295 0.6844858 -0.9626099 -0.27710629 -0.0535933 0.17869581 1.797352 -0.23190741 0.35279846 -1.0100678 0.6170171 0.0060675624 -0.59780455 0.2535162 -1.3189319 -0.23610042 0.051429488 -0.01877947 0.5045253 -1.8467016 -0.9007139 0.31683615 0.026928985 0.49230185 1.1159136 -0.5531667 0.16523099 -0.3926023 0.18786184 -0.9143823 -0.26955312 -0.08640627 -1.3878384 -0.5829963 0.62096703 -0.124418706 0.67699033 0.06923067 -0.30600104 -0.6165382 -0.16881055 0.17189564 -0.07064015 0.37485397 -0.2932033 0.54673487 0.27127182 -1.6561714 0.10758418
