به 0.082794756 0.019599052 0.17211333 -0.13290714 -0.1531954 -0.17193384 -0.017975172 0.12168518 -0.004037383 0.026075257 -0.073580146 -0.031863306 0.041612398 -0.21481057 0.013497607 0.01772842 -0.080818616 0.11381912 -0.25732476 0.37706774 0.117918596 -0.2720739 -0.024791129 0.0438938 0.09238889 -0.38683796 0.20897844 -0.038154077 -0.08678756 -0.025319869 0.042261504 0.11681379 -0.12803476 -0.14485095 -0.012986754 -0.16894339 0.215954 0.022592569 0.076905854 0.006752226 0.16650108 0.20508125 -0.17068686 0.15676726 0.30006874 -0.08867639 0.27066043 -0.21327926 -0.20076536 0.43691552 0.15772802 0.18709993 -0.14307296 -0.09853103 -0.0064709214 0.24543336 -0.05350012 0.2530666 0.06710582 -0.09037669 0.015347714 0.036634274 -0.14830147 -0.14148045 -0.06558014 0.07232562 0.059876774 0.07151907 0.02144319 -0.21773086 0.17370723 -0.13774769 -0.1026134 0.16488923 0.18042974 -0.15944517 -0.13077389 -0.08153563 -0.26775962 0.163868 0.2666465 -0.037518565 -0.04452652 -0.4264157 -0.21266638 -0.026284348 0.06726057 0.039715685 0.29457617 -0.14503416 0.0097377775 0.101919286 -0.026683548 -0.16709793 -0.1874198 -0.19497693 0.12280261 0.15969001 0.37288016 0.10461431
نام 0.2837232 -0.7118872 -0.16917205 -0.011769844 -0.47943804 0.10920195 0.095531486 0.081012845 0.5629843 -0.27796245 1.2183412 0.87404126 0.0055678114 -0.4854392 -0.1626465 0.72423834 -0.51205546 0.5248531 -0.810423 0.080025055 -0.90974337 0.24354106 -0.19239055 -0.16127287 0.05631945 -0.39552745 0.78117317 -0.66470367 -1.3579552 0.41703478 -0.68579656 0.5559941 -0.67136204 -0.63478553 -0.083332725 0.23410566 0.55754447 0.6221771 0.33162096 0.3764499 0.58315814 -0.23921758 -0.53212863 -0.61351335 -0.48154336 -0.24120693 -0.5506 0.6149879 0.24361488 0.21583578 -0.39176226 -0.17809907 -0.37140733 -0.7064658 0.83337057 0.7117073 0.77545273 1.4128816 -0.89102703 0.2392149 0.47304347 1.1313863 -0.42585143 0.9034404 -0.58136046 0.51634747 -0.37212786 -0.25192857 0.32845944 -0.9425748 0.67970544 0.12330627 -0.19516769 -0.21044126 -0.732404 -0.29719 0.672507 -0.18520999 -0.14899103 0.87652594 1.0382091 0.47770426 0.36208138 -0.39236858 0.9319695 0.11558023 -0.42066428 -0.56983304 -0.5119221 -0.2533439 0.29686722 0.63730323 -0.080252245 -0.87110233 -0.2184918 -0.013651708 -0.39075458 0.122610435 0.43234822 0.6326698
خداوند -0.3150487 0.11997392 -0.009304647 -0.22326924 -0.07967742 0.4241328 -0.13913545 -0.23640612 -0.008733652 0.09309169 0.276895 -0.5007505 0.40286905 -0.7193421 -0.5013009 -0.004319548 -0.7462688 0.2535088 -0.34874612 0.04052677 -0.07973085 -0.32865924 0.0005136706 0.29309282 0.37325212 -0.7881233 0.45092028 -0.19937798 0.131514 -0.6733203 -0.17892382 0.20196496 -0.34497505 0.13717432 0.20502868 -0.49389774 -0.3527088 0.5933288 0.08044072 -0.34054744 0.238504 0.343843 0.33183682 0.00016511053 -0.3595628 -0.39721924 -0.3208384 0.25456348 0.23520009 0.61960864 0.07186797 -0.33882695 -0.24659085 -0.54862857 -0.016747646 0.3112361 -0.017709056 -0.0795427 0.5196363 -0.059328504 0.17567581 -0.05377684 0.17588815 -0.2193685 -0.22022519 0.16915983 -0.20065513 -0.05024646 0.26828766 -0.3002854 0.18381897 0.29462942 -0.079905234 -0.0031965806 -0.14415967 0.4033768 0.12912586 0.4077389 0.20581953 -0.021795753 0.06387693 -0.11181519 0.7299325 -0.4121906 -0.00088044367 0.23040868 -0.19105068 -0.15623397 0.20100832 -0.2561825 0.4507505 0.21670987 -0.19935177 0.16550735 0.22268708 0.4764667 -0.44832015 0.11053476 0.033132177 -0.10226962
رحمتگر -0.39789107 -0.021289082 -0.08213688 -0.2698928 -0.42987168 -0.15608035 -0.3463544 -0.464538 0.8116365 -0.50597566 0.05879631 0.4734838 0.25112703 -1.5158786 -0.8079784 -0.64321244 0.27568886 0.31290883 -0.6691007 -0.3412179 0.22356193 0.3138646 -0.011788998 1.4174604 0.8042864 -0.9407737 0.53858984 -0.30945554 0.31765586 0.3916544 -0.10203884 0.613637 0.35686028 -0.34988004 -0.1337701 -0.35590348 -0.13188048 0.85757864 0.39708102 -0.63459444 0.5188821 -0.37534955 0.31707424 -0.63979733 -0.9048275 -0.49685463 -0.08724579 0.14136173 -0.31566608 1.3075117 0.65123874 0.16033298 0.22625887 -0.20167314 0.41274488 0.19567612 0.2786694 0.06216557 1.0321207 -0.70071757 -0.17334802 -0.49439994 0.8681699 0.90694046 -0.5366223 0.32872656 -0.60045016 -0.013271232 0.29635864 -0.2967532 1.203089 0.3701283 0.15251698 -0.09929918 0.011615743 -1.1373065 0.89227396 1.0216657 0.3164223 1.0191997 -0.28143477 -0.22441176 0.70651007 -0.73937917 0.29250395 -0.26213312 -0.78401476 0.092231885 0.66620064 0.41732532 0.91987646 0.42302662 -0.012614748 -0.016801795 0.36591262 -0.10926656 -0.89545566 -0.633728 0.4646293 0.61404806
مهربان -0.21023326 1.5848082 0.4951768 -0.078330085 -1.1749201 0.30465704 -0.31449866 -0.45910683 1.394825 -0.6125571 0.48503706 0.48359418 -0.06944218 -1.1819886 0.29905295 -0.37553093 0.58911943 0.6086877 -1.0781149 -0.14362468 0.6067599 0.31130803 -0.24841058 0.596547 0.4069572 -0.5311356 0.09953377 -0.25362262 -0.36266443 -0.124033615 0.47426307 0.22473007 -0.4877335 -0.62783945 0.7348581 -0.4157513 -0.36600882 0.42039397 0.25581616 -0.25750348 0.72512096 -0.81789047 0.30172512 -0.9401772 -1.3327419 -0.59920615 -0.3078535 0.22061588 0.5221376 0.8788696 0.9582597 0.09766395 0.062055692 -0.18365502 -0.3864239 0.16170707 -0.59931725 0.056593217 0.61161417 -0.2989477 -0.43494138 0.1916995 0.36712608 0.2133012 -0.15257809 0.35624588 -0.2138158 -0.077250056 -0.6669647 -0.227577 0.7437207 -0.15180564 0.061157953 -0.016518697 0.05024733 -0.9323851 1.1502535 1.32458 0.33592352 1.0232975 -0.44371375 -0.3457454 -0.700625 -0.4730026 0.17197987 -0.096187815 -0.53035426 0.29717782 0.78415114 -0.14501663 -0.2700744 0.105221435 -0.5975532 0.5888694 0.7016269 0.08897141 0.53645515 0.1691059 0.37619966 0.6774163
ستایش 0.817987 -0.09782051 -0.5970172 -0.15442543 -0.5357834 -1.308692 0.42941642 0.49117345 0.8101221 0.8355895 0.077062145 -0.27080923 -0.31853256 -0.5191209 -0.15908475 -0.7654718 -0.17795561 0.05466669 -0.66375804 -0.4168242 0.24530339 0.15918727 -0.22723222 0.4533574 -0.05086911 -0.92191434 -0.14631248 -0.10148416 -0.0016921784 0.81171286 -0.19767828 0.118310176 -0.8608965 0.16317596 -0.24290116 0.35169533 -0.31851277 0.0883165 -0.88714504 -0.12939204 0.29496655 -0.9119622 -0.25320828 -0.14637662 -1.1109638 -0.42951646 0.67606103 -0.020555215 -0.16270119 -0.59325856 0.6624128 0.8837046 -0.2243849 -0.5756385 -0.035085842 0.28235883 0.9019321 -0.42845586 -0.16690446 -0.14963575 0.09742008 0.0019527902 0.051096473 1.4335741 -0.022647886 0.17697443 0.5297688 -0.47543135 0.111621395 -0.08206078 0.25146824 0.18185659 0.028645674 -0.42675436 -0.07984828 0.32291555 0.16077112 -0.33816034 -0.5395343 1.3902612 0.29042444 0.4096586 -0.7026553 -1.3818514 0.18669249 0.90303856 -0.67714643 -0.38522255 -0.17790243 -0.21726413 0.5359209 0.501557 0.1142674 0.50143576 0.26977876 0.41206867 0.3104212 -0.09616055 -0.8297426 -0.14391232
خدایی -0.471353 -0.31298542 -0.4589318 0.14148037 -0.25987738 0.3261603 -0.5294922 0.5146307 -0.047246516 0.20655657 0.1536484 -0.2038208 0.17915998 0.52890515 -0.028648809 -0.08421314 -0.10730507 0.66877496 -0.5693421 -0.6940814 -1.3174118 -0.05739342 -0.6483533 0.16477808 -0.5350575 -0.13786916 0.18627496 -0.049963806 -0.942483 0.44247666 -0.38151768 -0.2601846 -0.5936091 -0.52033263 -0.46085775 -0.24591364 0.509216 0.7735631 -0.23512734 -0.5920502 0.48719776 -0.35149035 0.5354262 -0.11427981 -1.4180452 -0.5685131 0.14625938 0.35816753 0.13356787 -0.25744212 2.3965089e-05 0.43386456 -0.37808967 -0.72435236 0.4662637 0.04927118 1.1261036 0.065573946 0.11417938 -0.34370837 0.051402807 -0.05526527 0.21959949 0.60425746 0.17383415 -0.5733445 -0.68279153 -0.29463342 0.091854915 0.6006209 0.3147521 0.05121536 -0.11856718 0.30592775 -0.53414994 -0.040189397 1.3804194 -0.5493296 0.35608256 0.49337155 -0.31807494 -0.4538982 -0.7635164 -1.5781593 -0.0038698448 -0.1880631 -0.26439226 -0.03177483 0.6775826 -0.5783859 0.55207235 0.74563223 -0.24795306 0.51111996 -0.41820994 -0.76338196 -0.11828241 0.4882343 0.6752577 0.2281094
را 0.035310768 -0.0814691 0.15709904 -0.06016104 -0.018521236 0.044972796 -0.024074746 0.16179158 -0.054573026 0.010416191 0.15364379 -0.10752771 0.04555282 0.21168144 -0.13859266 0.036130544 -0.21855491 0.13394769 -0.28334492 0.07211329 -0.14029239 -0.3557768 0.13078195 -0.21015546 0.09649661 0.008848906 0.010692603 0.2892682 0.25440523 -0.0084873475 -0.15587068 -0.06683435 -0.13194212 -0.2694368 0.24576227 -0.12661426 -0.045719758 -0.039006047 -0.123221 -0.18185945 0.08652178 0.04464705 -0.106179774 0.05963092 -0.09512237 -0.043774758 -0.14600636 0.017786205 0.02198492 0.36250442 0.17652878 -0.0039877947 -0.15722474 -0.019305311 -0.20256561 0.15252447 0.088781774 0.22052614 0.054720886 0.0936253 0.010900673 -0.10453143 0.04190035 -0.04630022 0.053241372 0.21888737 -0.15930447 0.06587512 -0.22927582 -0.09613365 0.07317506 0.025811005 -0.07625623 0.0144261755 0.017455053 0.058190446 -0.016624158 -0.096531145 -0.121574014 0.54138464 0.06646655 0.086679675 0.11311491 -0.17901178 -0.2881568 -0.05600623 -0.10963526 -0.2516491 0.2885244 -0.17919572 0.04713369 0.13133429 0.16654906 -0.058487672 -0.11321627 0.20023216 0.22788723 0.083137855 0.36217958 -0.2052428
که 0.08368625 -0.1412748 -0.009014407 0.06317338 -0.2723981 -0.11907531 0.04168806 0.14268704 0.22248624 0.09008481 0.13829616 -0.027664619 -0.07476201 -0.07465777 -0.19066061 -0.10845804 0.14123744 -0.054831106 -0.20950267 0.11329056 -0.1399521 -0.3018547 0.20884688 0.029942116 -0.13331571 -0.13195021 -0.029174507 0.038372733 -0.030391656 0.025355022 0.09194723 0.061096728 -0.0067597236 -0.13091308 -0.021107417 -0.09323014 -0.21822153 -0.035434753 0.18486737 0.04402962 -0.07511903 0.3393868 0.151581 -0.11312632 -0.3892426 -0.37101337 -0.18265946 0.027970646 0.28877014 0.4426708 0.24918121 0.0106613645 -0.087470844 -0.12748058 -0.3380592 0.21467139 -0.11782125 0.076097205 -0.033283602 -0.06884917 -0.005690122 0.05647038 0.09169327 -0.16609155 -0.19406572 -0.063244246 0.22752126 -0.17346753 0.1088601 -0.04905723 0.16373566 0.0063399062 -0.005423634 0.20825186 0.054752134 0.085649505 -0.07141909 0.06734068 -0.06713717 0.07277379 0.1386069 0.011679918 -0.0976072 -0.20646733 -0.24704273 -0.14559136 -0.35773632 -0.175888 0.06840756 -0.2097179 0.056225214 0.103068165 -0.05552164 0.018016215 -0.23558441 -0.018833384 -0.20150992 -0.09241138 -0.032538258 -0.11028462
پروردگار -0.19014013 -0.08501388 0.41205442 -0.586374 -0.05228246 -0.24213365 -0.20110689 -0.34510985 0.35736677 0.07181542 -0.27367225 0.11719013 0.09654163 -0.67211795 0.18597312 -0.84460926 -0.33629566 0.58474267 -0.55532193 -0.13420402 -0.25637078 -0.016982244 0.27454785 0.8906991 -0.49493197 -0.61922127 -0.08683672 -0.3213102 0.25334325 -0.36911133 -0.05932887 0.09543943 -0.29551378 -0.16633488 0.7665336 -0.19663215 0.05807882 0.53193754 0.0004964845 -0.26127267 -0.02285876 -0.23518713 0.05896531 0.04603661 -0.36489043 -0.26918432 0.38593245 0.23630576 0.11431085 0.44310057 0.05211306 -0.10697982 -0.13178712 -0.30302432 -0.29502812 0.33581647 -0.0055659628 0.15537773 0.61089754 -0.2878024 0.17420755 -0.15379193 -0.2233244 0.62541634 0.15379465 0.35480502 0.13636379 -0.42253405 0.06265715 -0.32472894 -0.06897786 -0.13394251 0.5087244 0.12931912 -0.5916309 -0.040264934 0.2491003 0.3548915 -0.27068266 0.5471006 -0.102588326 -0.030045819 -0.18365964 -0.46771488 0.37090147 0.11302415 -0.64639765 -0.2861481 -0.27830032 -0.052664127 0.054093458 0.22021887 -1.0232762 0.18987896 -0.33508945 -0.25064287 0.08057069 0.60902154 -0.15932088 0.43225917
جهانیان -0.40371513 -0.55087936 -0.3400898 0.053860575 0.20576078 0.4336421 -0.31818506 -0.116103284 -0.14521673 -0.22251883 0.6357311 -0.0031798775 0.79685646 -0.25115955 0.48263317 -0.26684272 -0.32128227 0.093821585 -0.36800233 -0.5690246 0.24506266 -0.45773357 0.72288454 1.061264 0.17309836 -0.5439147 -0.18480298 -0.861476 0.041365996 -0.17074715 -0.29297313 0.22871312 0.5719827 0.315617 -0.28564104 -0.43782046 0.77580565 0.9798921 -0.9330058 -0.027380334 0.8811623 -0.20382626 0.1734822 0.8257097 -1.0314286 -0.22014984 -0.045323655 0.50529295 -0.08252474 -0.5229851 -0.057770636 -0.16280074 -0.28511584 -0.52610713 0.39173558 0.62383807 -0.54347456 0.107129365 0.5001707 0.8442023 -0.6693791 0.411586 -0.5437517 1.3294661 -0.14612888 0.35594863 -0.5810621 -0.26447532 0.2799283 -0.8132374 0.22090557 -0.1164705 -0.21564639 -0.102063686 -0.39316723 1.0169127 0.5707084 0.7156377 0.3272097 0.76361376 -0.24561904 0.46328348 -0.7359365 -0.6898114 0.9879155 0.28424367 -0.64745337 -0.5198762 0.54964733 -0.6494951 0.25883394 0.8302378 -0.24297234 0.18351121 -0.4676865 0.8826666 0.0156185655 0.16603155 -0.13211785 0.5327388
، 0.02395787 0.087739505 -0.12035007 -0.09334446 -0.111132026 0.015834648 0.012762294 -0.06758037 -0.009459905 -0.032771293 0.15827222 0.029529702 -0.026188621 -0.13490987 -0.07867848 0.024851972 -0.011718219 0.04282413 -0.12389675 -0.06124572 0.10766571 -0.24105814 0.19686753 0.12149359 0.29164144 -0.20935793 -0.15938032 0.15107465 -0.07694551 -0.002359546 -0.19518013 -0.015142896 -0.1433762 -0.011128455 0.085162856 0.0026168593 -0.16771716 0.0009871692 0.10551427 0.0029394715 0.0073537086 0.07041366 0.18842828 0.275504 -0.16203122 -0.09033813 -0.050297577 -0.2768622 0.15267172 0.46264955 0.011957435 -0.05600405 -0.08824928 -0.081914395 -0.21471207 0.08682306 0.05925657 0.27862787 0.22712974 0.037661217 -0.048934046 0.11042787 -0.07031466 0.08370205 -0.049653135 -0.13932908 0.22136065 -0.23729788 -0.0106030805 0.045362607 0.14407638 0.033499993 -0.007178319 -0.06707188 -0.015372645 0.044681184 -0.0039061054 -0.023165021 -0.038557366 0.17954339 0.20162334 -0.1366719 0.21133871 -0.3021227 -0.25685796 -0.072475456 -0.0792303 -0.014813362 0.29425052 0.025151407 0.03297711 -0.025233397 0.27922273 -0.10176316 -0.029819472 -0.2160725 -0.04146886 -0.0681211 0.17317653 -0.07786914
و 0.16933109 0.08629967 -0.1265588 -0.14231174 0.05107533 0.17184313 -0.08061071 -0.11537335 -0.05025519 0.10938098 0.38250703 -0.12211719 -0.07177546 -0.08630601 -0.071006864 0.11133098 -0.0018926576 0.04555047 -0.09887342 0.116053276 -0.044594057 -0.1902347 0.23747754 0.17404501 0.098953344 -0.16050477 0.043526046 -0.06629561 -0.08391482 0.12330495 -0.15217116 -0.008971539 -0.07985457 -0.021718632 0.037708826 -0.003685007 -0.21499726 0.08062663 0.050172623 -0.27694422 0.13898331 -0.05665206 -0.067562826 0.3434963 -0.07229478 0.06362011 -0.18832056 -0.37067804 0.02476842 0.5383233 -0.0059475885 -0.043452445 -0.06880533 -0.11295895 -0.24990682 0.23940189 0.16625687 0.16296801 0.07079123 -0.07027358 0.109312065 0.25257614 0.005543415 0.010253312 0.024406573 -0.25008968 0.07428553 -0.015247006 0.16907156 -0.054214355 0.10471826 0.08759441 -0.115483746 -0.06029436 0.12254883 -0.13931857 -0.22418283 -0.10907473 0.0041133845 0.27186644 0.064355664 0.007275723 -0.030196179 -0.050765004 -0.087978624 0.072930716 -0.24674475 -0.18044165 0.30443808 -0.0093249185 0.031387758 0.10554532 -0.011046063 -0.22355178 -0.19713648 -0.14728712 0.11157394 0.075125985 0.25882712 0.013934014
روز 0.21578887 0.03966152 -0.06711837 -0.061869286 -0.61683184 -0.43809918 -0.5288807 0.064043514 -0.14080569 0.16081923 -0.24999398 -0.20728096 -0.35709995 0.045902 0.033266883 0.4508453 -0.7927701 0.25655437 -0.53301513 0.31209457 0.263665 0.5064559 0.54858756 -0.4188555 0.22594166 -0.2325535 -0.51655054 0.0059796306 -0.5110722 -0.06842138 -0.75053704 -0.35702714 -0.0023647984 -0.112050965 -0.12748927 -0.22574048 0.016069192 -0.090631716 0.2494135 0.018718643 0.15852675 -0.31677622 0.37089133 0.2857723 -0.8632957 0.08756732 0.07437087 -0.05292844 -0.13252324 0.14441705 0.38730046 -0.2558653 0.39924368 0.023862464 -0.19924034 0.3147312 -0.09665246 0.54301566 -0.5376262 -0.03908921 0.084264085 0.06598502 -0.37861684 -0.1450127 -0.78312755 0.34299693 -0.48888516 -0.32458347 0.756167 -0.079829335 0.9311512 -0.80677027 0.09971225 -0.04388795 0.40513605 -0.13398471 -0.40072873 -0.03845793 -0.036639165 0.24141607 -0.025927486 -0.2628206 0.042357486 0.28378424 0.13643953 -0.1121621 0.17103134 -0.2225762 -0.09999377 0.4903353 0.0658117 0.35775387 0.37724406 -0.059090633 -0.5070465 0.142736 0.6774091 -0.560813 -0.124470904 0.21296835
. 0.06308847 0.14140712 -0.07054385 -0.006280271 -0.029602043 0.3661667 -0.027753118 0.056616955 0.21130417 -0.064325795 0.386896 -0.024766842 0.45426485 -0.047880545 -0.14370182 -0.08804909 -0.06228752 -0.045793265 -0.40168333 0.042459253 0.08325468 -0.120761 0.26525247 0.3516063 0.29633996 -0.10636926 0.45930544 0.021549203 0.029819459 0.16539136 0.108494796 0.14701176 -0.108282186 -0.030511292 -0.28685185 -0.18058164 0.15539539 -0.098776236 -0.24742697 -0.12611689 -0.044192173 -0.11488495 0.24586245 0.1920009 -0.16307375 -0.021088267 -0.15899923 0.041169494 0.10912694 0.26719218 0.12709087 0.1627666 -0.021359393 0.11915553 0.06942877 0.36764416 0.22140805 -0.010090175 0.15219241 -0.33883822 -0.19238964 0.16630086 0.18465021 0.29495025 -0.24220438 -0.04136987 0.07102746 0.12268836 0.27943996 -0.13213085 0.3813286 -0.042267945 0.17227688 -0.09790712 0.005370539 0.13256311 0.05385281 0.2817356 -0.14609976 0.46409023 -0.10329695 -0.151457 -0.13582101 -0.124125 0.08288322 -0.14151374 0.2719697 0.10211046 -0.076994 0.1276528 -0.21277171 0.1393774 0.13244915 0.11194053 0.014145879 -0.18363872 0.31628364 -0.30481896 0.01591134 -0.32819685
بار -0.22163779 -0.30928093 -0.5629724 -0.22118981 0.44045427 0.3493556 -0.7416762 0.41203445 0.09819482 -0.7071946 -0.23636743 -0.5442883 -0.30856702 0.9930441 0.6532633 0.1334837 -0.3258585 0.69402444 -0.2977006 0.6986326 -0.06898297 0.12623538 0.05090493 -0.6864101 -0.076401435 -0.048406135 -0.6967458 -0.12543596 0.13991578 0.06576354 -0.8949516 0.2780206 -0.543874 0.0990282 0.24064995 -0.102021806 0.041273616 -0.34341216 -1.206491 -0.5646153 -1.0623448 -0.5723919 -0.06130878 -0.17787574 -0.711362 0.5775221 -0.29720047 -0.5565345 -0.21395819 0.21253718 0.8552056 0.31202915 -0.24919109 -0.40707457 0.2405431 0.5492585 -0.25655708 0.6559012 -0.2243604 -0.082661465 -0.2200486 -0.08136501 0.5280471 0.15903461 0.28807527 -0.4831294 0.29328716 -0.6778166 -0.1659703 -0.6123213 0.8801491 -0.35960472 -0.025422655 0.22286054 0.44588885 0.3186575 0.17966092 -0.4011037 0.887068 0.23439923 -0.14293112 0.5200474 -0.9295872 -0.6551167 -1.1434162 -0.3600445 -0.48786664 -0.6883681 0.2709963 0.4801902 0.5200452 0.5602787 -0.206015 0.21712588 0.4890418 -0.42285505 -0.36948568 -0.2314675 0.2819844 0.18916555
تنها -0.38399673 -0.14149977 -0.5534544 -0.61899024 0.2604724 0.25084737 -0.1849515 -0.046949375 0.19392566 0.6180472 0.29601482 -0.17997892 -0.50276774 -0.5727866 -0.46531236 -0.42472538 -0.27285537 -0.13187747 -0.69873136 0.14145447 0.30996856 0.36796415 0.20109959 0.5636709 -0.62019634 0.14791878 0.25916418 0.16154718 0.39716268 0.2052629 -0.27152318 -0.91773796 -0.8432489 -0.71232045 0.50452304 0.008145472 0.097074114 1.1531483 0.45319772 -0.42765164 0.08624555 0.44982028 -0.6900416 0.63316035 -0.51807946 0.36158744 -0.37929782 -0.7719725 0.027894968 0.20964059 0.393174 -0.26921603 0.46493602 -0.22879536 -0.16920112 0.44756028 -0.31018382 0.60274404 -0.43022838 0.1555154 -0.045159306 0.21509501 -0.9567004 0.43682218 0.3234043 0.26007193 -0.5650923 0.6158079 -0.26733762 -0.4840675 -0.3173294 -0.22704615 0.866065 0.18846637 -0.12729652 0.44923326 0.69263166 0.63096184 -0.7951572 0.787525 0.18564813 -0.18811223 0.2121075 -0.22930919 -0.22526711 0.30570248 -0.1306626 0.089189276 -0.14588429 -0.5097008 0.60330063 0.89716685 -0.85540414 0.3533892 0.19384365 -0.76950127 -0.79974306 -0.22420603 -0.18687183 -0.016558938
تو -0.124610245 0.018679762 -0.029910097 -0.8369419 0.23882268 -0.23012093 -0.09180866 0.14803535 0.48631012 -0.3565898 0.015131361 0.2573778 0.35516208 -0.38727146 0.05041512 -0.26368287 0.038862064 0.34687886 -0.49783435 -0.09742349 0.03359479 -0.28629342 0.062237184 -0.063609034 0.1684535 -0.38088694 -0.19972202 0.29857165 0.2595374 0.015479814 0.043277726 -0.52018255 0.010017378 0.26999837 -0.0043901973 -0.16066599 -0.19458605 0.5729041 -0.1048116 -0.05556062 0.2070777 0.53888583 -0.11429408 0.15023296 0.05785479 -0.14432278 -0.2448188 -0.0071533746 0.14888369 -0.1058771 -0.67979264 -0.23503743 -0.14688726 -0.04848347 0.30276874 0.47804224 -0.24933141 0.24874611 0.33213887 -0.083446085 0.24996799 -0.12486116 0.59850186 0.7046298 -0.5538567 0.31328562 0.038551126 0.11682641 0.020144606 -0.497817 0.037147146 -0.028265318 0.12108285 0.08606012 0.017901134 -0.15424043 0.0066621243 -0.19577534 0.27344367 -0.08384179 0.03129239 -0.29529095 0.1415062 -0.342259 -0.082181506 0.22125895 -0.14624323 -0.14818312 -0.114696614 -0.016897885 -0.08455629 0.1527839 -0.044107992 -0.04328432 -0.28614932 -0.33848146 0.07901288 -0.11791363 0.11787421 -0.15069069
از 0.119231366 -0.039945137 0.06548142 -0.2648558 -0.05809319 0.1307863 -0.07038886 -0.050926965 0.048852727 0.02249431 0.037687544 -0.012936344 0.031040037 -0.19178814 -0.10510875 0.3704184 -0.1962838 0.06347142 -0.38360456 -0.14451084 0.16836362 -0.24780087 0.092129596 -0.0805759 -0.08333196 -0.17749737 0.10922573 -0.21039422 0.07460374 0.33529013 -0.046130862 -0.17455097 -0.030907243 -0.18796389 0.115487695 0.3171308 0.12259546 0.09863085 0.32236487 -0.10664524 -0.03001429 0.23658608 -0.18749674 0.24093565 -0.14015856 -0.2680156 -0.054825373 -0.0027521718 -0.09426167 0.4133097 -0.05595793 -0.07082129 0.040033743 -0.053654626 -0.2814153 0.32449892 -0.1878336 0.052030534 0.023095397 -0.21958224 -0.05062185 0.021976424 -0.038210977 0.035784513 -0.016483823 -0.14281209 0.07695114 0.023551343 -0.18880703 -0.011521865 0.12571262 -0.17707448 -0.061265096 0.18489496 -0.14941566 -0.03283936 0.12305526 -0.03740721 0.035053942 0.23204958 0.0938614 0.28655654 -0.15794344 -0.022372419 -0.030520746 -0.04795911 -0.2657514 -0.31501433 0.3156847 0.18104854 -0.20841269 -0.023300478 0.3276675 0.061662838 0.060903575 0.16674753 -0.10880648 -0.12816393 0.08179574 -0.19714108
یاری 0.69508725 0.6373632 -0.43514535 -0.121501006 -0.66396004 0.717449 0.61147225 0.015893528 0.48454186 -0.6058912 0.22349903 0.3197485 -0.31896308 0.05756351 -0.12380492 0.15720445 0.24655072 0.16325372 -0.10026261 -0.06969016 0.53765273 -0.042616986 -0.2104494 -0.21096599 0.35464972 0.2160237 -0.041815963 0.5311948 0.37989354 -0.1532608 -0.60688806 -0.3074164 -0.40085015 -0.001977323 -0.20727298 0.023894198 0.00052425347 -0.41804895 0.045465752 -0.7913994 -0.14123188 -0.17817931 0.36003932 0.26776782 -0.6917449 0.4854722 0.36619085 -0.47016156 0.057085283 0.3552803 0.7382405 0.039249923 -0.027400391 1.2822913 0.19625437 1.166076 -0.56758976 0.10540751 0.28668898 0.933837 0.56643665 0.22512828 1.495342 -0.46797484 0.5812864 0.80322206 -0.45111254 -0.2132847 0.048060887 -0.084570296 0.38123378 -0.40414512 0.45238793 0.033460513 0.25237775 -0.12193249 0.42360806 -0.6599791 -0.3858214 0.78130597 -0.02128228 -0.15473817 -0.52710927 -0.46103448 0.2550786 -0.048451323 -0.9216523 0.48075274 0.026717799 -0.40812385 0.031356335 -0.20398359 -0.23880713 0.020362489 0.6397734 -0.15851983 0.78126353 0.032762334 0.26244974 -0.33308673
ما -0.10295593 -0.08906994 -0.053186875 -0.481352 -0.11508844 -0.05004422 -0.11133148 -0.047239766 0.20586449 -0.25304237 0.058158346 -0.027577067 0.11947104 -0.14802675 0.3655443 -0.02369874 -0.062310167 0.30225825 -0.42821345 0.049648225 -0.088668875 -0.09278941 0.13352014 0.09221932 -0.009725767 -0.14486454 -0.3642117 0.6683934 0.31968728 -0.07638925 -0.35960695 -0.14774467 0.020872194 0.16579801 -0.30583856 -0.29547778 0.38289502 0.14520909 -0.6587892 -0.33902058 -0.16449448 0.2918609 0.11203522 0.21576975 -0.29577014 -0.071231976 0.21674952 -0.22530785 0.19134599 -0.06289428 -0.20448638 -0.08166834 -0.3895116 -0.4041493 -0.36876354 0.2023696 0.055742987 -0.081122 0.1791501 -0.06766765 0.33674553 -0.4184941 -0.31471124 0.021785006 0.15142159 0.1623365 0.303541 0.010768316 -0.25566322 -0.40144396 -0.23358482 -0.3493075 0.21773617 0.093645 0.2157298 -0.31549692 -0.1735233 0.29591393 -0.16426957 0.043980394 -0.16051513 -0.10456921 -0.27607137 0.02002747 0.19853148 0.09029039 -0.19037838 0.03135244 0.02296913 -0.13893537 0.27013204 0.2856784 0.28118855 -0.33913055 -0.2811623 0.16009119 0.079360105 -0.097420074 0.08731325 -0.39205804
راه 0.64017713 0.3726156 -0.047095437 0.08368264 -0.46558926 0.6598548 0.048468366 0.8992855 0.11260417 -0.006602566 0.38479456 -0.20069066 -0.64277345 0.32205468 0.29690248 -0.07168175 0.09127191 -0.04743378 0.092348784 0.684264 0.47228906 0.037283994 0.6609401 0.3395842 0.02415656 -0.24364215 -0.14006463 -0.27402297 0.33388504 0.33515292 -0.21711856 -0.5367456 0.21128602 -0.01288649 0.3734411 -0.49777585 0.19304214 -0.46744278 0.6807111 0.0796584 0.049573526 0.010147863 -0.37009898 0.34733227 -0.21994996 -0.3284793 -0.07344189 -0.15227501 -0.20600995 -0.2945624 0.4664132 -0.47391558 0.07131072 0.14706874 0.16198577 0.4984414 -0.3276775 0.33588636 0.3487624 0.12706394 0.25024682 0.50590235 -0.034595504 0.4660567 0.124842785 0.38208205 -0.37065655 0.10854551 -0.0692109 -0.22034821 0.14685729 -0.32887354 0.25599685 -0.658596 0.23641801 0.019583464 0.20937821 5.748353e-06 -0.17626017 -0.107277684 -0.1424396 -0.08425589 -0.75435525 -0.2420193 -0.32912487 -0.14050949 0.24877699 0.07393915 -0.1333694 -0.34073806 0.13225362 0.40378028 0.3697351 -0.069307044 -0.29580027 -0.12823561 0.21076415 -0.2478559 0.16364332 -0.6519814
راست 0.36913282 0.6747198 0.4158258 0.16498542 -0.789315 0.46895486 -0.09095902 0.21843442 0.7531934 -0.23942451 -0.8704301 -0.6055571 -0.37172556 -0.38694414 -0.051785793 0.06607569 0.7331848 0.44353 -0.53418094 -0.043363634 -0.06614275 0.59739494 0.3032144 0.39351404 -0.15817778 0.16539678 -0.092065245 0.06159936 0.08015521 0.7481781 -0.08652032 -0.6619128 -0.027106274 0.2639708 0.35403788 0.269458 -0.28046998 0.25902948 -0.27245483 -1.2068669 0.3081929 0.061402585 -0.36768794 -0.44239813 -0.21772934 -0.25708517 1.0252633 0.19063658 -0.22588153 0.29596353 0.21983 -0.020917568 -0.1975625 0.5725685 0.007615008 0.6715071 -0.32498956 0.18132198 0.24226628 -0.052956305 -0.51427066 -0.2660239 -0.077820204 0.60582715 0.2583944 0.43119866 -0.15578023 0.09421109 -0.3709795 0.104465686 0.48167244 -0.48328897 0.17722516 0.27327216 0.033342637 0.059481826 -0.60814095 0.43816227 0.21180563 0.041219447 0.09861324 -0.22096497 0.27047193 -0.23432264 -0.30839837 0.6740872 0.44468775 0.3158477 -0.36696053 0.05864301 0.36300892 0.37873137 0.41688833 -0.04266091 -0.5046447 -0.14544149 0.040635485 -0.17290969 0.1823685 -0.6431428
هدایت 0.15426855 0.4412783 -0.07345539 0.48914537 -0.9366615 0.8195474 0.1707549 0.770787 0.54400426 -0.49002165 0.5528679 -0.08146896 -0.44148546 0.26098564 0.77169836 -0.15514876 -0.091139026 0.009506835 0.1729959 0.6881978 0.3477236 -0.3116792 0.74501026 0.32544348 0.64766765 -0.17210186 0.039818924 -0.5177313 0.29906374 0.47723466 0.40063477 -0.7983042 -0.0813809 0.51239055 0.5222178 -0.18382134 0.267359 0.59441423 0.23465921 -0.2481809 -0.40182546 0.11109888 -0.7918326 -0.0437971 0.22524533 -0.09973746 0.10570977 0.632604 0.14527959 0.037166096 0.24080971 0.119091816 -0.22160581 0.37883773 -0.30578932 0.43301418 -0.022817941 -0.029899437 0.14093027 -0.37924343 -0.24112466 0.48525354 -0.80481803 1.0977803 0.07250928 0.20849259 0.1270863 0.11933912 -0.7511973 -0.9734486 0.74510854 -0.5770104 0.3390224 -0.53169215 -0.52861106 -0.36875653 0.3063525 -0.14214306 0.4261289 -0.21121089 0.050003845 -0.1439052 -0.035961 -0.7158428 -0.39458027 -0.23690228 0.41818705 -0.08411407 -0.19383885 -0.7005728 0.7667918 0.3147008 0.078518674 -0.4481469 0.014636485 0.8060526 0.24738556 -0.038016874 -0.01321256 -0.1788135
آنان -0.15394793 0.25631985 0.26866218 -0.35143125 -0.1165327 -0.062268578 0.24346708 0.17853966 0.11136465 -0.27471074 0.11646652 0.08529987 -0.24037929 -0.3094833 -0.057047106 -0.23921666 -0.07438802 0.008907904 0.10072107 -0.2188619 0.23814887 -0.18792877 0.16769008 -0.22789451 0.3485699 -0.115415506 0.0689319 0.08002886 0.046127852 0.088082716 0.090321444 -0.19416074 -0.10980589 0.23297366 -0.17041336 -0.029182386 -0.051018074 0.08920295 0.04742035 -0.2003083 -0.0075730905 -0.044769388 -0.077555954 0.29389805 0.09717375 0.014900457 -0.17034683 0.2742668 -0.17077082 0.39189458 -0.034980956 0.14335479 -0.4375238 -0.25347805 0.022056526 0.44804293 0.21719587 0.25129184 -0.16262998 -0.22398187 0.23939697 0.012215408 0.39929968 -0.19600143 0.10498576 -0.119474865 -0.031759117 -0.17273216 -0.014755549 -0.27974594 -0.020027854 -0.21525763 -0.12978455 -0.0667413 0.13335088 -0.046361115 -0.35045913 0.20222887 0.30561987 0.104238346 0.5046051 -0.008203735 0.14706731 -0.15245306 0.1975644 0.04514791 -0.07869519 0.14057018 -0.14293206 -0.33387595 -0.09243865 0.237396 0.5532759 -0.028279053 -0.3235158 0.038252607 0.07738642 -0.48805895 0.09926024 0.022884112
نه -0.11394853 0.6115775 -0.3974372 -0.23447199 0.17273775 -0.009162439 0.6936234 0.32536015 0.43594974 0.5217774 -0.5837107 -0.3468316 -0.2976407 0.69694614 0.37272745 -0.5697152 0.17186353 0.066569164 -0.040768374 0.56335604 0.2619293 0.47151956 0.1053199 0.47630903 0.38292274 -0.8072425 0.12852468 0.35271612 -0.12703714 -0.04517927 -0.43997818 0.25908187 -0.28720102 -0.018293288 -0.6265515 -0.040451642 -0.078667976 0.5307139 0.35455275 -0.4698961 0.04441656 0.122786954 -0.034843948 0.9135382 -0.9311663 0.20075825 -0.19431429 0.034403585 -0.5536438 -0.014462429 -0.020545492 -0.40725756 0.10684177 0.17162329 -0.321042 0.16670288 0.40885302 -0.22734931 1.2632335 -0.20890202 -0.24137133 0.0012006287 0.29187745 -0.23715465 0.4198577 0.08451582 -0.21767275 -0.1350738 0.41321397 -0.3015952 0.05035475 -0.35105178 0.14827971 0.64867 0.042845532 0.9313737 0.3918086 -0.5308934 -0.11043981 0.6131045 0.4749196 0.24004263 -0.75678694 -0.31731364 -0.14169627 0.124027096 0.1859989 -0.5072889 0.34184933 -0.4626959 -0.16316529 -0.32753918 0.04199245 -0.19083613 -0.39188713 0.6628712 0.2999875 -0.70747143 -0.74768275 -0.25846496
گمراهان -0.24893652 0.086913794 -1.0372412 -0.28732413 -0.39919716 0.2999817 -0.14687856 -0.7511256 1.3102193 -0.7703382 0.13406688 0.15081201 0.15573832 0.59568685 0.101619326 0.3462623 0.15453184 -0.9658266 -0.5398527 0.15510616 0.5328099 -0.4012803 -0.05783779 0.9040589 -0.6896191 0.73809725 -0.40723148 -0.17181878 0.48517257 -0.26721704 0.0316556 0.42082942 -0.5280449 0.18195578 0.83363885 0.33328146 -0.7774116 0.24215193 0.104474746 -0.38586235 -0.4318866 0.17777416 -0.8169991 0.19702347 -1.0165992 -0.7064808 -0.25890428 0.04231663 0.017536022 0.6040568 0.44022083 -0.13467929 -0.1056954 0.6749963 0.069652915 1.2014248 -0.18540514 -0.2789782 -0.22883402 -0.17308012 -0.23906909 -0.050769385 0.41284636 0.12620375 -0.1656918 0.26454112 0.52372646 -0.1408486 0.6073354 -0.124224335 0.23898385 -0.06606003 0.6058655 -0.2585696 0.23238222 0.6069062 0.43197075 -0.68562716 1.2036813 -0.2731146 -0.7282437 0.40365997 -0.09307461 -0.85650975 -0.6030915 -0.75948364 -0.3869415 0.22981507 -0.2798875 -0.89385194 0.08601459 -0.14614776 0.067699164 0.48292884 0.5779209 0.21458948 0.27818695 -0.3385986 0.5414868 -0.7377487
الف -0.072140366 0.96341896 -0.86015946 -0.3996788 0.03379907 0.36327994 -0.65498424 0.5350857 -0.1560603 -0.0481448 0.15805474 0.6377724 0.055959277 0.00878525 0.24652606 0.29551673 0.17672521 -0.2920241 -0.24673823 -0.0049966304 0.21074787 -0.32284105 -0.21851934 0.60996985 1.0958499 -0.7609674 0.028980402 0.91576403 0.27160004 -0.4094146 -0.74362695 -0.43453577 -0.2693098 0.21038646 0.40646762 -0.3672527 -0.14458786 0.65236485 0.35972178 -0.22441679 -0.15096979 0.53803307 0.8167977 0.27366745 -1.169349 0.020985723 -0.39672717 0.6287114 0.020127982 1.1611551 0.6947369 0.011550646 -1.1681876 0.54787487 0.2687421 0.07201221 -0.56395155 1.5942829 1.0810261 0.2525665 -0.10833162 -0.042002626 -0.30099106 1.4595798 -0.25572175 0.49803913 0.60053796 -1.0656464 0.03961084 0.3242691 0.5975519 0.73456335 -1.0213611 0.3266496 -0.3458107 0.3422336 0.1873674 -0.6093918 -0.14283992 1.0404464 0.10329646 -0.55236423 1.0343742 -1.5577335 -0.5623596 0.17322418 0.62371 1.0112604 1.230549 -0.22892514 -0.27773434 0.53127587 0.40729544 0.2895129 0.2410573 -0.0017416164 0.6359226 -0.61999124 0.25282153 -1.0038544
لام -0.11579369 1.0941314 -0.59202206 -0.08569679 -0.10724918 0.93291825 -0.7034296 0.32056862 -0.027548807 -0.10222324 0.16298693 0.38514686 0.244287 -0.2553213 0.08171475 0.1119391 0.2932079 -0.3356578 -0.54013956 0.3016287 0.3727475 0.022232248 -0.2714777 1.0719901 1.1170169 -0.48724604 0.6895639 0.8016685 0.5712351 -0.14550692 -0.5599819 -0.3245291 -0.36941218 0.53753453 0.36137098 -0.5247715 0.36582363 0.5477382 0.44330022 -0.19257906 0.092397004 0.14488912 1.1147392 0.35110533 -1.1410679 -0.14918558 -0.4088981 0.35493693 0.1178242 0.9717815 0.80250776 0.20236902 -1.0220257 0.60419977 0.6384065 0.15718801 -0.51392376 1.1770402 0.79939264 -0.25356275 -0.2059532 -0.6202104 -0.31147653 1.3070394 -0.38873693 0.9158404 0.6295328 -0.67988276 0.3274131 -0.054499347 0.7962552 0.8078619 -1.0777515 0.34660473 -0.66428626 0.47338167 0.42865852 -0.08151165 -0.2919747 1.2969052 -0.4777 -0.3253659 0.7142566 -1.5893252 -0.33308646 0.21736495 0.89990413 1.3174446 0.99582815 -0.21838494 -0.05745068 0.8083166 0.31116167 0.50014156 0.16113007 -0.10478734 1.1968735 -1.3582393 0.4146415 -1.0625805
میم -0.5212687 1.1668257 -0.5082798 -0.45018098 -0.33414838 0.74129605 -0.17993708 0.087419465 0.13934116 -0.02801523 0.12771833 0.7097563 0.23301527 -0.29595533 0.33208495 0.52371156 0.36841866 -0.29534745 -0.66121036 0.022217255 0.54054284 -0.19655254 -0.049600866 1.147048 1.2892058 -0.8451965 0.6115167 0.47311795 0.50019187 0.039890595 -0.7073118 -0.13943724 -0.28519875 0.89057183 0.27345118 -0.726855 0.5014664 0.44130614 0.43635985 -0.14946449 0.14135118 -0.3525891 1.4973525 0.04325278 -1.0959817 -0.020557296 -0.060259305 0.38065538 -0.07812819 1.167344 0.7126209 0.19989528 -0.7732773 0.38611153 0.681479 0.025812155 -0.3731646 1.4372623 1.1351224 -0.35515416 0.011506299 -0.76623213 -0.2783381 1.2572957 -1.059216 0.71793 0.5502164 -0.6387962 0.7400255 0.16981637 0.56444037 0.3675976 -0.88318086 0.13458267 -1.0253993 0.7222968 -0.0067621158 0.08936347 -0.107410744 0.9520978 -0.15523694 -0.3966021 0.8592167 -1.2859503 -0.203938 -0.031711534 0.52164656 1.3562738 1.2723739 0.097818464 -0.34610406 0.6673884 0.45051998 0.8298658 0.24855092 -0.22919652 1.071591 -1.6121752 0.61639076 -1.0712048
این -0.07146512 0.07382788 -0.14036568 0.07714334 0.028552458 0.29095617 -0.3042843 0.1444377 -0.11472615 -0.31534243 -0.3904644 -0.014383808 0.10618932 -0.6169201 0.071466826 0.21643259 0.19684793 -0.022015203 -0.19097099 -0.2964269 -0.36667526 0.10907781 -0.10132112 0.2360638 0.4495615 -0.15116061 -0.34991014 0.38754267 -0.1959041 0.30018148 0.11579167 -0.38599694 -0.2960671 -0.3138475 0.41240346 -0.10200153 0.05595624 0.41214463 0.015891839 -0.22181684 -0.036588773 0.36116636 0.22164237 0.23599057 -0.02898872 -0.3499137 0.1606348 0.12689562 -0.2972802 -0.109117866 0.32327724 -0.07248411 -0.025325688 -0.29066253 0.266065 0.37034315 -0.041318625 -0.066913135 0.1177667 -0.2769076 0.4190552 -0.43898326 0.03629535 -0.03673998 0.41339445 -0.048096154 -0.25345263 -0.20644881 0.025127541 -0.09264623 0.62022424 -0.2551233 0.014588962 -0.3263653 0.21597177 0.060800094 -0.26026258 0.4240336 0.056549408 0.27182135 0.40559068 -0.36480552 -0.26180783 -0.11133745 0.056743547 -0.24685027 -0.3705737 -0.3008453 0.085581034 0.43088907 0.051492564 0.119028494 -0.024535801 0.27500507 -0.5236191 -0.33287224 -0.2484177 0.008237719 -0.25000945 -0.34858802
است -0.69396573 0.12426467 -0.114061 0.27847886 0.087369956 0.2421496 0.047699787 -0.3785021 0.1188772 -0.11024095 -0.36019796 -0.0335874 -0.024261607 -0.38670102 0.14637361 0.07548304 0.08247565 -0.10631939 0.025609868 0.1601862 -0.5192103 -0.11025177 0.618811 0.23809494 -0.100263335 -0.2261665 0.28175375 -0.21644458 0.085744254 0.5527813 0.19408998 0.04398215 0.045230232 -0.54031193 -0.08037026 -0.2155199 -0.1598529 0.2146996 0.24828286 -0.27732483 -0.0031723452 -0.043642867 0.33964676 0.15264864 -0.25328177 -0.21556242 -0.015802402 0.06064867 0.17536975 0.30428502 0.5128912 -0.40689012 0.02818068 -0.23536423 -0.03404104 -0.06540024 0.22476749 0.08545665 0.21465866 -0.22359592 -0.18155658 0.045000453 0.10516046 0.2381978 0.040164012 -0.20468837 0.06920866 -0.31583235 0.11538004 -0.7365965 0.70020694 0.20270132 0.18332551 0.062324915 0.26189846 0.15671788 0.06680462 0.18451865 -0.1515856 0.18512246 0.06484249 -0.25495058 -0.052970313 0.0031121846 0.29384488 0.14000477 0.11678642 -0.34034222 0.31239587 0.33161122 -0.15351106 -0.15177238 -0.061130937 0.022754509 -0.39646178 -0.07343927 0.27835804 -0.32287464 0.2749126 0.110808976
کتابی -0.22081797 0.25066137 -0.30785397 0.3448579 -0.3248514 -1.0122019 -0.10785678 1.0044013 0.82100743 -0.62120104 0.23414205 0.12172329 0.8409369 -0.48862174 1.0934708 -0.24183314 0.5713445 1.13476 -0.16222122 0.23467934 0.065555766 -0.13875158 -0.3723767 -0.0356743 1.4007641 -0.23656455 -0.3375043 0.1490078 -0.0022971234 0.5800867 -0.04820774 -1.2443186 0.07990437 -0.6243141 -0.5771814 -0.18154119 0.42524412 0.4227777 -0.46231955 -0.34097898 0.367204 0.2864658 0.039654236 0.3256674 0.78258187 -0.20473745 0.48092678 0.27095717 -0.27485836 0.15063305 0.43427548 -1.0384511 0.8597845 -0.3793687 -0.7403434 0.19636096 0.17496951 -0.43588147 0.22657037 0.003420916 -0.14241037 0.1618334 0.004812487 0.520309 -0.79667574 0.47390494 0.0774744 -0.87651443 -0.0142658055 -0.09868616 0.28137028 0.24321888 -0.3363415 0.1302258 -0.10756036 -0.122502685 0.46679655 0.30127218 0.609772 0.6899221 0.30293664 -0.09676224 -0.34312546 -0.7323791 -0.19719952 0.29785845 -0.10847442 -0.79486936 -0.3874376 0.38131896 0.7585447 0.62898815 0.42024454 -0.07121781 -0.74969876 -1.0284196 0.07083382 0.28549692 0.22457436 -0.7170954
در 0.09049361 0.15320583 0.06822938 -0.21919006 0.025041016 -0.083360754 0.1871612 0.09001307 0.029417327 0.2529365 -0.06116156 -0.105665155 -0.15663704 0.00029292074 0.18390577 -0.027695388 0.15737095 0.06751296 -0.26339707 0.22689192 -0.132475 -0.23204875 0.2107884 0.0633213 0.13169408 0.14739768 0.1423555 0.02455941 0.02095617 0.26694748 -0.21201794 -0.06732862 -0.4694752 -0.38714013 0.008685092 -0.43398175 -0.14877596 -0.08088811 0.3141047 -0.11786675 0.1405566 -0.030459618 0.04391568 0.28799793 -0.21664111 -0.3996378 0.0889885 -0.055609014 -0.17877659 0.07221084 0.1975591 0.043585032 -0.076135166 0.056236543 -0.37420577 0.16162935 0.3135838 0.36762384 0.017443301 0.12926835 0.07638003 0.03693069 -0.06547696 0.03044195 -0.113630764 -0.13194855 0.0804361 -0.2826626 0.17788441 0.012001777 0.06435435 -0.31965253 -0.25965068 0.057655286 -0.049913514 0.35604072 -0.34436333 0.06425743 0.18764286 0.035209496 -0.089191504 0.10681634 -0.24269688 -0.105374455 -0.07103154 0.12801613 -0.19794302 -0.14414914 0.05300216 0.2002716 -0.15264302 -0.03990946 0.34571034 0.0403853 -0.04255577 -0.33806095 -0.06829738 0.13248809 0.069384485 0.08786138
حقانیت -0.5963862 -0.5263775 -0.69971234 0.3529694 -0.2491998 0.14834937 0.56185 -0.28727275 0.9606494 -0.61853266 0.48889506 -0.31623822 1.0267092 -0.3849937 0.7994703 -0.27971652 -0.61429733 0.41894 -0.04224841 0.1974004 -0.23566824 0.40296775 0.397574 -0.71005934 0.90957737 0.08576828 -0.087082565 -0.21655253 0.6949837 -0.037174936 0.66577935 0.44948006 0.43793705 -1.5864996 -0.3137955 0.13895969 -0.060738996 1.5795752 -0.13415213 0.5343757 0.7385059 -0.35983893 -0.32752475 -0.83708894 -0.7322395 -0.6989849 0.100591816 0.7537166 0.2546998 0.4697276 1.6866697 -0.8960757 0.6776403 -0.07357745 -0.59781635 0.50366557 0.701221 0.52671254 0.09566318 0.42339766 -0.7731425 0.83113885 -0.4529421 0.91624033 0.20289303 0.18427059 -0.9534168 -0.24272813 0.44501016 0.0035938094 0.69909936 0.24246745 -0.4121696 0.23061366 0.6504684 -0.12680817 0.50799716 -0.5410915 0.24416253 0.013234428 0.8690101 0.2218237 -0.4587188 -0.07010988 -0.23030166 1.1682941 -0.2653142 -0.52261984 0.38323972 -0.5451323 -0.71394134 0.2058985 0.6181226 0.19951868 0.06309463 -1.3196822 0.5755048 -1.2283278 -0.22097673 -0.019982819
آن -0.21558459 0.15499818 -0.31550187 0.08561429 -0.055774763 -0.020976879 -0.0345461 0.2313599 0.09400936 -0.13184482 0.06874221 -0.3102973 -0.11371359 0.12759754 -0.05374434 0.39935377 -0.00809725 0.017655687 -0.4556391 0.1171973 0.062377717 -0.099356376 0.35347432 0.14672594 0.06736708 -0.06019844 -0.14083855 0.13999446 0.012536012 0.10050385 -0.008269139 -0.12065916 -0.12676316 -0.55496264 -0.052701015 -0.1769167 -0.12753901 0.12853338 0.02896242 -0.24271508 0.21612851 0.110127054 0.035027325 0.21797816 -0.065144055 -0.2499411 0.10218553 0.06358355 0.02337321 0.18045825 0.109045975 0.10957861 0.15109643 -0.36624217 0.09970993 0.39523706 0.10289117 0.018398538 -0.39402774 0.02469547 -0.14713159 0.24212085 0.053630795 0.15765807 -0.3240291 -0.04995568 0.3478479 -0.33286428 -0.30974427 -0.071344204 -0.019667532 -0.3335998 -0.36600268 0.2582583 -0.0072069652 0.21689978 0.030407742 -0.092016645 -0.020544969 0.069631904 0.04840419 -0.16028637 -0.18212341 -0.21627262 -0.11408283 0.19041084 -0.113479786 -0.14181297 0.2480797 0.13820371 -0.02689188 -0.16950881 0.24830799 0.3186558 -0.12168624 0.14212856 0.18828963 -0.12904859 -0.3046466 0.18695551
هیچ -0.2335201 -0.37156457 -0.6702041 -0.93958104 0.3095469 0.0025020253 0.09028148 -0.5096097 -0.17769484 0.30757087 0.015274131 0.25138474 0.10710671 -0.118075445 -0.11466886 0.088928275 -0.39588904 0.041205335 -0.002760179 0.25978518 -0.21289313 0.29277056 0.56060827 -0.14034969 -0.06426342 -0.53257394 0.38281864 0.04417288 0.19421302 -0.33914372 -0.06641307 -0.47317228 0.056665916 0.18023515 -0.20291592 -0.4024894 -0.034807894 0.5592313 -0.15956622 -0.21129176 -0.059265424 0.73181 -0.14532128 0.18336967 -0.121842526 -0.019799618 0.113230035 -0.3470443 0.15846963 0.52208745 0.9185893 0.35852033 0.40328804 -0.09841692 -0.22520909 0.30186847 0.40098333 -0.22032098 0.25658673 -0.08513707 -0.39581752 0.51720965 0.43384847 -0.16511214 0.5792627 -0.074816085 -0.4325613 -0.41363853 -0.35128823 0.09135496 0.4878607 0.16891478 0.13030581 0.3961582 0.31411898 0.010055898 0.12426828 -0.38010198 0.02833047 0.24777769 -0.0025053546 0.71891403 -0.22395064 -0.7080027 -0.4414803 0.21462755 -0.6840888 0.007991069 -0.34062204 -0.8206006 -0.23025076 -0.19285205 0.39955735 0.57883 0.06878 -0.18551075 -0.02873574 -0.05281538 -0.57390374 -0.0008590402
تردیدی -0.8892431 0.03390168 0.0058260453 -1.0766321 -0.18659961 -1.046953 1.129792 0.19398634 0.30332455 -0.27789485 -0.3067417 -0.04991066 -0.29620728 -0.7681078 0.65629166 0.30096576 -0.51527405 0.2844692 -0.9954208 -0.12555769 -0.59729326 0.25029305 0.86203444 0.26731756 -0.25062764 -0.10540552 0.30262423 0.23156878 -0.13487846 -0.15381348 0.676072 0.14493667 0.106205605 -0.9161055 -0.32160956 -0.54524255 -0.10975877 0.60264415 0.94543743 -0.08879334 0.8740846 -0.10627993 -0.123723194 0.8967654 -0.30848354 0.19524817 -0.21952508 0.3649009 0.31160027 0.20178965 0.808548 -0.21960084 0.24041314 -0.9801365 -0.37793136 0.8326231 -0.09836448 0.4777974 -0.9691281 0.7170366 -0.60058606 0.8862513 -0.21445769 0.28202334 0.27915195 2.004149 -0.8019044 -0.7281744 0.15837522 -0.6077928 -0.32293797 -0.35069236 -0.07570988 -0.10161887 0.14537343 0.30115888 0.33002964 -0.1515864 0.15241684 0.55220765 0.19857971 -0.01878005 -1.1016778 -0.34911308 -0.6885855 0.7240712 -1.7115778 -1.0652969 -0.91762596 0.24094787 0.5589409 -0.12475862 0.22133672 1.2508305 0.06295553 -1.2031779 -0.23349518 0.026478203 -0.512809 -0.32233167
نیست -0.88319576 0.11267242 -0.7588553 -0.37773818 -0.09413343 0.20634915 0.10925699 -0.4480835 -0.23783278 0.7660556 -0.12142517 -0.2325344 0.5932465 -0.46729773 0.36846378 0.09909328 -0.0857293 -0.24806917 -0.088479914 0.2986128 -0.74146885 -0.17772879 0.33402607 -0.021497935 0.4168315 -0.44523853 0.3156922 0.04553243 0.17059113 0.18836531 -0.09559283 0.5898218 0.41259956 -0.14229783 0.11838918 0.2520078 0.45736754 0.45416042 0.12887636 -0.06034261 0.30338702 0.12632313 -0.20787567 0.101725645 -0.2601166 -0.0073351073 -0.15444882 -0.17952646 0.14991896 -0.12001492 0.19674863 0.22097193 -0.03525014 -0.41481388 -0.563732 -0.06752132 0.20532385 -0.22265922 -0.064854376 0.21433124 -0.32608554 -0.2541979 0.19174188 0.33341062 0.4251527 0.16748716 -0.5930398 -0.5604761 0.04629125 -0.61203784 0.14794128 -0.37709773 0.4758552 -0.22605033 -0.066851266 0.484512 0.207782 0.31291986 -0.007053384 0.3624395 0.17363837 0.33358884 -0.30609506 -0.6217458 -0.15428755 0.25190198 -0.7461803 0.08151249 0.19736451 -0.41913974 0.19824621 -0.6210234 0.41859 0.100371584 -0.5397443 -0.6758033 0.27321386 -0.5260201 -0.046254065 -0.6604494
؛ -0.14860418 0.12746179 -0.2948372 -0.36477557 -0.22960116 0.006585286 -0.09730912 0.15893367 0.005507544 0.14232118 -0.005480922 -0.06488293 0.2676576 0.066867046 -0.41209114 0.0649946 0.22760113 0.012009834 -0.49316236 0.07512368 -0.1426666 0.09729278 0.37960362 -0.11310932 0.2353227 -0.2769852 -0.38709593 0.010029882 -0.11229816 0.3764572 0.07888338 0.23139791 -0.36572957 -0.45508572 -0.37503484 -0.043509755 -0.2891623 0.0066181133 0.027265497 -0.5011714 -0.033372946 0.07169067 -0.0065170825 0.01672479 0.03752679 0.24669819 -0.2830326 0.41906673 -0.022906581 0.36397922 0.13601117 -0.23686102 -0.19704609 -0.054713752 -0.17380998 0.47173417 0.3129779 0.07086375 0.09271031 -0.017950686 0.113616556 0.4966563 -0.1817832 -0.037130658 0.19044708 -0.23002593 -0.071472414 0.1956788 -0.15795007 -0.033187818 0.10169048 -0.19188935 0.5597937 0.006618458 0.0041523604 0.02991421 -0.20097825 -0.18320842 0.02805702 0.0056602317 0.0028388253 -0.1677863 -0.25308847 -0.2187719 -0.36837363 -0.3541869 -0.05938518 -0.44722384 -0.3617129 0.022313774 0.099660255 -0.11023619 0.3580103 -0.46577415 -0.34338996 -0.073377766 -0.00560382 0.39529285 0.13606106 0.20405012
مایه -0.84362173 0.42307654 -0.21847694 0.5038443 -0.168974 -0.98502946 -0.13484834 0.40289757 0.6763388 0.23709442 0.2036275 -0.17572285 0.1584422 -1.2106628 0.2919905 -0.2473246 -0.508631 -0.6355622 -0.67129797 0.020327535 0.4953188 0.46275225 0.8594433 -0.7933219 0.5021664 0.036619384 0.4264186 0.8554322 0.27425832 -0.4699809 0.10502531 0.13868138 0.4571597 0.5260309 -0.0016596102 -0.4093521 -0.1678878 0.8007128 0.16190645 -0.13262832 0.6044653 -0.6577874 0.10041169 0.21784389 -0.29880175 -0.07596416 0.45647418 0.06596496 0.30196217 0.48551622 0.321123 -0.40902227 0.098596565 -0.09324241 0.35411215 0.6161271 0.5875457 0.57545584 0.028361082 0.014853654 -0.021581272 1.1341126 -1.0425304 -0.30398488 -0.64493555 -0.14589493 -0.77965236 -0.67161834 0.8877163 -0.0043559056 0.40180907 -0.44952768 -0.22632892 -0.05960757 -1.0348263 0.04063946 -0.42237484 -0.048853423 0.15279867 0.050480228 -0.040093433 -0.21476454 -1.1457777 -0.33797184 0.45597506 -0.4349319 -0.26355514 -0.17922391 -0.109634966 -0.59268326 0.07457358 -0.071380846 0.10836198 -0.091648884 -1.3170193 1.849801 -0.0368222 0.10546337 0.64343864 -1.2639117
: 0.035149768 -0.18420745 -0.14978352 -0.09761178 -0.24617453 -0.07273666 0.12286664 -0.17845993 0.07290412 -0.34411868 -0.07876924 -0.053327102 0.1037058 -0.063640326 0.38270807 -0.20463634 0.30393702 -0.06355577 -0.3531236 -0.21321069 -0.09882999 -0.082982674 0.42137298 0.049698696 -0.021316359 -0.029435525 -0.30376774 -0.13404739 0.0497364 -0.022786781 -0.2154803 -0.28905413 -0.20544428 -0.11564551 -0.030397134 0.19158772 0.32271704 -0.3016481 0.06087253 0.030770449 0.06907948 0.2669085 -0.12973319 -0.1104748 -0.49057496 -0.10175027 0.21988031 -0.18868077 -0.30691436 0.16317295 -0.07875399 0.3349506 -0.4095464 0.07152967 0.06399355 0.3942611 0.1883803 0.20677379 0.22028539 0.009348823 0.36192536 -0.437944 -0.21629433 0.22129078 0.046419524 -0.5332423 -0.16028598 0.1360707 -0.053870015 -0.3125457 0.28002024 -0.29168665 0.09888525 0.19552664 0.253448 0.16803259 0.35590622 -0.110970445 0.006673009 0.07951044 0.11132213 -0.055992432 0.24251038 -0.32288697 0.04800129 -0.11356051 0.089858495 -0.31730756 0.47181875 -0.23315854 -0.11171445 0.051619984 -0.23222443 0.12752362 -0.67251325 0.0110083325 -0.018133186 -0.060176637 -0.2482481 0.13733079
غیب -0.66520244 0.12331509 -0.83371687 -0.94176894 -0.019734357 -0.2608369 0.03688089 0.8243188 0.5126235 0.90506494 0.3035276 -0.49552938 -0.42210978 -1.5248297 0.3582478 0.3591605 0.5003661 0.44417003 -0.16834046 0.2952097 -0.34129688 0.7029219 0.6379628 -0.006733076 0.01580257 -0.3261763 -0.7555211 0.009815516 -0.32537693 0.8062692 -0.16240734 0.030197317 0.04199536 -0.3976977 -0.21893355 0.8377192 -0.051325902 0.64221615 0.060640853 -0.5801925 0.60620433 1.0278193 0.49873954 0.13156004 -0.056151513 0.020132452 0.5670557 -0.24275218 -0.5048456 0.558612 0.16038047 -0.6715091 1.0074161 0.07642049 -0.02661963 -0.5686338 0.47118983 -0.2667839 -0.11617987 -0.6724703 -0.4206445 -0.43121484 0.91921014 0.76467246 -0.35282597 0.08158361 -0.4955766 0.25484708 0.085826136 0.18193819 0.80012965 -0.7446855 0.3969729 0.9377116 0.59367996 -0.37426507 -0.23799396 0.18884712 -0.399448 0.32874182 -0.05084443 -1.1171861 0.005801031 0.036348145 0.4290679 -0.088540696 -0.53562695 -0.457194 0.14430586 -1.0079268 -0.072099224 0.2218361 0.2713674 0.09088546 0.51804835 -0.07518138 -0.46839276 -0.16605999 0.13547938 0.3428173
ایمان -0.19384576 -0.10641 -0.098043874 -0.42871818 -0.6750514 0.06236285 0.6824967 0.1455975 -0.023290947 -0.19897225 0.33306694 -0.20268072 -0.18006732 -0.26829442 0.55115825 0.0136228185 0.27555197 0.14186077 -0.4159371 0.12140696 0.18587628 -0.37921563 0.5501588 -0.18668036 -0.09846874 -0.40046284 -0.024799887 -0.0013031535 -0.014699329 0.042632923 -0.40527725 -0.275388 -0.28319016 -0.28113747 0.10203685 -0.07804381 -0.45712334 0.6584977 -0.08037763 0.1379893 0.21242413 -0.7640209 -0.14152676 -0.3172654 -0.6093441 -0.47423315 0.22212091 0.3818797 0.54591185 0.5924261 0.016501782 0.62950146 0.34410042 -0.03958523 0.29578573 0.02491545 -0.32231188 -0.42901778 0.42218518 0.37093428 -0.21006384 -0.1524203 -0.5529882 -0.2082462 -0.16531323 0.3352831 0.34767553 0.5093176 0.27755293 0.044112075 0.0062316996 -0.059105422 0.33720842 -0.24429324 0.37314802 -0.2571568 -0.18763793 0.13668291 -0.07055885 0.124300174 -0.023150198 0.47692916 -0.41479275 -0.5612339 -0.30681068 -0.505562 0.028016878 0.2418435 0.41715875 -0.554175 0.05841794 1.1340281 0.37065524 0.010065165 -0.17078188 -0.65627307 -0.655476 -0.37341914 0.04074423 0.33317596
می‌آورند -0.35357693 0.22688603 -0.1934294 0.7679089 -1.3012147 -0.4427938 -0.35570633 0.742158 0.035195164 0.5196499 -1.2603023 0.9484849 0.07405483 -1.0191969 0.40063706 0.34253976 -0.020205148 0.85371107 -0.8438696 -0.17187405 0.05850853 -0.99291146 0.023878727 0.24594076 0.011637803 0.6406143 0.31448504 -0.98482627 0.7576461 0.12400669 1.4408429 0.34033662 0.19594833 -0.5048044 -0.2619451 0.8292961 0.03657223 0.8534087 0.14964673 -0.67303747 0.59848744 -0.7658074 0.8304444 0.7791162 -0.37607267 -0.4462244 -0.23683266 -0.55589867 -0.16200976 0.6207256 0.06621804 -0.58627015 0.16807061 0.019074772 0.8060152 0.73665506 -0.29833725 -0.6621651 0.058005698 -0.8263055 0.2919255 0.02219986 -0.6138605 0.36819795 -0.83627516 0.22444375 0.42967984 0.57129246 0.40842104 0.14176169 0.69942987 -1.1034312 0.37836614 0.28857082 0.41837284 -0.6401778 -0.9424799 0.14896958 0.15633725 -0.8483861 0.31914082 -0.2556981 0.17497697 -0.4102093 -0.4388084 -0.08430202 -0.59452385 -0.09439727 -0.07266478 -0.5996184 0.94156206 0.89940166 0.8569814 -0.38606083 -0.2397897 -0.24466808 -0.17537627 -0.48065987 0.33811876 -0.18925771
نماز 0.177419 0.49732444 -0.8010897 -0.42829826 0.027589463 -0.68490773 0.039626975 0.23872688 -0.44418266 0.009716468 0.86581874 -0.049540058 -1.3361766 -0.43981892 -0.6182669 0.3777065 -0.5196822 0.70311666 -0.4609512 0.041646663 0.13898318 0.32294467 0.1000317 -0.5132132 -0.07669636 0.034221727 -0.3302189 0.5390461 -0.84073 -0.028803745 -0.43159616 0.4765246 -0.6849206 0.07428189 -0.2562451 -0.37204906 -0.3545054 -0.07117463 -0.22969086 4.157139e-05 0.07890662 0.41486773 0.052567583 -1.327899 -0.6799711 -0.517771 0.34369212 -0.4600062 -0.2911647 0.14132541 -0.4623717 -0.088472836 0.39317894 -0.24631694 0.47039327 0.8273827 -0.20985085 0.48665562 0.04959668 -0.2110333 -0.60453 0.3685492 0.37730333 0.4600956 0.52873296 0.7445794 -0.45007336 0.2966062 1.0695528 0.34108502 -0.044104017 -0.6082624 0.801493 0.5385718 0.06519853 -0.23340578 0.2612035 -0.35746473 -0.24457765 0.72847265 0.23130381 0.026149014 0.036606126 -0.2629863 -0.5949155 -0.48917747 -0.85839254 0.7330318 0.8521397 -0.032241974 -0.25491107 1.1158983 -0.15840277 0.23142068 -0.50370365 0.022032233 0.71758485 0.090612695 0.38823563 -0.5395734
بر -0.22538611 0.17403606 -0.32331073 -0.5374942 -0.45304117 0.48335657 0.1493821 -0.22829384 0.28223553 -0.03078442 0.25406894 -0.33835745 -0.042618763 -0.0125940405 0.36010125 -0.116419785 0.14200595 0.21554644 -0.019676141 0.28718302 0.17971939 -0.25008464 -0.17112346 0.009098717 0.2133373 0.09850558 -0.12949 -0.033111803 0.2904916 0.2019664 0.23810913 0.24522012 -0.18153454 -0.34025103 -0.03246187 0.16734828 -0.039316088 -0.16456068 -0.32728067 -0.047362614 -0.085184984 0.35766834 -0.34766427 -0.2604248 -0.11884229 -0.045964334 0.26755813 -0.035972282 0.056402292 0.23628208 0.03594176 0.017031372 -0.051311973 0.3890947 -0.31306553 0.26704258 0.15452771 0.539373 -0.16222209 -0.22337982 0.048729055 -0.30962402 -0.24310705 -0.057925444 -0.08747419 0.38970575 -0.3113003 -0.5860019 0.24794564 0.055070788 -0.17037222 0.06867292 0.25377566 -0.23918621 -0.22292048 -0.23054983 -0.2465656 0.17871319 0.039713953 0.3288126 0.05880992 -0.05330587 -0.017148053 -0.38302717 0.08248842 0.18047753 -0.37807363 -0.45607895 0.30358753 0.007822221 -0.19765142 0.22268042 0.18337178 0.07187251 0.019417612 -0.0056638387 0.35126078 -0.3789207 0.0063318852 0.06753893
پا 0.062317032 0.6029478 -0.7999455 -0.8258602 -0.32656622 -0.024622746 -0.29324967 0.021928882 -0.08812326 0.057571623 0.87755936 -1.1302141 0.19979712 -0.13338308 -1.008769 0.82904834 -0.7095919 -0.021180704 -0.39299428 -0.344064 -0.43356708 0.18664598 -0.57240355 0.95305747 0.13900189 -0.5960307 0.12148201 -0.06527006 0.1346138 0.07805636 -0.7865338 -0.80707216 -1.0363858 0.14464408 -0.3573164 -0.40193188 0.055314325 0.35246432 0.5581038 -0.9153861 -0.674579 1.1130611 0.35823292 -0.7205956 -0.6391692 0.4675589 -0.007823378 -0.3534597 -0.6777991 -0.21775818 0.4527167 -0.23448122 0.25300232 -0.01960993 0.054464255 0.337236 0.06887983 0.56458765 -0.60245365 -0.11048334 -0.23039432 0.52347636 0.7625295 -0.26786327 -0.030648213 0.43888164 0.59779924 -0.084841356 0.7396952 0.97046417 0.09833447 -0.89624393 -0.49900725 0.1303031 0.25640082 0.6257412 0.38134807 0.4485424 -0.37239784 0.06965272 0.36532438 0.819191 0.19068584 -0.88554996 0.20553431 0.43902776 -0.4060971 0.22582047 0.6949468 0.22998038 0.2039229 0.3899326 -0.10875495 -0.79996437 -0.649552 -0.8219156 1.1944922 -0.3547262 0.34149557 0.4026396
می‌دارند 0.078672044 -0.23124984 0.8453609 -1.2756139 -1.0584027 -0.46423578 1.250328 1.2063224 0.069887064 -0.012800328 1.0837196 0.14103942 -0.24770951 -0.54252213 -0.8997228 1.0692825 -0.6595416 -0.3122252 -0.12554511 -0.17161047 0.35099313 -0.19555245 0.9772096 0.36232397 0.21562141 0.3494259 0.24060091 -0.10118435 0.9579495 -0.07243482 0.117800616 0.21537843 -0.67214876 -0.29298672 0.050662536 -0.15569046 -0.26924285 0.60525763 0.67966026 -0.70362437 -0.45495665 -0.25805894 -0.2200405 -0.71329737 0.20465894 -0.5986455 0.13966148 -1.3497146 -0.145953 0.04921612 0.026842862 -0.5491309 -1.0825552 0.6566949 0.5190345 0.24298686 0.21169682 0.2920703 -0.5345069 -0.34454593 -0.3763382 0.11838705 1.000288 -0.12803346 0.36035725 1.4034567 0.17768107 0.017460959 0.96099454 -0.09578462 -0.7747775 0.6454424 0.95578176 0.11780705 0.9609951 -0.2595666 0.3183524 -0.11063027 0.23297429 0.4812841 -0.56414765 -0.09891875 -0.079195715 -0.6994518 -0.3451542 -0.6174238 -0.40449983 -0.54337287 0.8382635 -0.010425036 0.23200475 -0.05544275 1.2009845 0.27676407 -0.9672076 -0.7794605 0.26157144 -0.7749542 0.89051354 0.091196984
آنچه 0.16048196 0.04289048 0.0129761025 -0.3353417 0.18183358 -0.60938746 -0.023511788 0.0834913 0.68227804 -0.25513244 0.6013784 -0.7040128 -0.39918363 -0.3763269 -0.0979958 0.15457356 -0.294143 0.19247481 -0.29248878 0.16190949 0.054914963 0.3075614 0.09628703 -0.032209106 -0.15817128 -0.4898652 0.3143713 -0.06758449 -0.18033992 -0.09926914 0.3286055 0.06318155 -0.15732032 -0.27501753 -0.31367388 -0.04137457 0.25632304 0.10673015 0.2535019 -0.06430303 0.29855877 -0.42354345 0.5734955 -0.0017245703 0.14772627 -0.0050915177 -0.21564248 -0.1418198 0.04392676 0.058854565 0.22012535 0.011347969 -0.21616207 -0.5559205 -0.17011309 0.5488946 0.29885125 0.4692805 0.29478106 -0.2661228 -0.3276787 -0.27562717 -0.12252136 -0.107899874 0.44180766 0.10475192 -0.20238578 -0.18372007 -0.35497943 0.2368394 -0.18751249 -0.112667255 -0.29795885 0.014834387 0.39185834 0.31527933 0.1564186 -0.13298984 0.008495429 0.078432046 -0.092782274 -0.09286893 0.17664082 -0.77329975 0.2509067 0.07231254 0.06387539 -0.4396861 0.4217057 0.14475706 -0.10756567 0.16607866 0.15739451 -0.042831495 -0.20991592 -0.010083703 -0.26826438 -0.015426141 -0.18513015 -0.15394829
ایشان -0.32698047 0.65888375 -0.1955565 -0.16270351 -0.36831722 -0.14023243 -0.18067084 0.26100934 0.07222455 -0.2610287 0.24549676 -0.09510459 -0.17388748 -0.41676775 -0.19556013 -0.061062805 -0.039420426 0.02362289 -0.09859445 -0.3304651 0.1731618 -0.23444894 0.3318387 -0.18903989 0.6464747 0.20864715 0.26418963 -0.034776162 0.9164477 0.26312035 0.3605379 0.046748847 0.6543478 -0.15509258 -0.27770257 0.19238588 -0.22674826 0.06851249 0.17420593 -0.37534508 0.24480103 0.18141775 -0.2538186 0.25716335 0.0033356927 0.14737576 0.1714731 -0.023038851 -0.4771143 0.25507322 -0.14925118 0.027095566 -0.7967301 -0.13363478 -0.046718672 0.5435621 0.007277066 0.021905903 -0.118058406 -0.019839173 0.37205166 0.18355668 0.008741232 0.37044436 0.28519574 0.12703873 0.124521434 -0.44884855 -0.079791665 -0.123641096 -0.16414922 -0.5442604 0.12814718 0.20796564 0.29275545 -0.015675392 -0.06019812 0.17761315 0.2724339 -0.20883535 0.18493675 0.58107597 -0.105155684 -0.31839615 0.23973139 0.24153732 0.17186013 0.11803109 0.09311411 -0.114574805 -0.4725406 0.2610343 0.5571207 0.18533342 -0.11062824 0.059583228 0.028636584 -0.41083962 -0.06966033 0.39226836
روزی 0.057382602 -0.25536045 0.059097286 0.43796062 -0.71155584 -0.10423782 0.35336736 0.3224082 -0.1387438 0.051878978 -0.37312442 -0.2772493 -0.058439717 0.03935645 0.33198833 0.55369794 -0.51687783 0.017123077 -0.24507046 -0.14727668 -0.043944955 0.1427826 0.26992998 0.4824251 0.5142344 -0.8924555 -0.12488965 -0.117424324 0.009367659 -0.67955345 0.6877703 0.15060426 0.22716773 -0.17241693 -0.12023804 -0.1840829 -0.3578829 -0.7421975 -0.62302506 -0.7178778 -0.08970233 0.32073355 0.024452757 0.1581892 -0.30021077 -0.08654634 -0.2786429 -0.42832905 -0.46155104 0.788012 0.14904295 0.23207243 -0.2803542 -0.03120926 -0.029644698 -0.20138 -0.3634114 0.5911275 -0.2963827 -0.43866307 0.08124697 -0.008718472 0.30213153 0.3920337 -0.1812668 0.21765906 -0.18865666 0.59125817 -0.41043013 0.27171078 0.7820923 -0.34573045 0.1830421 -0.17386942 0.13532266 0.943728 0.35043246 0.4040848 0.52315885 0.028287267 -0.083026476 0.35461327 -0.30606475 -0.5788504 0.4669655 -0.07744654 -0.98955876 -0.6950021 -0.19574519 0.16952688 0.40738377 0.14146973 0.29604945 0.029253762 -0.08024815 0.03568461 0.12785028 -0.013471018 0.26122618 0.4736383
داده‌ایم 0.4696626 -0.82523304 0.8281684 0.098994985 0.878403 -0.35044822 -0.3853008 1.0131 -0.019146454 0.7135286 0.047412403 -0.22481485 -0.22082482 -0.28367072 -0.7425455 1.2622043 0.08801633 0.079167284 -0.68494576 -0.40155926 0.2527002 -0.68830717 0.87014 0.106306106 0.12126219 -1.2878114 0.076139174 0.02653892 0.7324712 0.14265133 -0.405343 -0.39072868 0.5842865 0.12106704 -0.36543766 -0.23264566 0.15672088 -0.21690148 -1.1307849 -0.7085179 1.2269167 -0.51025194 0.29624996 0.037911616 -0.8402807 -0.67309976 0.69216406 -0.018869985 -0.3495439 0.37502605 -0.11475106 -0.28494358 -0.07844387 -0.42927775 0.813149 -0.30659795 -0.16523597 0.34210038 0.07906446 -0.5672133 -0.3617187 0.38618433 0.78345674 -0.52161723 0.40921187 0.7640276 0.052047748 -0.15475456 0.13531731 0.5721219 0.47254434 -0.75586164 -0.7453791 0.16652282 -0.20098835 0.8214191 0.717644 1.0457798 0.03468807 -0.275676 -0.11209679 0.5286021 -0.074572556 -1.1103574 -0.040116668 -0.27651998 -0.56834185 -0.6195308 1.1721534 -0.03790297 0.5487963 -0.18521474 0.54660666 0.1068297 -0.5710233 0.05230265 0.6371245 -1.0928173 0.80675566 0.016792549
انفاق -0.14208646 -0.6435361 1.1330992 0.34779716 -0.28819445 -0.3136727 -0.19866432 0.7093748 -0.64315337 0.09091007 -0.021485114 -0.8240129 -0.7432281 -1.0262257 0.7080712 0.21187173 -0.58839786 -0.27306327 -1.1591102 0.12180858 0.056353047 -0.68618655 0.3259901 0.38242948 -0.00373313 0.099292666 0.6066717 -0.51564157 0.570886 0.60674745 -0.12827496 -0.52801853 0.39117986 -0.16542718 0.18666069 0.16069908 -0.4884449 -0.102343746 0.8032497 -0.5311222 0.29918346 -0.26869005 0.696642 0.01984264 -0.54520607 -0.02851638 0.21820082 -0.3254782 -0.7332251 0.3124585 -0.3308938 -0.24660595 0.4299831 -0.25057408 0.25473168 0.26668036 0.21723887 0.99693644 0.31601685 0.3842544 0.18190691 0.6363831 0.52369964 -0.12012676 0.5822327 0.16749297 0.31298727 0.46766677 -0.59421885 0.72816306 -0.27122214 -0.48915136 -0.26936316 -0.6148377 0.47561446 0.58788663 0.1075592 -0.3582566 0.23964615 0.23534673 -0.1716672 0.07787544 -0.5175173 -0.99081546 -0.61645204 -0.6899909 -0.17656285 0.002051171 -0.35949987 -0.35618973 -0.2853107 0.37693137 0.47330883 -0.47736487 -0.22372377 -0.42435005 0.62161565 -0.46195903 0.11566719 0.15608011
می‌کنند -0.76402926 -0.61554456 -0.30288643 -0.6402726 -0.26836127 -0.6422822 -0.73615116 0.7748552 0.10013365 0.3459342 0.13275632 0.3667642 -0.44087067 -0.7474678 -0.29547417 0.2842452 -0.85979027 -0.6052951 -0.491032 0.92209095 0.16499305 -0.46991894 -0.018532911 0.38582397 0.03601611 0.5676087 0.04000814 -0.33759162 0.008850892 0.26565352 0.18609752 0.2852947 0.28087917 0.13495207 -0.10542377 0.12230172 -0.050968938 0.35897762 0.43244416 -0.6179495 0.020783857 -0.30175385 -0.38751003 0.08927042 -0.3712116 0.008677335 -0.5680902 -0.25219235 -0.07004246 -0.19199625 0.09735631 -0.039960615 -0.5880866 0.027638672 -0.23762244 0.13394175 0.03514854 0.3607125 0.22505243 -0.58756715 -0.049979288 -0.20554292 0.5392618 -0.45791405 -0.20811649 -0.0763314 -0.19628161 -0.11997569 0.8980529 0.17900288 0.1834247 -0.55951834 0.36559424 0.0063319127 0.22594807 0.4489368 -0.071384914 0.02418997 0.017921226 -0.073087506 -0.17723218 -0.13736413 -0.6828054 -0.7271412 0.1526485 -0.03589305 0.040557995 0.2860211 0.44608718 -0.43897706 0.22157916 -0.14319898 -0.025681006 -0.46912053 -0.27676746 -0.41645607 0.34796995 -0.28428274 0.31001166 -0.37378383
بدانچه 0.07297908 -0.004220586 -0.50855297 -1.4924413 -0.35620052 -0.73815936 0.24960612 1.0428432 0.5579587 -1.1317714 1.4027334 0.39829296 0.18804717 -0.25677007 0.19306254 0.053437438 0.9376487 -0.32105127 -0.6238369 -0.54245174 -0.26638272 -0.46086702 0.29077598 0.39311484 -0.55088794 -0.43593866 0.34415683 -0.28595895 0.06597705 0.51820207 0.99284786 -0.55174994 -0.25802922 -0.0708796 -0.182561 0.5313671 -0.22383714 -0.05555422 0.15678324 0.25422505 1.087348 0.11322049 -0.072981715 -0.99143827 0.8746827 -0.23495649 -0.5713811 -0.1333959 -0.39566725 -0.048660412 0.16804329 -0.6146806 0.933972 0.21548294 -0.09792338 0.19345365 -0.07445972 0.36287808 0.10489323 -0.088068984 0.021896208 -0.067814425 -0.22873116 -0.752814 0.12696588 0.36002657 0.15053235 -0.60899687 -0.19937329 0.57410306 0.69669384 -0.23297119 0.1241357 0.09590186 -0.02153174 -0.81718886 0.71291655 0.1973041 -0.0027075894 0.37309775 -0.01811731 0.43644494 0.30044445 -1.5051196 -0.9350407 0.24260907 0.49211463 -1.1241652 -0.74989 -0.77548236 -0.33081967 0.2565515 0.36190116 0.15493122 -0.40320322 -0.17969725 0.80824196 -0.80041426 -0.15102096 -0.029468585
سوی 0.16833644 0.3601008 0.32883027 -0.27438003 -0.30601993 -0.564981 0.20706257 -0.026217889 0.04649604 -0.9213909 0.049622748 0.17423706 -0.07664964 0.170106 0.008867086 -0.02863125 -0.387541 0.21014357 -0.1978676 0.09975577 -0.065378286 0.019718992 0.21392854 0.52197886 -0.123553805 -0.1979231 0.43467832 -0.10742285 0.4429095 0.04718281 0.15913938 -0.15341745 -1.0357496 0.1397283 0.036759723 -0.03704891 0.87586063 0.25851932 -0.025974441 -0.673293 0.25297427 0.37794688 -0.13854194 0.28073323 -0.09429282 -0.022114618 0.42017332 0.17465217 -0.32484746 0.113561444 0.39164746 0.18690673 -0.24269146 0.24128929 -0.095417336 0.4511846 -0.31831226 0.17128354 -0.29595137 0.4628307 -0.23972802 0.16976738 -0.29504925 0.10136778 -0.12992075 0.19847159 0.18327312 0.123567715 0.082287356 -0.49961972 0.75930715 -0.0628438 -0.48792142 0.40511283 -0.090998 -0.90742874 0.7173833 -0.11847894 -0.3383657 -0.17894505 0.20524363 -0.51320636 -0.22242746 0.022062093 -0.4245494 0.2575898 -0.08299138 -0.35968888 0.23392521 0.14425607 0.20731683 0.20411278 -0.04175638 -0.05177882 0.2674691 -0.6184995 0.20785964 -0.35455912 0.64066386 0.019488081
فرود -0.107954316 -0.8467829 -0.55449176 -0.653341 0.20072304 -0.33127534 0.34636116 -0.051120285 -0.38093027 -0.87744075 0.12822197 0.5755707 0.20534477 -0.8634169 0.8184033 0.61370564 0.24291502 0.380185 -0.20170611 0.20789938 0.8000478 -0.52890044 0.61433935 0.33773193 -0.49842864 -0.3379983 -0.6386224 -0.27209997 0.38885307 -0.053478867 0.18079817 -0.06514459 -0.1806375 -0.5523327 0.48435858 -0.13679495 0.24303143 -0.44776878 -0.35150194 -0.7043268 0.6164491 0.8447164 -0.0051965527 -0.14249189 -0.34552094 -0.02505472 0.5626071 0.30424985 0.5432394 0.0322683 -0.025816532 -0.16710386 0.57119805 -0.23082183 0.3431943 0.46859807 -0.50889564 0.6939992 0.3778654 -0.37023136 -0.29028177 0.3432493 -0.93455917 -0.82472533 -0.6166256 0.16539027 0.4442172 0.5544096 0.012697833 -0.15532157 1.2286844 -0.17993374 -1.0307916 -0.13767776 0.402997 -0.26869017 0.11699021 0.008074194 0.79832083 -0.083519265 0.5979059 0.4183595 -0.14870675 0.3060598 0.34829155 0.7551189 -0.27126902 -0.70681953 0.3758903 -0.22782208 -0.23770861 0.35420734 0.30868098 -0.30255184 0.43652228 0.20368505 0.9202865 -0.42295662 0.26150993 0.19014856
آمده 0.22381786 -0.3119185 -0.29421455 -0.7975266 -0.1807885 -0.41123912 0.66102237 0.16975392 -0.86937064 -0.36215973 0.48880193 0.48287055 0.38842425 0.40505418 0.7854562 0.023381477 0.18413642 0.78766274 -0.38614544 -0.27258873 -1.2193373 0.8481832 0.49996242 0.2517177 0.35841164 -0.3857112 -0.4913094 -0.2234181 0.6431434 -0.6909347 1.030812 -0.70787823 -0.25849783 -0.1364651 -0.54888815 0.9122357 0.6670714 1.1221793 0.80832684 0.06558066 0.79248935 0.20544143 -0.08569796 0.76302457 -0.35743925 -0.5366487 -0.21825048 -1.15366 0.37107405 -0.44626054 0.5595393 -0.6695137 0.4707827 0.92684156 -0.23535174 0.66918695 -0.62616646 0.8102828 0.9378394 -0.26932183 -0.20346424 0.59891933 -0.64101803 -0.51936644 -0.043842167 0.5218234 0.27015004 -0.3171218 -1.41694 -0.27782395 0.58248615 -0.46593112 -0.50119436 0.7696096 -0.14769733 -0.582403 0.057733025 -0.24580236 0.27915215 0.18934041 -0.17378268 -0.6844679 -0.41974798 0.06826337 0.10974255 0.8468832 0.05896252 -0.54334366 0.56099045 -0.03933133 0.31384835 -0.0399041 -0.086731255 -0.5884681 -0.6785294 0.22537887 -0.09991089 -1.1258448 -0.13627136 -0.35023677
پیش 0.099465765 0.1918136 0.19764762 -0.418209 0.448509 -0.6973498 -0.2076609 0.6010747 -0.03150234 -0.2471248 0.12250098 -0.27611682 0.0771057 -0.5219602 0.31422418 -0.0771002 0.13235597 0.10104396 -0.2172955 -0.12971638 -0.015537678 -0.3172508 0.30780423 -0.10508218 0.11171534 -0.31598735 0.21310629 -0.40155968 0.18050328 0.29274374 0.4078179 0.027403794 -0.45530024 0.26927346 0.9193975 0.6316642 -0.20940778 0.038549438 -0.30325234 0.06281749 -0.5658485 0.7351722 0.19800086 0.5118557 -0.78751 -0.3564354 0.2949486 -0.04763483 -0.3836977 0.019426499 0.30363795 0.038361166 -0.30374596 -0.1209202 -0.007563624 0.04130128 -0.34066573 0.20225544 -0.64358073 -0.033516277 0.27439007 0.48794237 0.003456852 0.39653963 0.0073357117 0.19552249 -0.11421911 0.068047 -0.17947923 0.115745686 0.39705414 -0.32777905 0.4002043 0.88803554 -0.2535677 -0.16610561 -0.28493312 -0.37438306 0.007116485 0.25503334 -0.20350091 -0.29398775 -0.5929838 0.24904169 0.15833612 0.037932076 -0.055664785 -0.6392055 0.124711476 -0.061018366 0.14673918 0.54491156 0.31572023 0.0062122406 -0.17085819 -0.17874597 -0.4050952 -0.80183715 0.14135264 0.23417139
نازل -0.32247913 -0.46555805 -0.19003549 0.085793406 -0.17465155 -0.82780075 0.021738114 -0.20751105 0.71450025 0.119227335 0.7972297 0.00711552 -0.34567133 -0.7025728 0.88729113 0.09892208 -0.13954705 0.9366278 -0.5336183 0.297558 0.05495794 0.41982758 0.40987787 0.7136811 0.35894468 -0.5466149 0.2654524 0.10748643 0.06492397 0.19942616 -0.18870065 -0.75259393 -0.04986594 -0.078566685 -0.34544128 0.19420607 0.09089834 -0.11479199 -1.0245966 0.6578998 1.0768542 0.4864458 -0.5920171 -0.19344293 -0.6694692 -0.29388064 0.2881112 -0.33947158 0.78154427 -0.7449556 0.024071997 -1.115412 -0.39306286 0.11903238 -0.0106623005 0.9220207 -0.2225015 -0.048389357 -0.072088815 0.26758295 -0.51853555 0.1445596 -0.6526846 0.30534256 -0.3288072 0.18707651 -0.061051477 -0.4005992 -0.19389169 0.028563602 0.396604 0.23250835 -0.43200493 0.5445225 0.4989111 -0.40493432 0.4238381 -0.5376792 0.09804686 -0.10207828 0.36362982 0.07667324 -0.45724553 -0.48366523 -0.2579304 0.24158531 -0.16593353 -0.430721 0.0031061857 0.091128774 -0.6754603 0.58610123 -0.07968122 -0.10277458 0.09482432 0.31265622 0.73717594 -0.42742878 0.797348 -0.5348948
شده_است -0.72075677 -0.5553132 0.24642397 -0.30846593 0.18316546 -0.11041607 0.19079746 -0.5395599 0.14292912 -0.08516314 -0.2143164 0.37253278 -0.13600497 -0.64715403 0.4257497 0.6686968 0.041666973 -0.012719673 -0.40173304 -0.38261053 -0.44236755 -0.2541019 -0.48500255 -0.06703463 0.6658511 0.06618054 -0.21499994 -0.5424836 0.14324039 0.15116905 0.5655623 0.7811485 0.15802042 -0.14472765 0.06336913 -0.34772706 0.16752884 0.10840365 0.016024793 0.24804017 0.2534312 0.3797378 0.21608698 -0.043086134 -0.97949713 0.19263932 -0.055832926 -0.49040833 0.4631672 0.28220645 0.61358386 -0.7006835 -0.10984455 0.15439203 0.24040198 1.2765182 0.10360394 0.3303797 0.625573 -0.18902725 -0.1876976 0.017514357 -0.19142458 0.1243364 -0.093896925 0.20251448 -0.0640005 -0.33634785 0.55249375 -0.78053856 0.3536457 0.7153692 0.19546972 1.4650753 0.27356637 -0.20060356 -0.25133955 -0.29588014 -0.13180126 -1.1268903 -0.14059207 -0.0029204155 -0.53068274 -0.028694972 0.1871426 -0.15930535 -1.1216705 0.29383397 0.6163288 0.021936651 0.6553433 0.0681941 0.9674908 -0.42246008 0.3185048 0.5890371 -0.09033068 -0.49110547 0.4550376 -1.1037595
آنانند 0.4156265 0.45228645 0.39701566 -0.24520877 -0.9311943 -0.53701115 -0.09129043 0.40518525 0.052238837 0.7305653 0.1837458 0.03593599 0.14344564 -1.5300559 -0.5085657 0.26237822 0.069836624 1.2496564 -0.5016489 0.020827157 -1.0812325 -0.19602834 0.30069643 0.076266184 -0.5349152 -0.4522327 -0.20667595 0.82959026 -0.83274484 1.2338738 0.48196495 0.14972164 0.025354577 0.033840917 -0.39072433 0.21195848 -0.66648793 0.14592469 0.34418926 -0.21845393 -0.115774 -0.48177224 -0.28965828 0.79837 -0.41864488 -0.57560575 0.09581094 0.14621569 -0.19141638 1.1289136 0.18941358 0.96219504 -0.71776074 0.8335535 -0.21048474 -0.27936873 -0.7756224 0.8122026 0.021720953 -0.6045643 -0.42992857 -0.34146613 0.64837235 0.074909724 0.10880807 0.5115938 0.6319878 0.23142405 0.33424133 -0.18420677 0.2726222 -0.30760932 0.5110151 0.39145115 -0.019689644 0.5659425 0.081423275 0.1372668 -0.7248998 -0.47280133 0.40009293 0.4933468 -1.076433 -0.84401053 0.25894177 0.7310115 -0.42943656 1.3095543 -0.85917854 -0.6008466 -0.08759223 0.21234812 -0.55068165 0.04139752 -0.47972307 0.91893697 0.5333062 -0.17230944 1.0460571 -0.32690662
آخرت 0.2578733 1.0131797 -0.051299218 0.37996233 0.21596292 0.037220486 -1.336126 0.78787386 0.14169094 -0.4821817 -0.053112812 -0.59744686 0.5921119 0.08242974 0.5027342 0.24309841 -0.0604519 0.7344177 -0.21881069 0.42890766 0.086810105 -0.3922482 0.29585007 -0.05124294 0.46025297 -0.045721292 -0.41184816 0.9804506 0.71674824 0.34114575 0.111018494 -0.37067774 -0.51685065 -0.057593137 -0.26183462 0.037483495 -0.6814818 0.3133169 0.8266465 -0.118243344 0.13297625 -0.685335 -0.076863356 0.05370292 -0.018245013 -0.53147376 -0.50869954 -0.46761763 0.36766082 -0.12693484 0.7899556 0.28184015 -0.19438289 0.52844405 -0.3477372 -0.331944 -0.35324907 -0.89186674 0.38513482 -0.24959567 0.35051814 0.5286549 0.106222495 0.28411037 -0.04641727 -0.31980756 0.24116436 -0.22891387 0.033802744 -0.4527324 0.17399108 -0.5429314 0.055628773 0.04102392 0.54500484 1.1848941 0.1110562 1.0738056 0.3067079 0.32599318 0.022321949 -0.17144454 -0.55411214 -0.080750234 0.007598576 -0.7772338 -0.76608783 0.21449572 0.0360955 -0.41308868 0.61074567 0.3500702 0.96781635 -0.18833305 -0.40539488 -0.12969244 0.25778776 -0.5750028 0.05252467 0.25726643
یقین 0.17756487 0.3240602 0.06316562 -0.2699581 -0.3249704 -0.596035 -0.33541694 0.2676078 0.18437052 0.4874564 0.27623436 -0.30879262 0.100641124 -0.7935216 0.3971966 0.080956034 0.5007744 0.5825808 -0.096127324 -0.464375 0.0847847 0.19989754 0.38265043 1.1577504 0.81618226 -0.22269015 -0.15278266 -0.07476409 0.67775494 0.26215962 -0.496354 -0.5016043 0.6018443 -0.32080486 0.15504968 -0.12804681 0.14334725 0.23814842 -0.46909854 -0.5006113 0.8800445 -0.2646822 0.193647 0.4459482 0.22196199 0.07448367 -0.6451653 -0.26203245 -0.14125425 0.21106628 0.73721075 -0.0108639095 0.07781838 -0.021564845 -0.61885 -0.82628024 -0.39965385 0.4413123 0.7023359 -0.12230197 -0.3397854 0.4263091 -0.2848781 -0.4994205 -0.06735548 0.2544325 0.88853574 -0.25522983 -0.60758615 -1.044222 0.64437443 -0.4503043 0.2699689 0.13958952 -0.14741185 -0.7309765 -0.05153746 -0.1001392 -0.5972356 -0.75392306 0.5594377 0.24434765 -0.19664507 -0.6085207 0.12841791 -0.599549 -0.29553872 0.7042967 0.6181083 0.47653392 -0.20092347 0.74599606 -0.29003283 0.12514703 -0.51082283 -0.45951393 0.025666432 -1.0878309 -0.08632708 -0.33252546
دارند -0.11305866 0.120308556 0.25410506 -0.19874807 -1.2330956 -0.15303063 -0.108298466 0.14671698 -0.02144089 0.39626893 0.56757396 0.24702483 -0.3570876 -0.613483 0.59169173 0.17218278 0.18797842 0.314519 -0.9005249 0.18621631 -0.3133211 0.29076633 0.46775576 -0.5138008 0.58787817 0.5161871 0.62089705 -0.06843875 -0.09952016 -0.094460696 0.39570424 -0.5753094 -0.5652467 0.108865455 -0.88320875 0.87631214 -0.5224723 0.44597685 0.029545154 -0.3350154 0.17155781 -0.29940063 -0.30848452 -0.12180114 -0.15571532 -0.52383375 -0.5714287 -0.79895407 -0.009602381 -0.19517413 0.5780874 -0.75537175 0.0990068 -0.21912566 0.5689803 0.7233725 0.048924 0.20280913 -0.23031011 0.18027343 -0.4317436 0.402017 0.5730124 -0.8234311 -0.095561594 -0.023337694 -0.18999739 -0.6114193 -0.21212703 -0.5725947 -0.04453583 -0.37980285 0.7714033 0.056534972 0.24055366 0.73605376 -0.08668242 0.051267963 -0.30654538 -0.23636112 -0.011823577 -0.052758288 -0.08182694 0.16514435 -0.20787486 -0.08844608 -0.5546345 -0.009425022 -0.134115 0.1331879 0.15991108 0.42863005 0.25017676 0.057248395 0.21178742 -0.7117578 0.5957107 -1.0455843 0.45108604 -0.58917576
برخوردار 0.5391558 -0.7208721 -0.8259419 0.11295706 0.42272118 0.5756006 0.6609225 1.0652698 0.5606826 -0.06317925 -0.13678661 -0.8920619 0.19181688 1.2501727 -0.13660616 0.05824214 0.27719176 0.5943221 -0.4929329 -0.023050332 0.40644544 -0.45132798 0.28482583 0.88573205 0.97780603 -1.0292068 0.54265773 -0.43893313 -0.04592249 -0.30273393 -0.38405895 -0.4759438 0.07381776 -0.088496216 0.21121986 0.22672445 0.40039665 0.16566223 0.32346085 -0.42310804 -0.73665833 -0.0868339 -0.4807522 0.8943777 -0.41438556 -0.3576275 0.8705692 0.1073559 0.31457213 1.4078636 0.50442255 -0.37362465 -0.89813316 -0.6309063 -0.066691905 0.11057612 0.45763206 0.11538982 -0.09033125 -0.77436954 1.0117607 -0.45840773 -1.097822 0.16569598 0.07685147 1.1313411 -0.29899958 0.06826321 -0.8546553 0.4286554 0.7800023 -0.64398485 0.092992924 1.1030443 0.17136368 0.83249557 0.50097996 -0.2028577 -0.27601084 0.39512947 -0.057512295 0.09237831 -0.16007023 -0.20919445 1.1916368 0.4213371 -0.31688184 0.56909454 -0.5434922 0.66672647 0.6244457 0.687809 0.4163575 0.56190455 0.59725475 0.46153072 -0.063624375 -0.3846949 0.21311784 -0.24517858
همان 0.190061 -0.17562743 0.40379566 -0.14080486 0.40675718 0.2838329 -0.5532506 0.1155228 0.2599932 -0.07826135 -0.37122723 0.045496207 -0.3546423 -0.69814646 0.27734038 -0.21607628 -0.0010699482 -0.19977607 0.20065704 0.8768172 -0.93753797 -0.6983464 -0.03576344 -0.23789254 -0.017105512 0.051993806 -0.32556373 0.27950028 -0.34287986 0.39947057 0.14013208 0.3041487 -0.8101684 -0.11361245 -0.22461094 -0.14002821 -0.1760695 -0.06588391 0.21020585 0.099655844 0.270337 0.2629737 0.06894369 0.06716903 -0.7192742 -0.561542 -0.3266141 0.46922913 -0.018629896 0.25651047 0.5860395 -0.7606036 0.4623259 0.18453006 -0.37377033 0.543669 -0.019596796 -0.25635108 0.2723095 -0.7585303 0.6889568 -0.6663802 0.3286844 0.36859983 0.32852715 -0.027222738 0.40127438 -0.32972386 0.35595265 -0.07889785 0.011230919 0.31720683 -0.07525008 0.5925991 0.47100234 -0.31815067 0.5745406 0.6812034 0.14309362 0.6150594 -0.034964837 0.34208053 -0.12969303 -0.87333775 -0.32476914 -0.13000382 0.3033467 0.19337055 0.22587481 0.40433988 0.5430925 0.3523355 -0.29391497 0.34044725 -0.35291812 -0.59169227 0.12716292 -0.3872172 -0.21537793 0.34927365
رستگارانند -0.38311127 0.740284 0.7023746 -0.73396933 0.04373202 0.42056304 -0.87116635 0.86318064 -0.007970723 0.19750482 0.18921939 0.67530066 -0.10495462 -0.53200006 0.15283363 -0.38442653 0.42428192 -0.7360858 -0.697438 0.48646188 -0.36485612 0.18352488 0.24480566 -0.059511386 0.6363397 -0.7486405 0.44816357 -0.0065066894 0.21191752 -0.03385797 0.43644884 0.31046245 0.41226324 0.0417813 0.48261622 0.002342975 0.4884104 -0.053997308 0.40979248 -0.39690906 0.10833821 -0.35930812 -0.4724928 -0.22861196 -1.2594819 -0.15039727 0.2619636 0.06271873 -0.16132379 0.5920164 0.6613777 -0.8137569 0.3186563 -0.0689617 -0.1886744 0.2594807 -0.51313496 -0.0711347 -0.039751288 0.09676063 0.23167728 -0.558613 0.9083768 -0.52840364 -0.17884986 0.32509753 0.09164788 0.098150685 1.2943959 -1.6133732 0.43099314 0.5315763 0.9407529 0.10636012 -0.48890865 -0.45321462 -0.84554565 0.4180369 0.61488086 0.25907993 0.11914091 0.9512552 0.80789816 -0.39505208 -0.34768036 -0.14678319 -0.32534048 0.39080757 0.17973828 0.10771432 -0.108718604 0.8874297 0.2684577 0.27899754 -1.1979829 0.4428948 0.5267294 -1.4724195 0.57973963 -0.9932412
حقیقت -0.03347405 -0.09703581 0.2895385 -0.06120703 -0.30077 -0.85791606 0.18948802 0.031735856 0.34639972 0.043889407 -0.08401265 0.017929064 0.088150956 -0.5606408 0.37193328 0.17858574 0.019851476 0.003137818 -0.023410557 -0.08809095 -0.28939584 -0.038985327 0.52318645 0.766055 0.17817973 -0.97494173 -0.5925952 0.56025237 0.4930674 -0.33705103 -0.6389769 0.307205 -0.10314004 0.22970484 0.6827379 -0.1277291 0.37470284 -0.45841527 0.34776405 0.2740937 0.68196976 -0.25886518 0.15551694 0.45525622 -0.19058974 -0.0910727 -0.5108838 0.24562097 -0.014716637 0.12151361 0.15690276 -0.74502844 0.17670453 0.17666861 -0.22912353 -0.121572025 -0.006669144 0.5640228 0.5542188 -0.14611201 0.5230342 -0.3401509 -0.38320333 0.64899486 0.3323366 0.176817 -0.0155060105 -0.6070559 -0.098634146 -0.57249576 -0.1921009 -0.5819959 0.033965 0.16732833 0.16108982 0.24211547 -0.2544104 0.7294032 0.123953 0.10244357 0.30316105 -0.2961515 -0.36900136 -0.1731606 -0.13795665 0.035132892 -0.5982907 0.054535393 0.55720305 0.21763124 0.5225523 -0.36299375 0.38692385 0.51176816 -0.43230438 -0.28996196 -0.14853735 0.10713782 0.10254098 -0.27109277
کسانی -0.16562416 -0.05286871 0.10632554 -0.70508295 -0.9058358 -0.45987496 0.13087955 0.48413756 0.27831554 0.07063437 0.3768655 0.62005275 -0.4643741 -0.26259407 0.09627302 -0.08885121 0.26631275 0.0038273768 0.203965 -0.015558724 0.017259242 -0.12203851 0.9409263 -0.05792497 -0.33293083 -0.311399 -0.3809078 1.1714267 -0.32382417 0.26380107 -0.12572867 -0.45082995 0.24142286 0.11152185 0.10949081 0.3661406 -0.8164343 0.27196333 -0.11370885 0.4961421 0.13789032 0.28827327 -0.022836287 -0.024690995 0.014968278 -0.21691124 0.03412135 -0.19632167 -0.12772217 0.09173801 0.33658525 0.14903511 0.10444217 -0.28407732 -0.25423127 0.08343448 -0.12559967 0.4801492 -0.047971435 -0.2631109 0.1779219 0.07132467 0.25427327 -0.26623973 -0.14239551 -0.06895062 -0.21733598 -0.03810385 0.5159194 0.21801546 0.34823492 -0.06665044 0.17379819 -0.0035616844 0.008193712 0.2860775 -0.005977961 0.2538687 -0.34679276 -0.19785735 -0.46649426 0.09824795 -0.24777949 -0.91512537 -0.062100995 -0.2745402 -0.088129915 0.19327372 0.45653364 -0.15405068 0.06406848 0.2445563 0.37468117 -0.013860678 -0.7873762 0.22305062 -0.5709024 -0.069921546 0.4003093 -0.17892762
کفر 0.29064682 0.0547377 0.8260716 -0.9735092 -0.84260404 -0.26168263 0.10008415 0.017270328 -0.43769822 -0.33179724 -0.089320675 0.12704483 -0.58469135 -0.5997597 0.18788372 -0.35314983 0.09618179 0.2550714 0.072855376 -0.28383204 0.5775828 -0.88592285 0.5709933 0.49706563 0.06628641 -0.25076553 -0.60903674 0.39303067 0.2192767 0.45637023 0.6434236 -0.42959952 -0.0144014405 -0.2427503 0.39317387 -0.4993631 -0.5999479 0.3550418 0.32838717 0.14651026 -0.13976966 -0.19158702 0.38757315 0.21978821 -0.4213319 -0.265558 -0.21131217 0.39561552 0.0107496055 -0.0023952634 0.38489217 0.7224124 -0.09504896 0.13188972 -0.34918717 0.41395414 0.3926909 -0.31331643 -0.19835937 0.11981401 -0.059148338 -0.5902067 -0.60717195 0.014517884 0.86176234 -0.18618806 -0.3246031 -0.28398615 0.6104375 -0.8829968 0.102090806 -0.10675585 -0.16936626 0.23412614 0.13869119 0.45209137 -0.2513361 -0.24822986 -0.14554666 -0.5160924 -0.030412422 0.18556006 -0.011264058 -0.89405787 -0.09675952 0.024149952 -0.5774601 0.6358677 0.579855 -0.019084692 -0.056748513 0.2786803 0.36629054 -0.18093222 0.08293723 0.18721175 0.5095166 -0.13378471 0.12266389 0.5282526
ورزیدند 0.39191696 0.07864788 0.81574434 -0.7923749 -0.9162932 -0.20444211 -0.44393674 -0.039036438 -0.15570357 -0.04002342 -0.70786387 -0.29544687 0.13985294 -0.44888827 0.5586574 0.2890011 -0.24570067 -0.35102874 0.6864995 -0.4206552 0.73380077 -0.648072 0.45114335 0.45135468 -0.013041343 0.121175475 -0.55867773 1.1120071 -0.047657624 0.70919305 0.56860876 -0.44480827 -0.15738365 -0.00029920216 0.5036859 -0.3113275 -0.6318002 -0.12599254 0.96882904 -0.33297306 0.38643628 -0.11588798 0.078109704 0.42881978 -0.8166483 -0.6996918 0.00786842 0.63684285 -0.27981052 0.37222585 -0.030487405 0.27082455 -0.20207427 -0.2703212 -0.918095 0.7620255 0.6276342 -0.14673814 0.111791454 0.13141872 0.36263758 -0.04327637 -0.344101 -0.085634254 0.8441048 0.36780095 0.22881734 0.48996243 0.2663817 -0.97774136 -0.51034206 0.6884228 -0.22761849 0.1093654 0.8097272 0.18482105 -0.1866074 -0.011291302 -0.2019678 0.27045006 -0.583255 0.4007255 -0.33198965 -0.56838906 0.17900394 -0.16155322 -0.4568417 0.2154572 0.6006871 -0.048312556 0.02084394 0.27970827 0.20406918 0.0813068 -0.056743793 0.5432519 0.10935286 -0.42870075 0.26801285 0.44439527
چه 0.039528225 0.45189247 -0.33050287 -0.3419713 -0.77373266 -0.27098432 -0.44203427 0.14062013 0.1578193 -0.22179592 0.41107807 -0.37142128 -0.005334609 -0.13367328 1.5045028 -0.0046770996 -0.08296095 0.169319 -0.7881611 -0.5578796 -0.7755878 -0.09371925 -0.5119429 -0.1714009 -0.35361964 -0.20789386 -0.12058622 0.13348664 0.5730729 0.076392956 0.6182567 0.6329468 0.30729222 -0.037261285 -0.14436 -0.16077262 -0.53394765 -0.6831167 0.48235515 -0.28850305 -0.18446088 -0.30432948 0.30656648 0.14908527 -0.2712112 -0.12317474 0.27790216 -0.32646656 0.25863245 0.5140007 -0.19845401 -0.22546767 0.44089392 -0.010202097 0.3031617 0.5563257 -0.40418622 0.23456542 0.1758485 0.31295568 0.1626034 -0.09970289 0.41206342 -0.030116035 -0.3810084 -0.14511406 -0.18587685 0.6495456 0.002123749 -0.70600134 0.32199147 -0.34223664 -0.082807675 0.012716415 0.086230054 0.491899 -0.3052746 -0.48691902 -0.3056991 0.42764154 -0.39667287 0.46630967 0.13109162 -0.17819571 -0.069167875 0.06299878 0.11305527 -0.3164232 -0.09679835 0.33180037 -0.10211344 0.20877701 -0.050157167 0.16098402 -0.60014206 0.04999679 -0.36683512 0.06345928 -0.022539312 -0.17366049
دهی -0.22235723 -0.09604138 -0.3054098 -0.24794082 -0.04639121 -0.2253982 0.3939009 0.5718765 -0.3169797 -0.15631 0.041612733 0.17134391 -0.12686646 -0.5452619 0.8211524 0.43166682 -0.42786855 1.1517068 -0.36934918 -0.90843505 0.21532615 -0.5898585 1.0743622 0.49002066 0.6178209 -0.38907692 0.08808679 1.003358 -0.2611285 -0.69292855 1.5591608 -0.2878863 0.78454125 0.38232347 -0.15331918 -0.8802006 -0.2760341 0.41789094 0.58420724 -0.3783563 0.96084017 -0.0939496 0.20287691 -0.48131 -0.47772044 0.031513743 0.8803974 -0.047786083 0.4682172 0.65080905 -0.4485501 -0.76670164 -0.15537396 -0.903207 -0.3989699 1.1597089 0.66279644 0.3189581 -0.19162329 -0.094328 -0.22680622 1.0098399 -0.4316519 -0.21486692 0.5592288 1.0880526 -0.15976213 -0.5790957 0.956403 -0.96811527 -0.2836354 -0.7695904 -0.16185345 0.18140666 -0.38092697 0.88847154 0.45983362 0.037908472 0.30783316 -0.47553426 -0.05991947 0.26582676 -0.28019103 0.38150677 0.27899653 -0.15501966 -0.17284231 -0.07484664 0.13638335 -0.68697715 0.89015883 -0.32166892 -0.3220576 0.22255094 -1.2334905 0.2355414 0.025488988 -0.20836599 0.10300824 -0.91144645
یکسان -0.84147066 -0.605016 -0.18612106 0.10471064 0.4429404 -0.086325444 -1.4316314 0.57360363 0.57623285 -0.5108247 0.5800914 -0.1849132 -0.6351939 0.40016067 0.5465145 -0.325446 0.02030055 -1.2576594 -1.3029379 -0.29459992 -0.25274843 -0.7548466 0.33552834 -0.06284056 0.2403597 -0.10508366 -1.0552626 -1.2668815 0.37386912 0.42444283 0.13629921 0.25455463 0.15461695 0.08549264 -0.14179127 -0.67596644 0.3658852 0.42903134 -0.16493316 -0.9026216 0.5420936 -0.24837445 -0.3192215 -0.09444608 -0.25531858 -0.18996598 1.0547158 -0.284755 -0.14907235 0.6845208 -0.048686225 -0.6877991 0.03186072 -0.025529038 0.14791602 0.6021332 -0.22018851 0.92057675 -0.4627163 -0.12914145 0.8146984 0.18874775 -0.055556692 -1.5967522 -0.017904144 -0.2120638 -0.012243213 -0.14344081 0.93272495 -0.7605149 1.2250249 -1.0566567 0.78301895 -0.5562767 0.19100623 0.27493697 -0.45162562 0.23959586 -0.065694205 -0.0263489 -0.07215898 -0.09647853 -0.17218235 0.22704992 0.03794141 -0.19270769 -0.3301935 1.3893529 -0.41225895 -0.42293242 0.4423481 -0.07548135 0.05708119 0.8788501 -0.23358738 -0.23409301 -0.5426665 -0.3550199 0.26183736 -1.0068262
آن‌ها -0.06639201 0.18204185 -0.38038528 -0.43096566 -0.4463106 0.36403236 -0.063769616 0.19147348 0.2560285 -0.46234688 0.23119268 -0.19776641 -0.45747167 -0.20351426 -0.06742802 -0.54711354 -0.39886636 -0.06012058 -0.13912243 -0.30928567 0.04710794 -0.34427226 0.08454978 0.124627754 -0.17040163 0.264016 0.058694698 0.45245764 0.3795586 0.3335795 0.14825849 -0.14017001 -0.09614309 -0.24211912 -0.029388554 0.14358193 -0.099721685 0.122229554 -0.28819442 -0.17035031 -0.18965656 0.38259166 -0.21149865 0.33134437 0.16614993 -0.14734034 0.23773552 0.5490314 0.013171695 0.50409365 0.05788898 -0.48412496 -0.55052114 0.08662979 -0.18610555 0.23127362 0.19458446 -0.13211504 0.0064757983 0.24987784 0.2675844 0.42594454 0.22846884 0.11500833 0.31968302 0.36722562 0.2546977 -0.19909663 0.38755682 -0.059393506 0.23550093 -0.15701468 -0.23163973 0.20387457 0.56926244 0.52799636 -0.18437056 -0.1530164 0.07386125 0.3491151 0.16164692 0.23850575 -0.15384099 0.46836042 0.20186302 0.39365453 0.2544186 0.38293585 0.39607388 -0.53286695 0.30238718 -0.055997007 0.45114866 0.05557198 0.36149743 -0.32519656 0.2966462 -0.4575832 -0.38353536 -0.023123827
دل‌های -0.48891708 0.36035702 -0.31296298 -0.5958613 -0.5085045 -0.15061054 -0.7501156 0.41934955 1.0398633 0.046322294 0.01566115 -0.57972234 0.046619996 -0.3019687 0.11645076 0.33355087 0.43690217 0.13157551 0.3433202 -0.1267184 0.21071653 -0.44309926 0.43667278 1.2780347 0.7785935 -1.3367965 -0.6875675 -0.7993606 -0.5800091 -0.005396789 -0.5172487 -0.3022968 -0.5067854 -0.07115922 -0.2633992 0.10967534 0.10734717 -0.24999873 0.14697397 0.5669728 0.39757684 0.4838884 0.2096052 0.23954198 -0.45031327 -0.14578313 -0.031449776 -0.031012269 -0.04688833 -0.5788357 0.1732918 0.007462925 -0.49088928 -0.09881487 -0.31892836 0.33290985 0.40297213 -0.13921921 0.11072622 0.44679824 0.31869075 0.10843087 -0.99113125 -0.89840287 0.33249015 0.65611327 0.08899473 0.064488605 -0.3801599 0.4899199 -0.084726036 0.18282597 -0.06158253 -0.090061225 -0.07018257 0.47618088 -0.087713055 1.1519197 0.00510532 0.8538752 -0.0920086 0.150994 -0.6619928 -0.74435276 0.6456044 -0.16260873 -0.114594996 -0.099224016 0.2322607 0.32375714 0.27976304 -0.46906522 -0.046261806 0.22248977 -0.5146963 -0.02726039 -0.717596 -0.6926227 0.5319749 -0.29532632
مهر -0.02900661 0.7365427 -0.81925684 -0.49358058 -0.5327982 0.5618952 -0.16346787 0.81860113 0.9548204 -0.5669432 0.48032907 -0.27785042 -0.20607492 0.4692521 0.25424197 0.71971774 -0.03666433 0.23733939 1.066965 -0.18804999 0.5666216 -0.34404904 -0.7156701 0.9851478 0.8203956 0.11719072 0.17035007 -1.1372463 0.31548548 0.64346445 0.071312025 0.23289002 0.18869144 -0.2760839 0.34141713 0.030437106 0.19243558 0.10789219 0.51147795 -0.19824508 0.95736516 0.6330573 0.2820763 -0.21239533 0.13577987 -0.1662953 0.61040735 0.47375673 -0.30566174 0.5826783 0.68385774 -0.108241186 0.37228543 0.30628148 0.015900047 0.51377094 1.2870663 0.656386 -0.22699149 -1.3302382 0.54086834 0.6654919 -0.9012552 -0.3763923 0.7642237 0.13637458 -0.4410698 -0.07472937 1.1196259 -0.4479723 -1.2121598 -0.44346443 -0.06935986 0.4939473 0.80308187 0.29860008 -0.326448 1.0199119 0.05086908 -0.65341824 0.47518465 -0.91069734 -0.2565267 -1.3910519 0.45877442 1.2150933 -0.33645386 -0.9399055 0.41200432 -0.012779372 0.8758126 -0.0329481 0.16196427 -0.59634656 0.8275471 0.12606785 -0.31027994 -0.57521176 1.0597742 0.09999856
نهاده -0.8492219 0.5524518 -1.0766344 -0.30453545 0.055493347 -0.030233365 -0.38784403 1.1367996 0.6360545 -0.4965019 0.94673705 -0.13120902 -0.3103902 0.09550836 -0.36869085 0.6927263 0.20427991 1.0936679 0.7188115 0.1974453 0.032993276 -0.35507995 0.69789374 0.34269002 -0.9178033 -0.3652443 -0.7541407 -0.9480408 0.63020134 1.367984 -0.071027316 -0.007048685 0.7953292 -0.2858023 -0.7173409 -0.035691332 0.19698927 -0.7841199 0.21323979 -0.43427286 0.18102334 0.35266784 0.22559255 -0.03302025 -0.98758423 -0.5683349 1.4753197 1.0000948 0.15004213 0.72715485 1.0529953 -0.7974117 0.47044334 -0.047628444 -0.025324583 0.25138324 0.9737076 1.0613613 -0.18215781 0.87639993 -0.9407776 -1.3944218 0.6618368 -0.8092191 -0.26390994 -0.41654217 -0.006461817 -0.7879344 -0.4028339 -0.4894999 -0.07140535 0.8906383 0.3176234 0.08679915 -0.0030785226 0.7358385 -0.46070674 1.1595472 0.37066126 0.095519006 -0.17290837 -0.0033599285 -0.4062735 -0.45454562 0.75979006 0.63115096 0.16322333 -0.55462235 -0.78041494 -0.3347407 0.38847703 -0.4148151 0.47954804 -1.2613873 -0.47780856 -0.05694362 0.12326039 -0.8795228 0.63923603 -0.8831301
دیدگانشان 0.69692695 1.0832995 -0.31263083 -0.6609201 0.119951546 0.22427431 0.54643357 1.3516445 0.120060295 -0.8750542 0.46836653 -0.8862482 0.07921364 0.35585973 -0.0846042 0.030115716 0.37599945 0.1699078 0.29772046 0.47108275 0.8767893 0.17964981 0.26252687 0.7194027 0.047113962 -0.9468592 -0.17032288 0.0054834173 0.48826903 1.0983872 0.9343358 -0.8399688 0.55310374 -0.8088046 -0.2992477 -0.49474162 -0.8735596 0.17183785 0.5173536 -0.52691233 0.60928005 -0.31935847 0.15668556 0.79579735 0.30732194 -0.47138956 -0.848639 -0.09168207 -0.08222287 1.1861988 -1.2853699 -0.82034624 -0.8224372 -0.007984238 0.5260621 0.53500664 0.73738 0.5302313 0.66811556 0.020506267 0.98891985 0.32256594 -0.980193 -1.1277894 0.1070933 0.04469969 0.22230886 -0.6800874 0.36609733 -0.15481943 -0.6663995 -0.08569465 -0.27667806 0.7075447 0.3272402 0.8252475 -0.2301539 -0.46682942 0.44329774 -0.079570875 0.4176379 0.08653159 -0.073363885 -0.7458117 0.60671663 0.77930605 -0.98862296 -0.69930494 -0.8545862 -0.87674373 -0.42379177 -0.70985425 0.24978076 -0.8850848 -0.052266344 0.10979714 1.2332883 -0.5027135 0.6822827 0.43480211
عذابی -0.5684112 0.27585885 -0.0980016 -0.28552058 0.3173758 0.6289044 -0.005780207 0.2062661 -0.054925136 -0.4161194 0.90303355 0.44889587 0.28114322 0.30593446 0.2549866 0.110019 -0.25478745 0.33057237 0.099734895 -0.4072945 0.39292085 -0.30381027 0.19763869 0.10019389 0.47566327 -0.8156247 0.015269038 0.67266273 0.3023081 0.45064476 0.73487854 -0.52931786 0.63048655 0.294428 -0.5338079 -0.5047703 -0.5143545 -0.8198394 0.563722 0.2390316 -0.17026412 -0.3392459 0.5699066 0.015050516 -0.05612286 -0.16875656 -0.5098704 -0.5277942 -0.7339445 0.60862756 0.8525352 0.4572235 -0.43838575 0.46953708 -0.11409222 0.9577677 -0.5088791 0.30430377 -0.008000189 -0.30746686 -0.5876884 0.065199226 -0.57784414 -0.009725733 -0.13539253 0.78212184 -0.65045846 -0.49670961 -0.031320527 -0.7699546 0.9535582 -0.7230448 0.18260048 0.50228155 -0.08105537 0.078352794 -0.13570853 0.37364376 0.17926659 -0.050804056 0.26047337 -0.106809005 -0.9285055 -0.25841656 0.15677054 -0.618286 -0.44343966 -0.08111885 -0.6596036 -0.44748822 0.2533753 0.1070568 0.6717353 -0.6732755 0.40796202 1.187548 0.03482599 -0.65483177 -0.25565773 0.1409783
دردناک -1.1610984 0.9381361 -0.49217707 -0.12188066 0.025139457 0.21612804 -0.34741375 0.3917743 -0.047952402 -0.5042158 -0.05824357 0.6553456 0.15139544 -0.04947377 0.116956055 0.05799605 -0.37093237 0.43068755 0.25093883 -0.7933212 0.65569174 -0.90225816 0.41492558 0.74608487 0.49071696 -1.1210207 -0.56717825 0.56642014 0.3109874 -0.2134699 0.54244757 -0.84996176 1.1357056 0.66256285 0.22734825 -0.38016775 -0.5025332 -1.0617744 0.024764506 -0.49047473 0.57205456 -0.24048054 1.0187345 0.39076033 -0.61721575 -0.40743518 -0.56048304 -0.0571152 -0.51918447 0.8606597 -0.30876756 0.14230613 -0.8057506 0.90034294 -0.2537706 0.6769904 -0.9605313 1.117352 0.20262429 -0.9072649 -0.7807357 -0.77667487 -0.46304643 -0.4241379 0.12405093 0.55452716 0.32709938 0.39979598 0.24709502 -0.4705563 0.28374973 -0.84142065 0.7385983 0.38989738 0.1891798 0.34139863 -0.035586115 0.23059595 -0.1620587 0.81467146 -0.32383296 -0.2734019 -1.3687906 -0.14453822 0.26611644 0.37051958 -0.4657791 0.4166194 -1.0763545 -0.8790442 -0.17807192 0.69789094 0.5337637 0.44777653 0.2097811 1.7504935 -0.33145842 -0.68275994 -0.005764567 -0.37791955
برخی 0.22872658 -0.58333385 -0.19802387 -0.3560779 -0.58628094 0.50571674 -0.57750964 0.98003733 0.63945293 0.21519816 0.29709867 -0.31729424 0.25965348 -0.18280113 -0.1307081 -0.22947378 -0.44231123 1.1168063 -0.9550161 -0.04064531 0.4277807 -0.6722777 0.776079 0.698445 -0.3210216 0.52602977 0.113444135 0.44714016 -0.401256 -0.23931259 -0.38529244 -0.09649796 0.03745533 0.2248491 -0.6920185 1.1356251 0.11202398 0.44225702 0.045734607 -0.40431204 0.04486668 0.08641213 -0.18381241 -0.23855779 -0.0069771726 -0.9541454 0.42619613 0.42873684 0.43570945 0.5080747 -0.41332236 0.3586958 -0.25845993 -0.19836138 0.9743606 -0.0110794455 0.16326697 -0.03960846 -0.36254117 0.28923446 0.59458786 0.38713694 -0.38975975 -0.20451856 0.59212106 0.30483702 0.043966305 -0.6304788 -0.5574477 -0.095711455 0.25102648 -0.48775125 0.1977875 -0.524812 -0.23127863 -0.38759464 0.06286517 0.30347273 0.52967715 0.36829963 0.34964114 0.55108964 -0.40631756 -0.27324653 0.88189936 -0.0593379 -0.1813278 -0.8575838 0.27239555 0.24789035 1.0984786 -0.01942749 0.6455638 -0.38362968 0.14261332 0.2154511 0.07499632 -0.3331714 0.6166704 0.1634392
مردم 0.019331599 -0.21484832 -0.13766305 -0.5722857 -0.2094278 -0.058603875 0.4164529 0.050106246 -0.6744748 0.25535727 -0.012088825 -0.33241653 -0.052966077 0.09992393 0.27237496 0.034530073 -0.30246583 -0.35069183 -0.026230438 -0.104237154 0.30552837 0.027064182 0.69195473 0.26319194 0.13266887 0.5218715 -0.24104053 -0.42848238 0.24488999 0.2664703 -0.07816718 0.034058485 -0.26024085 0.08288158 -0.2136591 -0.5982492 -0.26793647 0.72504747 0.29813838 0.25969413 0.08880104 0.20272373 0.44246984 0.061293967 0.34923032 -0.26441926 0.067888565 0.07113393 0.29300135 0.20200148 -0.004994706 0.095258385 -0.14089474 -0.7660169 0.08575021 0.7139235 -0.4455251 0.25705662 0.622352 0.27940637 0.128212 0.17432323 0.1436477 0.28744817 0.061696082 0.49622163 0.003070917 0.21014847 0.4244062 -0.43806094 -0.37863368 0.03537268 0.2690633 -0.24822898 0.267782 0.21586739 0.1315867 0.041767064 0.53190887 0.64138544 0.47292337 0.32184675 0.14080372 -0.64740723 0.08610858 -0.2305835 0.17785446 -0.18706034 0.084166825 0.25806144 0.057552475 -0.02191419 0.30773592 0.06970639 -0.77482384 0.13315108 0.15318851 0.0017561808 -0.0007768514 0.04516821
می‌گویند -0.07290788 -0.5715624 -0.33938575 -0.10801942 0.019849395 -0.53821903 0.11056277 -0.039434753 0.11182496 -0.13086338 0.006692921 -0.26373544 -0.40101492 0.111872226 0.9594172 -0.12635574 0.5147919 0.16083497 -0.55592084 0.46214244 0.13373923 -0.38247457 0.4407573 0.40775907 -0.23463231 -0.13787706 -0.48192528 -0.12171473 -0.054210495 0.061742373 0.38830954 -0.5308735 -0.042833902 -0.40173405 -0.010646509 0.896006 -0.09592038 0.031026237 -0.48229396 0.09413895 0.0035536946 0.028458916 0.16489854 -0.15060703 -0.4303554 -0.9058969 0.7886591 -0.45088845 -0.52279407 0.023361512 -0.7956369 0.16046712 -1.1908956 0.50518346 -0.3211568 -0.064381026 0.24023916 0.09110941 0.031230815 -0.118415445 0.50371754 -0.51556635 0.0013076523 0.3209259 -0.0864874 -0.2513659 0.14234859 -0.39749426 0.3734308 -0.46677688 0.6388813 -0.33529106 0.50592875 -0.249052 0.47850892 0.017166026 0.38109675 0.067705706 -0.00924127 0.05169253 -0.09853977 0.54948735 0.16786419 -0.5927185 0.02181623 -0.7183029 0.10591439 -0.6285311 -0.11689504 -0.8173142 -0.072024144 0.32149795 0.15210801 -0.37067318 0.12776203 -0.38396397 0.11095983 -1.178554 -0.33569157 -0.18016165
« 0.05611646 -0.14710188 -0.2158251 -0.12078391 -0.23678195 0.051396836 0.043477915 -0.18218066 0.08816228 -0.30204454 -0.016982239 -0.010915321 0.19603495 -0.16935667 0.5000424 -0.2105118 0.32813865 -0.09519975 -0.3740033 -0.18947533 0.041020848 0.07831858 0.38736638 0.0036276684 0.03653963 -0.012914354 -0.40182978 -0.04065748 -0.03445482 -0.03145772 -0.2630732 -0.3009525 -0.11234997 -0.11316793 0.0730281 0.120683454 0.4278309 -0.2120923 0.06652866 -0.011512574 0.14672329 0.21154352 -0.10519697 -0.04491558 -0.5524707 -0.10752549 0.20916937 -0.28903517 -0.30038407 0.13692333 -0.0029490455 0.3637232 -0.43934155 0.06969771 0.059625633 0.40087733 0.106947504 0.33471823 0.25182772 0.011189661 0.36844963 -0.65106446 -0.20886898 0.28832632 0.062233746 -0.49533212 -0.11477621 0.108807445 -0.06986797 -0.23098138 0.30019024 -0.37161583 0.04126008 0.22938567 0.2726438 0.14758235 0.45929846 -0.091779985 0.0071224086 0.09307543 -0.050233975 -0.15208152 0.18588226 -0.34244668 0.11596304 -0.10637716 0.19342577 -0.35197723 0.40687907 -0.297013 -0.19521835 0.05890477 -0.32715675 0.19456519 -0.5897487 -0.088104635 -0.014863983 -0.062147826 -0.25485656 0.15028942
